FANN_FLO_1.1
3 0.700000 1.000000 0 4 4 5.00000000000000000000e-01 5.00000000000000000000e-01
31 61 6 
0 0 0 0 0 0 0 0 0 0 0 0 0 0 0 0 0 0 0 0 0 0 0 0 0 0 0 0 0 0 0 
31 31 31 31 31 31 31 31 31 31 31 31 31 31 31 31 31 31 31 31 31 31 31 31 31 31 31 31 31 31 31 31 31 31 31 31 31 31 31 31 31 31 31 31 31 31 31 31 31 31 31 31 31 31 31 31 31 31 31 31 0 
61 61 61 61 61 0 
(0 -4.15402621030807495117e-01) (1 -3.30178141593933105469e-01) (2 8.44709388911724090576e-03) (3 3.58169861137866973877e-02) (4 1.42545834183692932129e-01) (5 1.29191696643829345703e+00) (6 -4.21636588871479034424e-02) (7 3.60508799552917480469e-01) (8 -2.47318887710571289062e+00) (9 -5.95520377159118652344e-01) (10 4.50314313173294067383e-01) (11 -1.53452241420745849609e+00) (12 1.00272297859191894531e-01) (13 8.51954743266105651855e-02) (14 -2.57571101188659667969e-01) (15 -5.74760511517524719238e-02) (16 2.50190764665603637695e-01) (17 7.75684937834739685059e-02) (18 2.38340511918067932129e-01) (19 -1.12560403347015380859e+00) (20 -1.77094731479883193970e-02) (21 -5.84574490785598754883e-02) (22 -1.20608544349670410156e+00) (23 8.44638729095458984375e+00) (24 -3.38506191968917846680e-01) (25 5.28826951980590820312e-01) (26 -1.03010190650820732117e-02) (27 4.52013909816741943359e-02) (28 9.41969490051269531250e+00) (29 2.83945798873901367188e-01) (30 -1.52040690183639526367e-01) (0 -1.34709715843200683594e-01) (1 -2.53388702869415283203e-01) (2 -1.06308139860630035400e-01) (3 -2.95401141047477722168e-02) (4 -2.31947656720876693726e-02) (5 -4.35938930511474609375e+00) (6 -5.55731415748596191406e-01) (7 4.56026172637939453125e+00) (8 -1.21537327766418457031e-01) (9 7.50036478042602539062e-01) (10 6.57003223896026611328e-01) (11 4.30136583745479583740e-02) (12 -1.71715412288904190063e-02) (13 2.45850846171379089355e-01) (14 -2.42967769503593444824e-01) (15 -5.18744885921478271484e-01) (16 -1.14860248565673828125e+00) (17 -3.86835426092147827148e-01) (18 6.54691219329833984375e-01) (19 -3.87599259614944458008e-01) (20 -2.15251564979553222656e-01) (21 1.74333858489990234375e+00) (22 -8.97379696369171142578e-01) (23 -2.94403839111328125000e+00) (24 3.17139863967895507812e+00) (25 9.36106666922569274902e-02) (26 -7.03437805175781250000e-01) (27 -7.36591875553131103516e-01) (28 -2.86801218986511230469e-01) (29 2.33152851462364196777e-01) (30 -3.06492775678634643555e-01) (0 8.46047997474670410156e-02) (1 -8.98465141654014587402e-02) (2 -4.76501524448394775391e-01) (3 -3.52349996566772460938e-01) (4 -1.27404958009719848633e-01) (5 -2.53427565097808837891e-01) (6 -7.77119696140289306641e-02) (7 5.56021356582641601562e+00) (8 -1.12888097763061523438e+00) (9 -1.18805713951587677002e-01) (10 -6.65835440158843994141e-01) (11 1.55990326404571533203e+00) (12 -3.14975939691066741943e-02) (13 -1.88599658012390136719e+00) (14 -5.98714835941791534424e-02) (15 -1.08919091522693634033e-01) (16 -8.07729625701904296875e+00) (17 2.77020893990993499756e-02) (18 9.72162485122680664062e-02) (19 -4.56674480438232421875e+00) (20 -3.13283979892730712891e-01) (21 3.77329200506210327148e-01) (22 -1.65843448638916015625e+01) (23 1.09022660180926322937e-02) (24 3.66993761062622070312e+00) (25 2.40662264823913574219e+00) (26 -1.57368630170822143555e-01) (27 -1.89758881926536560059e-01) (28 1.51684835553169250488e-01) (29 5.99038481712341308594e-01) (30 -2.97350659966468811035e-02) (0 -1.09083938598632812500e+00) (1 -1.65757387876510620117e-01) (2 1.03117548860609531403e-03) (3 7.14457184076309204102e-02) (4 2.09837704896926879883e-02) (5 4.38564598560333251953e-01) (6 -1.58010944724082946777e-01) (7 -1.36608314514160156250e+00) (8 5.44607222080230712891e-01) (9 -2.19216179847717285156e+00) (10 6.84957981109619140625e+00) (11 -1.79318737983703613281e+00) (12 -3.55992704629898071289e-01) (13 -1.72856345772743225098e-01) (14 -2.26342782378196716309e-01) (15 -1.16261817514896392822e-01) (16 1.88452512025833129883e-01) (17 1.70801624655723571777e-01) (18 -6.87108457088470458984e-01) (19 6.04152297973632812500e+01) (20 1.40422582626342773438e+01) (21 -2.34460544586181640625e+00) (22 6.56729370117187500000e+02) (23 1.40351986885070800781e+00) (24 -1.06020522117614746094e+00) (25 4.06064033508300781250e-01) (26 3.83862376213073730469e-01) (27 4.51974183320999145508e-01) (28 5.01986443996429443359e-01) (29 4.45464283227920532227e-01) (30 -2.47629448771476745605e-01) (0 9.02727186679840087891e-01) (1 -1.54631258919835090637e-02) (2 -2.23657265305519104004e-01) (3 -1.63226902484893798828e-01) (4 -2.41129562258720397949e-01) (5 -2.86526060104370117188e+00) (6 3.19818668067455291748e-02) (7 2.65694332122802734375e+00) (8 2.00805664062500000000e-01) (9 3.73854815959930419922e-01) (10 -8.07598769664764404297e-01) (11 1.44586586952209472656e+00) (12 6.86048567295074462891e-02) (13 -7.37165093421936035156e-01) (14 1.59737125039100646973e-01) (15 1.47396355867385864258e-01) (16 -8.66846323013305664062e-01) (17 -4.88181972503662109375e+00) (18 2.63227671384811401367e-01) (19 1.13279139995574951172e+00) (20 7.56143704056739807129e-02) (21 4.23073649406433105469e-01) (22 1.39831471443176269531e+00) (23 -4.69516992568969726562e+00) (24 7.72448360919952392578e-01) (25 -4.82892036437988281250e-01) (26 7.07533434033393859863e-02) (27 1.15265108644962310791e-01) (28 -2.80209392309188842773e-01) (29 -1.04142010211944580078e+00) (30 5.32174646854400634766e-01) (0 1.22109687328338623047e+00) (1 2.49149397015571594238e-01) (2 3.11056226491928100586e-01) (3 1.76369011402130126953e-01) (4 2.70422603935003280640e-02) (5 -3.80481868982315063477e-01) (6 1.90035521984100341797e-01) (7 3.82986831665039062500e+00) (8 -3.79054784774780273438e-01) (9 -5.28195872902870178223e-02) (10 -4.79286718368530273438e+00) (11 1.97637617588043212891e+00) (12 5.12130022048950195312e-01) (13 2.69161731004714965820e-01) (14 4.01814794167876243591e-03) (15 6.00260272622108459473e-02) (16 2.09307447075843811035e-01) (17 -5.27692198753356933594e-01) (18 4.14385408163070678711e-01) (19 -3.04054290056228637695e-01) (20 3.37243080139160156250e-01) (21 4.84267473220825195312e+00) (22 -1.66641521453857421875e+00) (23 -4.35324192047119140625e+00) (24 6.67333662509918212891e-01) (25 -2.34246969223022460938e-01) (26 1.35009542107582092285e-01) (27 1.82933479547500610352e-01) (28 -8.87524634599685668945e-02) (29 -2.57440900802612304688e+00) (30 4.59670752286911010742e-01) (0 -3.70617330074310302734e-01) (1 -1.10809840261936187744e-01) (2 -9.13104295730590820312e-01) (3 -8.51382076740264892578e-01) (4 9.53465476632118225098e-02) (5 1.46749949455261230469e+00) (6 4.32251930236816406250e-01) (7 -1.49365231394767761230e-01) (8 -2.84699857234954833984e-01) (9 -3.46987873315811157227e-01) (10 2.08598211407661437988e-01) (11 -6.57459855079650878906e-01) (12 1.60590693354606628418e-01) (13 -4.33923006057739257812e+00) (14 -6.94561660289764404297e-01) (15 -1.89250230789184570312e-01) (16 -1.13771557807922363281e+00) (17 1.54543411731719970703e+00) (18 7.08529829978942871094e-01) (19 -1.45104324817657470703e+00) (20 -4.18553495407104492188e+00) (21 -5.73238432407379150391e-01) (22 -2.94716268777847290039e-01) (23 3.10777521133422851562e+00) (24 7.04743266105651855469e-01) (25 2.64250135421752929688e+00) (26 -2.33621430397033691406e+00) (27 -2.34502458572387695312e+00) (28 1.72474145889282226562e+00) (29 2.08792471885681152344e+00) (30 1.39679908752441406250e-01) (0 -6.86253118515014648438e+00) (1 8.31768438220024108887e-02) (2 6.20620787143707275391e-01) (3 5.43538451194763183594e-01) (4 3.48537079989910125732e-02) (5 -1.60477066040039062500e+00) (6 1.02225914597511291504e-01) (7 -2.68041372299194335938e-01) (8 1.12195527553558349609e+00) (9 2.13112160563468933105e-01) (10 1.69852510094642639160e-01) (11 -2.01762294769287109375e+00) (12 8.90989527106285095215e-02) (13 1.08828353881835937500e+00) (14 4.18046563863754272461e-02) (15 -1.05273574590682983398e-01) (16 4.46380764245986938477e-01) (17 -1.84620767831802368164e-01) (18 6.46732375025749206543e-02) (19 -5.10961353778839111328e-01) (20 5.90849578380584716797e-01) (21 -1.39008913040161132812e+01) (22 4.61466884613037109375e+00) (23 2.80478924512863159180e-01) (24 -1.63219839334487915039e-01) (25 4.25098359584808349609e-01) (26 6.09021365642547607422e-01) (27 1.10814583301544189453e+00) (28 2.59135782718658447266e-01) (29 6.18151009082794189453e-01) (30 1.72681704163551330566e-01) (0 5.77333569526672363281e-02) (1 6.98711216449737548828e-01) (2 6.88177108764648437500e-01) (3 6.79819166660308837891e-01) (4 4.47575926780700683594e-01) (5 -1.79249033331871032715e-01) (6 3.75579416751861572266e-01) (7 -3.08077991008758544922e-01) (8 8.77757430076599121094e-01) (9 -3.48551392555236816406e+00) (10 -2.75205582380294799805e-01) (11 -2.70503973960876464844e+00) (12 4.92518484592437744141e-01) (13 7.38475739955902099609e-01) (14 9.82758998870849609375e-02) (15 3.76277774572372436523e-01) (16 1.79449439048767089844e+00) (17 1.62093624472618103027e-01) (18 5.60836791992187500000e-01) (19 -1.78586408495903015137e-01) (20 -6.53426170349121093750e+00) (21 -1.81787598133087158203e+00) (22 -5.63044607639312744141e-01) (23 1.92116469144821166992e-01) (24 2.70191580057144165039e-01) (25 2.02892288565635681152e-01) (26 -3.10375273227691650391e-01) (27 -4.85219419002532958984e-01) (28 -3.73142689466476440430e-01) (29 3.09713304042816162109e-01) (30 1.04681640863418579102e-01) (0 -8.90153884887695312500e-01) (1 -2.75636523962020874023e-01) (2 1.01190686225891113281e-01) (3 8.36687311530113220215e-02) (4 4.62013036012649536133e-01) (5 -2.65848487615585327148e-02) (6 -2.88077414035797119141e-01) (7 4.09511089324951171875e+00) (8 -7.13038444519042968750e-01) (9 2.65696024894714355469e+00) (10 1.32334756851196289062e+00) (11 -2.62408554553985595703e-01) (12 1.36320054531097412109e-01) (13 -4.64445091784000396729e-02) (14 -3.15471559762954711914e-01) (15 -2.44817137718200683594e+00) (16 -3.04836183786392211914e-01) (17 -2.54414707422256469727e-01) (18 7.03467905521392822266e-01) (19 -2.70639848709106445312e+00) (20 -6.04943454265594482422e-01) (21 3.27922487258911132812e+00) (22 -2.70865130424499511719e+00) (23 -2.09920093417167663574e-01) (24 3.66307139396667480469e-01) (25 1.73166608810424804688e+00) (26 -6.50911927223205566406e-01) (27 -1.52063715457916259766e+00) (28 9.84130680561065673828e-01) (29 2.66202425956726074219e+00) (30 -1.71378648281097412109e+00) (0 -1.57630789279937744141e+00) (1 -4.05060946941375732422e-01) (2 6.51813566684722900391e-01) (3 7.05059111118316650391e-01) (4 9.65841054916381835938e-01) (5 2.75524765253067016602e-01) (6 -2.86550551652908325195e-01) (7 -2.71180301904678344727e-01) (8 4.45335090160369873047e-01) (9 -5.60272395610809326172e-01) (10 8.15158939361572265625e+00) (11 -6.45849525928497314453e-01) (12 -4.34947997331619262695e-01) (13 -1.52365133166313171387e-01) (14 -9.85480770468711853027e-02) (15 6.43762424588203430176e-02) (16 2.50719860196113586426e-02) (17 -5.85339963436126708984e-01) (18 -4.89701271057128906250e-01) (19 7.56801635742187500000e+02) (20 4.13707733154296875000e+00) (21 -5.71074306964874267578e-01) (22 3.37944841384887695312e+00) (23 1.63194763660430908203e+00) (24 -2.74123978614807128906e+00) (25 5.28021037578582763672e-01) (26 3.77689361572265625000e-01) (27 6.78292810916900634766e-01) (28 9.13861095905303955078e-01) (29 1.32733500003814697266e+00) (30 -1.19833819568157196045e-01) (0 -1.30395174026489257812e+01) (1 3.05653929710388183594e-01) (2 5.04505038261413574219e-01) (3 5.76435208320617675781e-01) (4 1.05723313987255096436e-01) (5 -1.32470571994781494141e+00) (6 -3.52715291082859039307e-02) (7 -1.68091207742691040039e-02) (8 4.12098960876464843750e+01) (9 -5.65806198120117187500e+00) (10 4.54601287841796875000e+00) (11 -1.22742903232574462891e+00) (12 -2.79998093843460083008e-01) (13 1.66826784610748291016e-01) (14 -2.41003334522247314453e-01) (15 -3.19512248039245605469e-01) (16 1.19278661906719207764e-01) (17 -1.36662855744361877441e-01) (18 -2.50500112771987915039e-01) (19 -7.65123605728149414062e-01) (20 1.64203894138336181641e+00) (21 -1.34538040161132812500e+01) (22 4.63058853149414062500e+00) (23 2.75462293624877929688e+00) (24 -3.14504355192184448242e-01) (25 8.56027722358703613281e-01) (26 6.88379049301147460938e-01) (27 1.13164961338043212891e+00) (28 5.86136102676391601562e-01) (29 8.40052589774131774902e-02) (30 -1.93515539169311523438e-01) (0 -2.47821748256683349609e-01) (1 -1.24229349195957183838e-01) (2 -2.68122404813766479492e-01) (3 -3.21780651807785034180e-01) (4 -6.15275621414184570312e-01) (5 -1.65603548288345336914e-01) (6 2.74782180786132812500e-01) (7 -4.97545123100280761719e-01) (8 -4.69956547021865844727e-01) (9 -5.05381226539611816406e-01) (10 -4.79227972030639648438e+00) (11 -5.51075339317321777344e-01) (12 3.40598851442337036133e-01) (13 3.50727528333663940430e-01) (14 -4.15320724248886108398e-01) (15 -3.47955264151096343994e-02) (16 3.47832536697387695312e+00) (17 3.88784706592559814453e-01) (18 2.41093829274177551270e-01) (19 -3.71879965066909790039e-01) (20 -3.19583272933959960938e+00) (21 -7.62276232242584228516e-01) (22 4.39862442016601562500e+00) (23 8.75615775585174560547e-02) (24 1.77639865875244140625e+00) (25 -3.06988090276718139648e-01) (26 -4.61554042994976043701e-02) (27 -2.95960068702697753906e-01) (28 -5.83972573280334472656e-01) (29 -5.23586809635162353516e-01) (30 -1.68264523148536682129e-01) (0 -1.44104465842247009277e-01) (1 -4.67167682945728302002e-02) (2 -1.86051115393638610840e-01) (3 2.08492763340473175049e-03) (4 1.43752408027648925781e+00) (5 -1.11216574907302856445e-01) (6 -6.45079538226127624512e-02) (7 5.94523727893829345703e-01) (8 9.65737724304199218750e+00) (9 2.72012412548065185547e-01) (10 -1.31153881549835205078e-01) (11 1.47625327110290527344e-01) (12 8.56588631868362426758e-02) (13 -6.66273593902587890625e-01) (14 -3.46080303192138671875e-01) (15 8.03834021091461181641e-01) (16 8.36868435144424438477e-02) (17 1.55021929740905761719e+00) (18 6.65572345256805419922e-01) (19 -1.09673678874969482422e+00) (20 -1.01949000358581542969e+00) (21 4.34840112924575805664e-01) (22 -8.30730199813842773438e-01) (23 4.22537863254547119141e-01) (24 -4.23875093460083007812e-01) (25 5.45166373252868652344e-01) (26 -3.42432200908660888672e-01) (27 -2.46337485313415527344e+00) (28 3.25806379318237304688e-01) (29 3.34810948371887207031e+00) (30 -1.32537379860877990723e-01) (0 -5.40652394294738769531e-01) (1 1.89498141407966613770e-01) (2 4.03408497571945190430e-01) (3 4.81798112392425537109e-01) (4 2.42996454238891601562e+00) (5 3.48295629024505615234e-01) (6 -2.83456653356552124023e-01) (7 1.54249787330627441406e+00) (8 -1.50809240341186523438e+00) (9 2.37341761589050292969e-01) (10 2.29104661941528320312e+00) (11 -1.54495453834533691406e+00) (12 4.51259426772594451904e-02) (13 -1.97084754705429077148e-01) (14 -2.12300226092338562012e-01) (15 -2.40481927990913391113e-01) (16 -2.50592648983001708984e-01) (17 -1.73321080207824707031e+00) (18 4.10592049360275268555e-01) (19 -2.84181332588195800781e+00) (20 -6.87588989734649658203e-01) (21 6.89861476421356201172e-01) (22 -1.74855804443359375000e+00) (23 1.86084806919097900391e+00) (24 2.08746157586574554443e-02) (25 9.14340317249298095703e-01) (26 1.94687455892562866211e-01) (27 -3.89479219913482666016e-01) (28 6.10189676284790039062e-01) (29 5.85679888725280761719e-01) (30 -4.85436081886291503906e-01) (0 8.45286175608634948730e-02) (1 4.37779784202575683594e-01) (2 3.62244069576263427734e-01) (3 3.69878947734832763672e-01) (4 3.69402766227722167969e-01) (5 -1.70339047908782958984e+00) (6 2.75545448064804077148e-01) (7 -3.56519855558872222900e-02) (8 7.20405876636505126953e-01) (9 3.23783487081527709961e-01) (10 -1.13261431455612182617e-01) (11 -7.85761848092079162598e-02) (12 -1.18220214843750000000e+01) (13 5.42810261249542236328e-01) (14 5.33575415611267089844e-01) (15 1.18647135794162750244e-01) (16 3.85197013616561889648e-01) (17 -2.08102321624755859375e+00) (18 -1.61443984508514404297e+00) (19 1.08009159564971923828e-01) (20 -6.31961002945899963379e-02) (21 -5.56890785694122314453e-01) (22 4.65965127944946289062e+00) (23 -7.33803138136863708496e-02) (24 1.23590838909149169922e+00) (25 -2.95748203992843627930e-01) (26 6.12120747566223144531e-01) (27 3.61846178770065307617e-01) (28 -4.51566457748413085938e-01) (29 -4.90259742736816406250e+00) (30 3.42405259609222412109e-01) (0 -1.33478781208395957947e-02) (1 -9.66908931732177734375e+00) (2 -2.89033870697021484375e+01) (3 -2.88285541534423828125e+01) (4 -1.17126598954200744629e-01) (5 1.26309737563133239746e-01) (6 -8.18040445446968078613e-02) (7 5.93033373355865478516e-01) (8 -1.91295468807220458984e+00) (9 -2.42019012570381164551e-01) (10 7.08716571331024169922e-01) (11 1.68106222152709960938e+00) (12 -1.21506780385971069336e-01) (13 -1.73521661758422851562e+00) (14 -9.65976566076278686523e-02) (15 1.95320155471563339233e-02) (16 -5.05328941345214843750e+00) (17 1.29355943202972412109e+00) (18 -3.72894346714019775391e-01) (19 1.42261183261871337891e+00) (20 1.32283818721771240234e+00) (21 9.16998386383056640625e-01) (22 -4.17514353990554809570e-01) (23 1.78104448318481445312e+00) (24 -2.81079530715942382812e+00) (25 -9.90905404090881347656e-01) (26 1.09476529061794281006e-01) (27 5.82599937915802001953e-01) (28 1.04477846622467041016e+00) (29 -1.74773290753364562988e-01) (30 -6.84423446655273437500e-02) (0 4.19165045022964477539e-01) (1 -3.25807631015777587891e-02) (2 -2.01916038990020751953e-01) (3 -2.58975714445114135742e-01) (4 -3.08904498815536499023e-02) (5 -4.00316178798675537109e-01) (6 -2.72879097610712051392e-03) (7 2.45219290256500244141e-01) (8 -2.30138167738914489746e-01) (9 1.14327192306518554688e+00) (10 -8.77559363842010498047e-01) (11 2.13587141036987304688e+00) (12 -1.73991695046424865723e-01) (13 -1.91094920039176940918e-01) (14 -2.92774826288223266602e-01) (15 -3.65145117044448852539e-01) (16 -4.00662374496459960938e+00) (17 -2.28528052568435668945e-01) (18 1.63531303405761718750e-01) (19 -3.05991020202636718750e+01) (20 -2.47461915016174316406e+00) (21 5.96592165529727935791e-02) (22 -1.96226441860198974609e+00) (23 -1.61896288394927978516e+00) (24 4.45590591430664062500e+00) (25 1.60709545016288757324e-01) (26 -2.42350444197654724121e-01) (27 -1.52434325218200683594e+00) (28 -2.17388510704040527344e+00) (29 7.93039619922637939453e-01) (30 -1.85476034879684448242e-01) (0 1.06459066271781921387e-01) (1 2.76414789259433746338e-02) (2 -6.47248374298214912415e-03) (3 1.87410116195678710938e-01) (4 -1.03571079671382904053e-01) (5 -8.87592196464538574219e-01) (6 -3.64161789417266845703e-01) (7 7.14872419834136962891e-01) (8 1.63337826728820800781e+00) (9 2.17967724800109863281e+00) (10 1.24780189990997314453e+00) (11 -9.45800065994262695312e-01) (12 -6.16804540157318115234e-01) (13 -5.02573823928833007812e+00) (14 2.40259781479835510254e-01) (15 -7.26434051990509033203e-01) (16 -8.05271339416503906250e+00) (17 -1.31896388530731201172e+00) (18 -5.18903583288192749023e-02) (19 -9.90436792373657226562e-01) (20 -1.78235507011413574219e+00) (21 3.85206484794616699219e+00) (22 9.47175920009613037109e-01) (23 -1.36964035034179687500e+00) (24 1.78997325897216796875e+00) (25 5.07623970508575439453e-01) (26 3.19062232971191406250e-01) (27 1.50944188237190246582e-01) (28 3.75030398368835449219e-01) (29 2.77285361289978027344e+00) (30 3.69935780763626098633e-01) (0 -5.82753904163837432861e-02) (1 1.51215925812721252441e-01) (2 2.81954705715179443359e-01) (3 3.49411189556121826172e-01) (4 -1.86641141772270202637e-01) (5 2.83827662467956542969e+00) (6 -1.42348945140838623047e-01) (7 2.84650945663452148438e+00) (8 -4.00152236223220825195e-01) (9 -6.48546159267425537109e-01) (10 -8.52507352828979492188e-02) (11 -3.83039879798889160156e+00) (12 -4.50826855376362800598e-03) (13 1.95748195052146911621e-01) (14 -1.24296076595783233643e-01) (15 1.43426328897476196289e-01) (16 7.96521663665771484375e-01) (17 -9.28178504109382629395e-02) (18 -1.88823770731687545776e-02) (19 -1.42929661273956298828e+00) (20 3.24499893188476562500e+00) (21 3.16313219070434570312e+00) (22 -4.31710433959960937500e+00) (23 -2.60267317295074462891e-01) (24 -3.41617494821548461914e-01) (25 2.96030759811401367188e-01) (26 1.40439599752426147461e-01) (27 5.06823822021484375000e+02) (28 3.94884318113327026367e-01) (29 -2.20726799964904785156e+00) (30 1.27032529562711715698e-02) (0 -1.20750594139099121094e+00) (1 1.84874400496482849121e-01) (2 1.83105379343032836914e-01) (3 1.62802711129188537598e-01) (4 3.46645504236221313477e-01) (5 -6.09428644180297851562e-01) (6 4.06997829675674438477e-01) (7 -2.35168528556823730469e+00) (8 3.71841430664062500000e-01) (9 1.57434773445129394531e+00) (10 1.98405838012695312500e+00) (11 -1.17526853084564208984e+00) (12 -9.54104661941528320312e-02) (13 -1.83474496006965637207e-01) (14 -2.24952673912048339844e+00) (15 -4.58305406570434570312e+00) (16 -4.76163434982299804688e+00) (17 -1.88132673501968383789e-01) (18 3.47909212112426757812e-01) (19 -1.00781488418579101562e+00) (20 -9.54023897647857666016e-01) (21 -2.94906163215637207031e+00) (22 -2.93945163488388061523e-01) (23 5.90078234672546386719e-01) (24 1.40385377407073974609e+00) (25 6.83234930038452148438e-01) (26 2.04216539859771728516e-01) (27 -1.92492222785949707031e+00) (28 2.47898265719413757324e-01) (29 4.08731031417846679688e+00) (30 -4.44119423627853393555e-01) (0 -9.24926042556762695312e-01) (1 -1.53650864958763122559e-01) (2 -7.43718519806861877441e-02) (3 -1.00509718060493469238e-01) (4 4.20053564012050628662e-02) (5 1.15279161930084228516e+00) (6 5.63405930995941162109e-01) (7 -2.94436836242675781250e+00) (8 -1.61742472648620605469e+00) (9 -7.68454492092132568359e-01) (10 1.30956709384918212891e+00) (11 -7.63804078102111816406e-01) (12 -9.03443455696105957031e-01) (13 -3.30955795943737030029e-02) (14 -1.24259777367115020752e-01) (15 -1.26844406127929687500e-01) (16 -1.31615281105041503906e-01) (17 2.64544278383255004883e-01) (18 -8.47575664520263671875e-01) (19 3.43409385681152343750e+01) (20 3.86402726173400878906e+00) (21 -4.70550119876861572266e-01) (22 2.30390429496765136719e+00) (23 2.83289408683776855469e+00) (24 -3.03940320014953613281e+00) (25 -5.21416552364826202393e-02) (26 1.26067087054252624512e-01) (27 7.80983924865722656250e-01) (28 6.36245727539062500000e-01) (29 3.03375646471977233887e-02) (30 2.66482438892126083374e-02) (0 2.50420838594436645508e-01) (1 -1.94773328304290771484e+00) (2 -3.84239912033081054688e-01) (3 -3.47684025764465332031e-01) (4 -2.06433677673339843750e+00) (5 4.48533326387405395508e-01) (6 -1.14573895931243896484e-01) (7 9.98031139373779296875e+00) (8 -1.79356155395507812500e+02) (9 -2.00359678268432617188e+00) (10 1.87820017337799072266e+00) (11 8.59775662422180175781e-01) (12 -8.02316963672637939453e-02) (13 -9.91325676441192626953e-01) (14 -1.44461646676063537598e-01) (15 -3.74773621559143066406e-01) (16 -3.44469875097274780273e-01) (17 -8.76939371228218078613e-02) (18 -6.84763967990875244141e-01) (19 2.06620573997497558594e+00) (20 1.18510789871215820312e+01) (21 3.71002316474914550781e-01) (22 -4.96285200119018554688e-01) (23 -1.65812030434608459473e-01) (24 -2.98615694046020507812e+00) (25 -5.17153739929199218750e-01) (26 -5.01991748809814453125e-01) (27 8.51256966590881347656e-01) (28 1.85624825954437255859e+00) (29 -2.19987702369689941406e+00) (30 -4.08180877566337585449e-02) (0 -3.72753888368606567383e-01) (1 8.17123800516128540039e-02) (2 7.52425119280815124512e-02) (3 1.08415506780147552490e-01) (4 -1.18467323482036590576e-01) (5 -1.81469712406396865845e-02) (6 -1.30522981286048889160e-01) (7 7.39083707332611083984e-01) (8 -1.81915581226348876953e+00) (9 -1.06326766312122344971e-01) (10 -4.44435715675354003906e-01) (11 2.20139837265014648438e+00) (12 8.78593847155570983887e-02) (13 1.51580715179443359375e+00) (14 -7.09766056388616561890e-03) (15 2.42053270339965820312e+00) (16 2.38626155853271484375e+01) (17 2.16670727729797363281e+00) (18 -6.31285011768341064453e-02) (19 4.06791503906250000000e+02) (20 -3.36049246788024902344e+00) (21 1.27429580688476562500e+00) (22 -4.02660876512527465820e-01) (23 6.97717368602752685547e-01) (24 -5.35945296287536621094e-01) (25 -3.10399264097213745117e-01) (26 -9.32712018489837646484e-01) (27 -2.27561637759208679199e-01) (28 -3.01549345254898071289e-01) (29 -4.51413393020629882812e+00) (30 -3.22247505187988281250e-01) (0 -1.23868918418884277344e+00) (1 2.29719415307044982910e-01) (2 1.84173345565795898438e-01) (3 1.18572227656841278076e-01) (4 1.30343079566955566406e-01) (5 -1.07563257217407226562e+00) (6 1.76679402589797973633e-01) (7 7.65273034572601318359e-01) (8 5.23678421974182128906e-01) (9 -2.70445370674133300781e+00) (10 6.97289168834686279297e-01) (11 -2.31063008308410644531e+00) (12 -1.34816932678222656250e+00) (13 1.53182864189147949219e-01) (14 1.43265187740325927734e-01) (15 -1.38020008802413940430e-01) (16 -7.68611669540405273438e-01) (17 -4.19281311035156250000e+01) (18 -1.50890469551086425781e+00) (19 2.11273360252380371094e+00) (20 4.68675947189331054688e+00) (21 -2.12648582458496093750e+00) (22 2.23471117019653320312e+00) (23 2.26724669337272644043e-02) (24 -2.39379294216632843018e-02) (25 -1.37836590409278869629e-01) (26 1.18179452419281005859e+00) (27 1.84823036193847656250e+00) (28 1.49724423885345458984e-01) (29 -7.11795628070831298828e-01) (30 1.93363964557647705078e-01) (0 -1.44839119911193847656e+00) (1 -3.94808948040008544922e-02) (2 1.47814244031906127930e-01) (3 1.23540200293064117432e-02) (4 1.30449056625366210938e-01) (5 4.79063764214515686035e-02) (6 -2.34682157635688781738e-01) (7 7.97173595428466796875e+00) (8 -1.51421844959259033203e+00) (9 5.53655385971069335938e-01) (10 4.47130727767944335938e+00) (11 2.73746158927679061890e-02) (12 -7.98130035400390625000e-02) (13 -1.38531422615051269531e+00) (14 -1.10499851405620574951e-01) (15 -7.89710581302642822266e-01) (16 -8.26766908168792724609e-01) (17 -3.71538788080215454102e-01) (18 8.23528394103050231934e-02) (19 -2.57129049301147460938e+00) (20 8.24593007564544677734e-02) (21 2.76235508918762207031e+00) (22 -2.17275595664978027344e+00) (23 2.35956221818923950195e-01) (24 -4.52529266476631164551e-02) (25 1.74255058169364929199e-01) (26 5.93673586845397949219e-02) (27 5.23577407002449035645e-02) (28 3.62026870250701904297e-01) (29 1.55526304244995117188e+00) (30 -4.29951459169387817383e-01) (0 7.56257846951484680176e-02) (1 4.37051169574260711670e-02) (2 3.60242277383804321289e-02) (3 -1.27910380251705646515e-03) (4 -2.69933760166168212891e-01) (5 2.53356873989105224609e-01) (6 4.29123044013977050781e-01) (7 -1.73441421985626220703e+00) (8 3.40585851669311523438e+00) (9 -1.72405469417572021484e+00) (10 -1.35466969013214111328e+00) (11 2.96148449182510375977e-01) (12 1.58624202013015747070e-01) (13 4.13010597229003906250e+00) (14 2.23616287112236022949e-01) (15 3.98229271173477172852e-01) (16 2.39640636444091796875e+01) (17 4.74166482686996459961e-01) (18 -6.91436752676963806152e-02) (19 7.42153978347778320312e+00) (20 1.84280252456665039062e+00) (21 -1.98286283016204833984e+00) (22 5.73199510574340820312e+00) (23 1.91335126757621765137e-01) (24 -4.95499324798583984375e+00) (25 -6.08457997441291809082e-02) (26 -2.99121029675006866455e-02) (27 2.36244425177574157715e-02) (28 -4.03068155050277709961e-01) (29 -1.08019459247589111328e+00) (30 3.79790849983692169189e-02) (0 -3.71257334947586059570e-01) (1 -3.68587285280227661133e-01) (2 -4.22512114048004150391e-01) (3 -4.13408339023590087891e-01) (4 -2.40679889917373657227e-01) (5 7.15849995613098144531e-01) (6 4.77297544479370117188e-01) (7 -1.28895983099937438965e-01) (8 -7.42970049381256103516e-01) (9 -1.54286289215087890625e+00) (10 -1.10648967325687408447e-01) (11 2.71456688642501831055e-01) (12 4.88842934370040893555e-01) (13 4.03998136520385742188e-01) (14 1.09205722808837890625e-01) (15 1.43906757235527038574e-01) (16 2.39468097686767578125e+01) (17 7.23681151866912841797e-01) (18 -2.48081028461456298828e-01) (19 1.53769659996032714844e+00) (20 2.40287999622523784637e-03) (21 -3.79372668266296386719e+00) (22 1.84118166565895080566e-01) (23 6.82480394840240478516e-01) (24 -2.48520135879516601562e+00) (25 -1.67691260576248168945e-01) (26 -1.12344570457935333252e-01) (27 -2.32074782252311706543e-01) (28 -1.11396433785557746887e-02) (29 -1.12208008766174316406e+00) (30 -2.83993363380432128906e-01) (0 5.33282220363616943359e-01) (1 -4.49252091348171234131e-02) (2 -7.84611180424690246582e-02) (3 -1.47128060460090637207e-01) (4 1.01544134318828582764e-01) (5 -4.80716133117675781250e+00) (6 8.39441791176795959473e-02) (7 -2.29849770665168762207e-01) (8 -2.64389187097549438477e-01) (9 2.02735495567321777344e+00) (10 -1.47373714447021484375e+01) (11 3.95501017570495605469e+00) (12 2.63951331377029418945e-01) (13 5.36945983767509460449e-02) (14 1.86028689146041870117e-01) (15 2.59044952690601348877e-03) (16 -1.89470946788787841797e+00) (17 1.27819836139678955078e-01) (18 2.78443068265914916992e-01) (19 -4.06833038330078125000e+02) (20 -4.11355543136596679688e+00) (21 2.56813502311706542969e+00) (22 -1.39952492713928222656e+00) (23 -1.22186279296875000000e+00) (24 1.13862669467926025391e+00) (25 -3.82342362403869628906e+00) (26 -1.50882470607757568359e+00) (27 -4.30735731124877929688e+00) (28 -7.59796500205993652344e-01) (29 1.06758880615234375000e+00) (30 2.33865976333618164062e-01) (0 4.02084318920969963074e-03) (1 -1.18487820029258728027e-01) (2 -7.07651525735855102539e-02) (3 -9.09100547432899475098e-02) (4 -2.53010898828506469727e-01) (5 -1.37726712226867675781e+00) (6 3.55871945619583129883e-01) (7 1.99887824058532714844e+00) (8 2.10647761821746826172e-01) (9 -3.97985816001892089844e+00) (10 -6.06043815612792968750e-01) (11 1.94868063926696777344e+00) (12 5.37593245506286621094e-01) (13 -1.79764235019683837891e+00) (14 -5.56907765567302703857e-02) (15 8.18384140729904174805e-02) (16 2.97502726316452026367e-01) (17 9.56819458007812500000e+02) (18 4.33613419532775878906e-01) (19 9.39823687076568603516e-01) (20 -3.00320649147033691406e+00) (21 -2.22342395782470703125e+00) (22 8.97481381893157958984e-01) (23 -4.63414609432220458984e-01) (24 3.82687777280807495117e-01) (25 2.12358549237251281738e-01) (26 -7.41777122020721435547e-02) (27 -1.63437461853027343750e+00) (28 -7.87521362304687500000e-01) (29 6.11148774623870849609e-01) (30 -6.21754974126815795898e-02) (0 9.06533062458038330078e-01) (1 -2.60169450193643569946e-02) (2 -1.71282634139060974121e-01) (3 -1.16585798561573028564e-01) (4 -8.48472833633422851562e-01) (5 3.28743249177932739258e-01) (6 1.26240059733390808105e-01) (7 -7.17151820659637451172e-01) (8 -9.74993482232093811035e-02) (9 -2.34557211399078369141e-01) (10 -2.01454424858093261719e+00) (11 8.29849183559417724609e-01) (12 1.65401116013526916504e-01) (13 8.01049843430519104004e-02) (14 3.37679356336593627930e-01) (15 4.52929943799972534180e-01) (16 1.55613198876380920410e-01) (17 1.06266327202320098877e-01) (18 1.44015073776245117188e-01) (19 6.05031669139862060547e-01) (20 -8.15749883651733398438e-01) (21 -1.88449278473854064941e-01) (22 5.50612926483154296875e-01) (23 -2.03833007812500000000e+00) (24 1.04316997528076171875e+00) (25 -5.57001590728759765625e-01) (26 -3.12563031911849975586e-01) (27 -3.41162770986557006836e-01) (28 -1.38919293880462646484e+00) (29 -8.09675395488739013672e-01) (30 4.27563220262527465820e-01) (0 -7.85056054592132568359e-01) (1 -1.45152667537331581116e-02) (2 1.58074438571929931641e-01) (3 2.74235039949417114258e-01) (4 -2.93451994657516479492e-01) (5 -1.59981107711791992188e+00) (6 -1.48244826123118400574e-02) (7 -4.18233945965766906738e-02) (8 5.77184379100799560547e-01) (9 4.07132625579833984375e-01) (10 -7.57478028535842895508e-02) (11 -1.15070986747741699219e+00) (12 -1.41490370035171508789e-01) (13 7.17087149620056152344e-01) (14 -3.08365654200315475464e-02) (15 -6.41936600208282470703e-01) (16 2.88761407136917114258e-01) (17 -1.39170277118682861328e+00) (18 -2.24703028798103332520e-01) (19 7.49155855178833007812e+00) (20 1.20692074298858642578e+00) (21 -1.31831312179565429688e+00) (22 5.10546064376831054688e+00) (23 -2.91878674179315567017e-02) (24 -7.95021653175354003906e-02) (25 1.11328093335032463074e-02) (26 4.51668292284011840820e-01) (27 1.07013154029846191406e+00) (28 -1.58124696463346481323e-02) (29 -8.22796761989593505859e-01) (30 -3.15221995115280151367e-02) (0 4.62476402521133422852e-01) (1 1.02942086756229400635e-01) (2 -3.67530621588230133057e-02) (3 -8.74535925686359405518e-03) (4 3.06014418601989746094e-01) (5 3.46058225631713867188e+00) (6 5.29419362545013427734e-01) (7 -4.92971539497375488281e-01) (8 1.08285677433013916016e+00) (9 -9.26072597503662109375e-01) (10 -1.85228264331817626953e+00) (11 9.02879655361175537109e-01) (12 5.10299988090991973877e-02) (13 -6.35454714298248291016e-01) (14 9.27538946270942687988e-02) (15 2.91338682174682617188e-01) (16 -1.22471109032630920410e-01) (17 1.71114814281463623047e+00) (18 -1.77200227975845336914e-01) (19 2.74583101272583007812e-01) (20 -1.18520045280456542969e+00) (21 -1.13030529022216796875e+00) (22 -3.73227596282958984375e-01) (23 -4.68964546918869018555e-01) (24 -1.32444664835929870605e-01) (25 -1.06742084026336669922e+00) (26 -4.05150324106216430664e-01) (27 -6.55378282070159912109e-01) (28 -1.04580855369567871094e+00) (29 -4.77651625871658325195e-01) (30 2.05091357231140136719e-01) (0 2.94168382883071899414e-01) (1 -7.95549601316452026367e-02) (2 5.81674231216311454773e-03) (3 -1.36002346873283386230e-01) (4 -6.06668412685394287109e-01) (5 -1.27126264572143554688e+00) (6 -2.97813355922698974609e-01) (7 6.71521139144897460938e+00) (8 -6.44795969128608703613e-02) (9 1.32209330797195434570e-01) (10 2.09724545478820800781e-01) (11 6.00628972053527832031e-01) (12 -2.19962745904922485352e-01) (13 1.69815823435783386230e-01) (14 1.73078358173370361328e-01) (15 -3.80963236093521118164e-01) (16 1.07020966708660125732e-01) (17 -4.37000930309295654297e-01) (18 -2.74776905775070190430e-01) (19 2.01459836959838867188e+00) (20 1.54322993755340576172e+00) (21 1.36181795597076416016e+00) (22 6.52931332588195800781e-01) (23 -5.65463840961456298828e-01) (24 1.87342271208763122559e-01) (25 -1.36518865823745727539e-01) (26 7.30950593948364257812e-01) (27 1.33259940147399902344e+00) (28 -5.79050853848457336426e-02) (29 -4.58582115173339843750e+00) (30 3.34782332181930541992e-01) (0 -4.60296124219894409180e-01) (1 1.35400116443634033203e-01) (2 2.01941594481468200684e-01) (3 3.21421086788177490234e-01) (4 3.61116290092468261719e-01) (5 4.09642457962036132812e+00) (6 -6.71618953347206115723e-02) (7 1.90030008554458618164e-01) (8 -1.89797222614288330078e-01) (9 1.01246014237403869629e-02) (10 1.35485440492630004883e-01) (11 -3.57840132713317871094e+00) (12 1.98593959212303161621e-01) (13 2.19356700778007507324e-01) (14 -1.46085143089294433594e-01) (15 -1.93051993846893310547e-01) (16 4.94991421699523925781e-01) (17 2.34690260887145996094e+00) (18 2.21190765500068664551e-01) (19 -1.90564429759979248047e+00) (20 2.75361631065607070923e-02) (21 1.64840713143348693848e-01) (22 -6.24634087085723876953e-01) (23 8.27641677856445312500e+00) (24 -1.03641724586486816406e+00) (25 1.03522911667823791504e-01) (26 4.06642071902751922607e-02) (27 4.38588671386241912842e-03) (28 6.52811288833618164062e-01) (29 2.87604868412017822266e-01) (30 -1.92645356059074401855e-01) (0 1.70691752433776855469e+00) (1 -8.67947787046432495117e-02) (2 -2.67919868230819702148e-01) (3 -1.25378772616386413574e-01) (4 -9.13075581192970275879e-02) (5 5.81058204174041748047e-01) (6 2.09509387612342834473e-01) (7 1.89305871725082397461e-01) (8 -3.83304744958877563477e-01) (9 -1.56174743175506591797e+00) (10 -5.37184286117553710938e+00) (11 1.60974717140197753906e+00) (12 9.62567478418350219727e-02) (13 -2.18737915158271789551e-01) (14 1.68453291058540344238e-01) (15 3.37928295135498046875e-01) (16 9.48027223348617553711e-02) (17 -4.49460409581661224365e-02) (18 -3.98224502801895141602e-01) (19 4.65538167953491210938e+00) (20 -5.79151213169097900391e-02) (21 -8.99099931120872497559e-02) (22 1.00491178035736083984e+00) (23 -4.26027685403823852539e-01) (24 9.76914092898368835449e-02) (25 -4.36460465192794799805e-01) (26 -1.68313831090927124023e-01) (27 -2.77746289968490600586e-01) (28 -4.20362442731857299805e-01) (29 -5.66851258277893066406e-01) (30 1.56377553939819335938e-01) (0 -1.13800907135009765625e+00) (1 8.53986740112304687500e-02) (2 3.89521509408950805664e-01) (3 3.08427453041076660156e-01) (4 2.50988155603408813477e-01) (5 -1.29434525966644287109e+00) (6 -9.40178573131561279297e-01) (7 1.41560828685760498047e+00) (8 -8.40550661087036132812e-01) (9 6.28842878341674804688e+00) (10 2.67967224121093750000e+00) (11 1.53096273541450500488e-01) (12 -4.67981219291687011719e-01) (13 1.12447631359100341797e+00) (14 1.40957877039909362793e-01) (15 -1.15675282478332519531e+00) (16 1.50964215397834777832e-01) (17 -2.88771605491638183594e+00) (18 -4.38442558050155639648e-01) (19 -2.36713504791259765625e+00) (20 7.68342781066894531250e+00) (21 9.40571367740631103516e-01) (22 -7.73448720574378967285e-02) (23 3.28686624765396118164e-01) (24 -3.82035762071609497070e-01) (25 3.25285792350769042969e-01) (26 4.43370968103408813477e-01) (27 8.07431399822235107422e-01) (28 9.30269896984100341797e-01) (29 -2.43459790945053100586e-01) (30 1.15444891154766082764e-01) (0 -1.86829471588134765625e+00) (1 1.44624963402748107910e-01) (2 4.06522959470748901367e-01) (3 4.23713475465774536133e-01) (4 1.85905560851097106934e-01) (5 -3.42863965034484863281e+00) (6 -2.58043915033340454102e-01) (7 -5.56946873664855957031e-01) (8 2.54442764282226562500e+02) (9 1.52179610729217529297e+00) (10 3.03670716285705566406e+00) (11 4.62926179170608520508e-02) (12 -6.09403885900974273682e-02) (13 9.70914423465728759766e-01) (14 -2.07354754209518432617e-01) (15 8.77291411161422729492e-02) (16 2.87698179483413696289e-01) (17 3.16353023052215576172e-01) (18 -6.50064498186111450195e-02) (19 -1.01279258728027343750e+00) (20 -2.88430747985839843750e+01) (21 -3.00586849451065063477e-01) (22 -1.38732209801673889160e-01) (23 1.80376267433166503906e+00) (24 4.96242903172969818115e-02) (25 8.48816454410552978516e-01) (26 1.04685291647911071777e-01) (27 4.62890937924385070801e-02) (28 2.34552964568138122559e-01) (29 1.69173812866210937500e+01) (30 3.79901146516203880310e-03) (0 5.91419100761413574219e-01) (1 -9.66760441660881042480e-02) (2 -6.34882211685180664062e-01) (3 -7.64437913894653320312e-01) (4 -3.33755135536193847656e-01) (5 -5.38617372512817382812e-01) (6 -1.68317258358001708984e-01) (7 -2.32259742915630340576e-02) (8 -2.01159641146659851074e-01) (9 -1.80707716941833496094e+00) (10 -1.53286170959472656250e+00) (11 2.54358887672424316406e+00) (12 -5.24505436420440673828e-01) (13 -1.88464254140853881836e-01) (14 -6.98011741042137145996e-02) (15 5.03678023815155029297e-01) (16 4.13091713562607765198e-03) (17 -5.93728899955749511719e-01) (18 -5.87433993816375732422e-01) (19 1.01970887184143066406e+00) (20 -5.31801319122314453125e+00) (21 -3.51960480213165283203e-01) (22 6.68327987194061279297e-01) (23 -5.71937680244445800781e-01) (24 2.75225013494491577148e-01) (25 -3.84452104568481445312e-01) (26 -6.06317460536956787109e-01) (27 -4.89955997467041015625e+00) (28 -4.80035394430160522461e-01) (29 2.90803313255310058594e-01) (30 7.31653571128845214844e-02) (0 -9.12074565887451171875e-01) (1 -9.58898589015007019043e-02) (2 -3.65322023630142211914e-01) (3 -4.13405030965805053711e-01) (4 -1.43082633614540100098e-01) (5 1.30701982975006103516e+00) (6 9.71342474222183227539e-02) (7 -3.69793796539306640625e+00) (8 3.72888875007629394531e+00) (9 -4.30783063173294067383e-01) (10 -9.91903483867645263672e-01) (11 6.20795786380767822266e-01) (12 -6.26821994781494140625e-01) (13 -5.93182146549224853516e-01) (14 -3.25008481740951538086e-01) (15 2.98156797885894775391e-01) (16 1.06395119801163673401e-02) (17 1.81241130828857421875e+00) (18 -1.20436191558837890625e+00) (19 2.42090439796447753906e+00) (20 -4.65149784088134765625e+00) (21 -4.71184682846069335938e+00) (22 4.38986778259277343750e+00) (23 2.04652595520019531250e+00) (24 -2.09050461649894714355e-01) (25 -1.92723587155342102051e-01) (26 4.31473888456821441650e-02) (27 -2.62030184268951416016e-01) (28 1.38941453769803047180e-02) (29 1.88988104462623596191e-01) (30 1.53519898653030395508e-01) (0 1.97839826345443725586e-01) (1 -3.93835872411727905273e-01) (2 -4.49615567922592163086e-01) (3 -3.54191273450851440430e-01) (4 -6.66597306728363037109e-01) (5 1.71911582350730895996e-01) (6 2.20868453383445739746e-01) (7 -3.98201614618301391602e-01) (8 -1.29843151569366455078e+00) (9 -1.52863228321075439453e+00) (10 -3.89646679162979125977e-01) (11 1.30624270439147949219e+00) (12 5.05796968936920166016e-01) (13 1.34485459327697753906e+00) (14 9.45994555950164794922e-01) (15 3.40270066261291503906e+00) (16 2.42848129272460937500e+01) (17 4.82637834548950195312e+00) (18 5.28673939406871795654e-02) (19 3.56909362792968750000e+02) (20 -2.01357173919677734375e+00) (21 -1.76662027835845947266e+00) (22 1.19026935100555419922e+00) (23 6.79524898529052734375e-01) (24 -6.48829221725463867188e+00) (25 -2.70453393459320068359e-01) (26 -4.44172799587249755859e-01) (27 -4.25355136394500732422e-01) (28 -3.77814620733261108398e-01) (29 -9.94817316532135009766e-01) (30 -2.09133729338645935059e-01) (0 -8.99572730064392089844e-01) (1 7.08758473396301269531e-01) (2 7.65092372894287109375e-01) (3 8.23501765727996826172e-01) (4 5.75353145599365234375e-01) (5 -4.05661761760711669922e-01) (6 -1.20943076908588409424e-01) (7 -2.53342360258102416992e-01) (8 3.48336815834045410156e+00) (9 2.71447277069091796875e+00) (10 -2.93655931949615478516e-01) (11 -3.21317005157470703125e+00) (12 -1.84886097908020019531e-01) (13 1.36086976528167724609e+00) (14 -2.11428374052047729492e-01) (15 1.25929737091064453125e+00) (16 7.37703144550323486328e-01) (17 -1.96353122591972351074e-01) (18 3.97872567176818847656e-01) (19 -1.00260472297668457031e+00) (20 -4.31601095199584960938e+00) (21 1.49979010224342346191e-01) (22 -8.11369955539703369141e-01) (23 -4.44555819034576416016e-01) (24 4.52249765396118164062e+00) (25 1.03133606910705566406e+00) (26 7.32257425785064697266e-01) (27 -1.32098153233528137207e-01) (28 -3.87130856513977050781e-01) (29 2.45964229106903076172e-01) (30 2.24976930767297744751e-02) (0 -4.99925501644611358643e-02) (1 4.57272958755493164062e+00) (2 -7.81573653221130371094e-02) (3 5.47966994345188140869e-02) (4 -2.66184717416763305664e-01) (5 1.69655177742242813110e-02) (6 3.38467270135879516602e-01) (7 -1.24563074111938476562e+00) (8 7.13526189327239990234e-01) (9 -5.48473417758941650391e-01) (10 -4.40340566635131835938e+00) (11 3.50263953208923339844e-01) (12 2.91631847620010375977e-01) (13 7.53205657005310058594e-01) (14 -6.42839632928371429443e-03) (15 6.02772116661071777344e-01) (16 3.28953552246093750000e+00) (17 5.28087258338928222656e-01) (18 1.08617849647998809814e-01) (19 4.61457061767578125000e+00) (20 -6.11076295375823974609e-01) (21 -6.57181024551391601562e-01) (22 3.84934759140014648438e+00) (23 -1.50264307856559753418e-01) (24 8.70325118303298950195e-02) (25 -6.52783572673797607422e-01) (26 -2.68793553113937377930e-02) (27 -4.73851189017295837402e-02) (28 -4.79816293716430664062e+00) (29 -2.87518167495727539062e+00) (30 4.78518381714820861816e-02) (0 -6.68886721134185791016e-01) (1 2.57957130670547485352e-01) (2 9.36502158641815185547e-01) (3 9.65965330600738525391e-01) (4 -1.02956965565681457520e-01) (5 5.44970321655273437500e+00) (6 -2.74671733379364013672e-01) (7 1.02205741405487060547e+00) (8 -4.85880583524703979492e-01) (9 -3.01173716783523559570e-01) (10 6.40272200107574462891e-01) (11 -5.61242151260375976562e+00) (12 1.50871023535728454590e-01) (13 2.06533759832382202148e-01) (14 -2.87289738655090332031e-01) (15 4.83133569359779357910e-02) (16 4.88564431667327880859e-01) (17 9.78569090366363525391e-02) (18 8.78950357437133789062e-02) (19 -1.66898155212402343750e+00) (20 7.94086396694183349609e-01) (21 -2.28112769126892089844e+00) (22 -4.50201082229614257812e+00) (23 2.96384990215301513672e-01) (24 -6.13902151584625244141e-01) (25 3.17778897285461425781e+00) (26 3.31941992044448852539e-01) (27 5.56722106933593750000e+02) (28 4.57942366600036621094e-01) (29 -5.82049608230590820312e-01) (30 -9.04270857572555541992e-02) (0 3.16925454139709472656e+00) (1 2.13973805308341979980e-01) (2 -7.11425244808197021484e-02) (3 -8.73350258916616439819e-03) (4 -3.94652396440505981445e-01) (5 -7.47933745384216308594e-01) (6 -2.90761232376098632812e+00) (7 2.80186867713928222656e+00) (8 -5.31520843505859375000e-01) (9 -5.34007728099822998047e-01) (10 -1.58781123161315917969e+00) (11 8.40851783752441406250e+00) (12 1.69192254543304443359e+00) (13 2.32168629765510559082e-01) (14 1.80727496743202209473e-01) (15 3.88418018817901611328e-01) (16 3.15168052911758422852e-01) (17 4.25484359264373779297e-01) (18 1.62266170978546142578e+00) (19 2.43769931793212890625e+00) (20 -2.44757628440856933594e+00) (21 -5.06592035293579101562e-01) (22 -3.68037080764770507812e+00) (23 -3.97894191741943359375e+00) (24 5.95988845825195312500e+00) (25 5.06574869155883789062e-01) (26 -2.35796079039573669434e-01) (27 -3.87321799993515014648e-01) (28 -3.56141018867492675781e+00) (29 2.72908186912536621094e+00) (30 -6.16455487906932830811e-02) (0 -1.12004911899566650391e+00) (1 -1.64400905370712280273e-01) (2 1.32803648710250854492e-01) (3 2.75043785572052001953e-01) (4 2.03122109174728393555e-01) (5 -1.45278656482696533203e+00) (6 -3.51109862327575683594e-01) (7 1.67983889579772949219e+00) (8 -1.04743027687072753906e+00) (9 8.14644336700439453125e-01) (10 3.52895474433898925781e+00) (11 8.52121114730834960938e-01) (12 -9.77149754762649536133e-02) (13 1.29122048616409301758e-01) (14 -9.20971762388944625854e-03) (15 -1.28347206115722656250e+00) (16 -5.07368564605712890625e-01) (17 -2.97066044807434082031e+00) (18 1.42728313803672790527e-01) (19 -2.56306004524230957031e+00) (20 7.81162858009338378906e-01) (21 1.33564352989196777344e+00) (22 -1.27226066589355468750e+00) (23 5.94797790050506591797e-01) (24 -1.44876480102539062500e-01) (25 4.97970700263977050781e-01) (26 2.67057001590728759766e-01) (27 4.22912389039993286133e-01) (28 1.06717050075531005859e+00) (29 1.84661102294921875000e+00) (30 -1.46932631731033325195e-01) (0 1.79751589894294738770e-01) (1 -7.91657790541648864746e-02) (2 -3.36421877145767211914e-01) (3 -2.95965880155563354492e-01) (4 5.54321520030498504639e-02) (5 2.65889501571655273438e+00) (6 6.57919570803642272949e-02) (7 -1.84882199764251708984e+00) (8 -3.97788919508457183838e-02) (9 -3.14739078283309936523e-01) (10 -1.76798141002655029297e+00) (11 2.94079828262329101562e+00) (12 -6.88324332237243652344e-01) (13 -4.45754587650299072266e-01) (14 9.65095162391662597656e-01) (15 5.03896832466125488281e-01) (16 -1.95120498538017272949e-01) (17 8.66523385047912597656e-01) (18 -5.15324354171752929688e+00) (19 3.44088196754455566406e+00) (20 -2.23349258303642272949e-01) (21 -1.55029857158660888672e+00) (22 3.20266366004943847656e+00) (23 3.59218120574951171875e-01) (24 -3.95700067281723022461e-01) (25 -6.41881287097930908203e-01) (26 3.36083889007568359375e-01) (27 -1.82192787528038024902e-01) (28 -3.77610802650451660156e-01) (29 -2.56233143806457519531e+00) (30 1.01374208927154541016e-01) (0 -8.51007163524627685547e-01) (1 1.26497969031333923340e-01) (2 4.85222220420837402344e-01) (3 3.21798771619796752930e-01) (4 2.68892705440521240234e-01) (5 -2.58182853460311889648e-01) (6 -1.97193339467048645020e-01) (7 2.27345675230026245117e-01) (8 3.72847527265548706055e-01) (9 8.70245635509490966797e-01) (10 4.01706266403198242188e+00) (11 -1.18027532100677490234e+00) (12 1.29073292016983032227e-01) (13 7.64983773231506347656e-01) (14 1.37047648429870605469e-01) (15 1.30779221653938293457e-01) (16 1.16278842091560363770e-01) (17 2.24304734729230403900e-03) (18 1.18189807981252670288e-02) (19 -3.62064290046691894531e+00) (20 1.16854734420776367188e+01) (21 -3.37928861379623413086e-01) (22 -6.71968519687652587891e-01) (23 3.45301508903503417969e-01) (24 -6.50229394435882568359e-01) (25 7.20219433307647705078e-01) (26 4.07610207796096801758e-01) (27 8.24585437774658203125e-01) (28 8.92414808273315429688e-01) (29 -1.98258087038993835449e-01) (30 -3.82633417844772338867e-01) (0 3.64899814128875732422e-01) (1 -1.19877934455871582031e-01) (2 -3.31828832626342773438e-01) (3 -4.14844185113906860352e-01) (4 -2.01214894652366638184e-01) (5 -2.44101762771606445312e+00) (6 9.02149021625518798828e-01) (7 1.85917213559150695801e-01) (8 -1.81196674704551696777e-01) (9 -1.76762163639068603516e-01) (10 -2.79811024665832519531e-01) (11 6.05256462097167968750e+00) (12 -4.07458730041980743408e-02) (13 -4.17573779821395874023e-01) (14 -2.83355087041854858398e-01) (15 1.82161312550306320190e-02) (16 -2.48867416381835937500e+00) (17 1.37537837028503417969e+00) (18 -9.45185422897338867188e-02) (19 1.74139344692230224609e+00) (20 -2.88052511215209960938e+00) (21 -5.02774119377136230469e-01) (22 2.33111739158630371094e+00) (23 -8.50545823574066162109e-01) (24 5.65460324287414550781e-01) (25 -2.75380587577819824219e+00) (26 -3.92250597476959228516e-01) (27 -3.23347711563110351562e+00) (28 -8.12663495540618896484e-01) (29 8.72285723686218261719e-01) (30 -4.06696228310465812683e-03) (0 4.56519901752471923828e-01) (1 -9.24222320318222045898e-02) (2 -3.28582882881164550781e-01) (3 -2.19811007380485534668e-01) (4 -2.17056348919868469238e-01) (5 -2.72285878658294677734e-01) (6 -6.66625916957855224609e-01) (7 -1.05415873229503631592e-01) (8 3.68206119537353515625e+00) (9 1.22135901451110839844e+00) (10 -8.80431056022644042969e-01) (11 2.59971261024475097656e+00) (12 -7.97337532043457031250e-01) (13 -2.79824852943420410156e-01) (14 1.05714701116085052490e-01) (15 5.95338456332683563232e-02) (16 -3.90336096286773681641e-01) (17 -6.13256543874740600586e-02) (18 -2.03003391623497009277e-01) (19 -2.52262234687805175781e-01) (20 5.08533537387847900391e-01) (21 -1.61548629403114318848e-01) (22 -1.08540073037147521973e-01) (23 -1.33206799626350402832e-01) (24 3.24172794818878173828e-01) (25 -5.05166482925415039062e+00) (26 -4.96577501296997070312e-01) (27 -8.76668393611907958984e-01) (28 -2.57363390922546386719e+00) (29 1.87600851058959960938e-02) (30 2.30335772037506103516e-01) (0 2.04856768250465393066e-01) (1 7.53349661827087402344e-02) (2 3.98089252412319183350e-02) (3 9.44266691803932189941e-02) (4 -1.79111585021018981934e-01) (5 -2.11528515815734863281e+00) (6 -5.01882024109363555908e-02) (7 -9.42084416747093200684e-02) (8 6.83583557605743408203e-01) (9 1.32759334519505500793e-02) (10 2.43439227342605590820e-01) (11 -4.30314928293228149414e-01) (12 -4.38490241765975952148e-01) (13 1.12301670014858245850e-01) (14 -1.71964094042778015137e-01) (15 -2.23090812563896179199e-01) (16 -2.81412482261657714844e-01) (17 -1.55255198478698730469e+00) (18 -3.88413339853286743164e-01) (19 1.55827987194061279297e+00) (20 1.80145752429962158203e+00) (21 -2.14575839042663574219e+00) (22 1.27634131908416748047e+00) (23 -3.49861890077590942383e-01) (24 9.36304181814193725586e-02) (25 -2.07946792244911193848e-01) (26 6.95721626281738281250e-01) (27 8.63019227981567382812e-01) (28 -6.01363647729158401489e-03) (29 -9.37897622585296630859e-01) (30 3.47154915332794189453e-01) (0 3.93096245825290679932e-02) (1 1.38462379574775695801e-01) (2 3.07203143835067749023e-01) (3 4.00768101215362548828e-01) (4 -1.49247515201568603516e+00) (5 -5.04123973846435546875e+00) (6 -4.18380126357078552246e-02) (7 4.38796758651733398438e+00) (8 1.22595779418945312500e+02) (9 -3.68726432323455810547e-01) (10 -9.78038758039474487305e-02) (11 -1.74228757619857788086e-01) (12 -5.89330084621906280518e-02) (13 8.57653260231018066406e-01) (14 -8.87465998530387878418e-02) (15 -4.53609019517898559570e-01) (16 1.37608021497726440430e-01) (17 -1.81060418486595153809e-01) (18 2.72861123085021972656e-01) (19 -2.71422684192657470703e-01) (20 -1.16696147918701171875e+01) (21 -5.64790785312652587891e-01) (22 2.83289164304733276367e-01) (23 2.85912990570068359375e-01) (24 1.58391642570495605469e+00) (25 1.81013435125350952148e-01) (26 1.80228918790817260742e-01) (27 3.35751593112945556641e-01) (28 -5.58103621006011962891e-01) (29 1.52957916259765625000e-01) (30 6.37008786201477050781e-01) (0 -6.02726757526397705078e-01) (1 -2.19924375414848327637e-01) (2 -1.45474851131439208984e-01) (3 -1.22471839189529418945e-01) (4 9.65944826602935791016e-02) (5 7.38188624382019042969e-01) (6 -8.83897960186004638672e-01) (7 1.09900534152984619141e+00) (8 -4.85048815608024597168e-02) (9 -5.07531285285949707031e-01) (10 2.35817408561706542969e+00) (11 -1.02273929119110107422e+00) (12 -3.98017823696136474609e-01) (13 -2.92076230049133300781e-01) (14 5.28021752834320068359e-01) (15 6.55613780021667480469e-01) (16 1.13173298537731170654e-01) (17 3.94291400909423828125e-01) (18 -2.74945735931396484375e-01) (19 1.81875616312026977539e-01) (20 3.13751906156539916992e-01) (21 -6.22687041759490966797e-02) (22 -4.35180395841598510742e-01) (23 2.07099795341491699219e+00) (24 -7.29838788509368896484e-01) (25 3.72554749250411987305e-01) (26 -2.32247680425643920898e-01) (27 -3.92337203025817871094e-01) (28 7.64667689800262451172e-01) (29 4.07068347930908203125e+00) (30 -3.86187881231307983398e-01) (0 2.23949417471885681152e-01) (1 2.15805113315582275391e-01) (2 4.31660890579223632812e-01) (3 2.97427028417587280273e-01) (4 -1.75586044788360595703e-02) (5 -1.42285346984863281250e+00) (6 -8.14388334751129150391e-01) (7 -2.08099305629730224609e-01) (8 7.96901583671569824219e-01) (9 7.76271820068359375000e-01) (10 4.64853690937161445618e-03) (11 -1.59297776222229003906e+00) (12 -9.18208479881286621094e-01) (13 2.23277544975280761719e+00) (14 5.20387403666973114014e-02) (15 2.98907160758972167969e-01) (16 7.54439353942871093750e-01) (17 -2.10064387321472167969e+00) (18 -6.60209834575653076172e-01) (19 4.83717918395996093750e+00) (20 7.39267945289611816406e-01) (21 -6.69735848903656005859e-01) (22 3.36060404777526855469e+00) (23 -4.48011517524719238281e-01) (24 1.02213680744171142578e-01) (25 4.88428682088851928711e-01) (26 4.36126030981540679932e-02) (27 1.11682713031768798828e+00) (28 2.36154701560735702515e-02) (29 -4.92091083526611328125e+00) (30 -2.36711930483579635620e-05) (0 4.19713675975799560547e-01) (1 -3.59732002019882202148e-01) (2 -3.53098154067993164062e-01) (3 -4.92813616991043090820e-01) (4 -2.23373189568519592285e-01) (5 1.69160974025726318359e+00) (6 1.59522399306297302246e-01) (7 -1.58846580982208251953e+00) (8 -1.06221966445446014404e-01) (9 -4.05704528093338012695e-01) (10 -7.89257574081420898438e+00) (11 1.37894046306610107422e+00) (12 -2.51451849937438964844e-01) (13 -2.36244872212409973145e-01) (14 2.55975931882858276367e-01) (15 7.79319882392883300781e-01) (16 1.46890997886657714844e+00) (17 2.40321084856986999512e-01) (18 -9.84504938125610351562e-01) (19 2.36999282836914062500e+01) (20 1.72183942794799804688e+00) (21 -1.00127518177032470703e+00) (22 2.21263337135314941406e+00) (23 4.32091474533081054688e-01) (24 -1.61357223987579345703e+00) (25 -6.04231894016265869141e-01) (26 2.38713808357715606689e-02) (27 1.78166717290878295898e-01) (28 -2.40961372852325439453e-01) (29 -1.74461972713470458984e+00) (30 1.40162348747253417969e-01) (0 1.50291040539741516113e-01) (1 1.12460069358348846436e-01) (2 9.25634577870368957520e-02) (3 1.31079211831092834473e-01) (4 6.03931471705436706543e-02) (5 -3.34520363807678222656e+00) (6 -2.49748677015304565430e-01) (7 3.87517285346984863281e+00) (8 -6.74363017082214355469e-01) (9 1.82371664047241210938e+00) (10 7.97519758343696594238e-02) (11 2.69611024856567382812e+00) (12 1.46209284663200378418e-01) (13 8.50672051310539245605e-02) (14 1.04640252888202667236e-01) (15 -9.66135859489440917969e-02) (16 -3.19485832005739212036e-03) (17 -4.61205571889877319336e-01) (18 3.81215184926986694336e-01) (19 -4.79603719711303710938e+00) (20 -7.10061609745025634766e-01) (21 1.81556284427642822266e+00) (22 -2.01842231750488281250e+01) (23 -4.04986798763275146484e-01) (24 1.05612230300903320312e+00) (25 4.03113931417465209961e-01) (26 -1.35613739490509033203e-01) (27 -1.14947684109210968018e-01) (28 -7.71832019090652465820e-02) (29 5.14501482248306274414e-02) (30 2.06624008715152740479e-02) (0 9.49423015117645263672e-03) (1 -1.90972521901130676270e-01) (2 -3.63873302936553955078e-01) (3 -2.39982381463050842285e-01) (4 -4.05739158391952514648e-01) (5 7.90186762809753417969e-01) (6 -2.85807698965072631836e-01) (7 1.10615357756614685059e-01) (8 1.29082826897501945496e-02) (9 -7.70678043365478515625e-01) (10 -2.50743664801120758057e-02) (11 5.83834707736968994141e-01) (12 -2.27802067995071411133e-01) (13 7.41175889968872070312e-01) (14 1.42801010608673095703e+00) (15 6.93804121017456054688e+00) (16 6.82342958450317382812e+00) (17 5.80302596092224121094e-01) (18 -8.86819809675216674805e-02) (19 5.06854492187500000000e+02) (20 1.72200024127960205078e+00) (21 8.25592339038848876953e-01) (22 4.98108506202697753906e-01) (23 6.82186841964721679688e-01) (24 -2.71946787834167480469e+00) (25 3.67836244404315948486e-02) (26 -5.79414479434490203857e-02) (27 2.55612313747406005859e-01) (28 -1.44285246729850769043e-01) (29 -5.97289025783538818359e-01) (30 8.49931687116622924805e-02) (0 -1.21538467705249786377e-01) (1 -2.97000050544738769531e-01) (2 -3.04830640554428100586e-01) (3 -1.62713140249252319336e-01) (4 -1.89984247088432312012e-01) (5 3.50061058998107910156e+00) (6 8.85260343551635742188e-01) (7 1.14003002643585205078e-01) (8 -4.30922126770019531250e+00) (9 -1.74534940719604492188e+00) (10 -2.55720853805541992188e-01) (11 3.10658495873212814331e-02) (12 5.35560011863708496094e-01) (13 -4.44993346929550170898e-01) (14 3.90665344893932342529e-02) (15 -4.00124900043010711670e-02) (16 2.03885301947593688965e-01) (17 2.78410577774047851562e+00) (18 6.30830973386764526367e-02) (19 3.02953273057937622070e-01) (20 2.40815848112106323242e-01) (21 8.83874833583831787109e-01) (22 -2.65323805809020996094e+00) (23 1.26523125171661376953e+00) (24 -1.17843520641326904297e+00) (25 2.50122189521789550781e+00) (26 -1.50609028339385986328e+00) (27 -3.99277172982692718506e-02) (28 7.40051269531250000000e+00) (29 4.25450891256332397461e-01) (30 -4.28042970597743988037e-02) (0 2.53165274858474731445e-01) (1 2.50933259725570678711e-01) (2 1.04472391307353973389e-01) (3 7.87820965051651000977e-02) (4 2.79902398586273193359e-01) (5 -5.30947065353393554688e+00) (6 -6.53774961829185485840e-02) (7 3.65721017122268676758e-01) (8 1.56441479921340942383e-01) (9 1.50685131549835205078e+00) (10 -2.90978014469146728516e-01) (11 4.00233298540115356445e-01) (12 -1.59346178174018859863e-01) (13 1.50831878185272216797e-01) (14 2.75634914636611938477e-01) (15 1.04039058089256286621e-01) (16 -2.44044065475463867188e-01) (17 -6.66023254394531250000e-01) (18 -6.45828694105148315430e-02) (19 2.30803802609443664551e-01) (20 3.73628973960876464844e+00) (21 2.71117925643920898438e+00) (22 2.06831485033035278320e-01) (23 -2.47770965099334716797e-01) (24 6.36499285697937011719e-01) (25 -2.05685734748840332031e-01) (26 9.09330725669860839844e-01) (27 1.09420990943908691406e+00) (28 1.12612754106521606445e-01) (29 -5.29491066932678222656e-01) (30 3.95667791366577148438e-01) (0 3.07591825723648071289e-01) (1 1.59208774566650390625e-01) (2 5.00074774026870727539e-02) (3 1.55569817870855331421e-02) (4 2.36845854669809341431e-02) (5 -4.26875257492065429688e+00) (6 2.74750292301177978516e-01) (7 -7.94422030448913574219e-01) (8 2.21683120727539062500e+00) (9 2.88389873504638671875e+00) (10 -1.85872793197631835938e+00) (11 9.01399850845336914062e-01) (12 -3.65855544805526733398e-03) (13 -9.10602733492851257324e-02) (14 2.19888925552368164062e-01) (15 -2.02352309226989746094e+00) (16 -1.54664039611816406250e+00) (17 -2.92029023170471191406e-01) (18 6.10553741455078125000e-01) (19 -4.06869842529296875000e+02) (20 -4.09257507324218750000e+00) (21 3.92607235908508300781e+00) (22 -7.17826545238494873047e-01) (23 -1.04198110103607177734e+00) (24 3.24889779090881347656e+00) (25 7.47843384742736816406e-02) (26 -9.12430807948112487793e-02) (27 -2.88444995880126953125e-01) (28 -7.64527976512908935547e-01) (29 -5.83499491214752197266e-01) (30 4.00262534618377685547e-01) (31 -1.78400203585624694824e-01) (32 -2.22146064043045043945e-01) (33 4.39440935850143432617e-01) (34 2.35642641782760620117e-01) (35 1.99582979083061218262e-01) (36 -1.89942657947540283203e-01) (37 -1.60636410117149353027e-01) (38 2.22002752125263214111e-02) (39 -3.02638602256774902344e+00) (40 -4.74172163009643554688e+00) (41 1.96406334638595581055e-01) (42 -2.11663037538528442383e-01) (43 -2.38091468811035156250e-01) (44 -1.36498475074768066406e+00) (45 -8.07463586330413818359e-01) (46 2.56946206092834472656e+00) (47 2.34293889999389648438e+00) (48 -7.54896461963653564453e-01) (49 1.02729208767414093018e-01) (50 2.66215384006500244141e-01) (51 -1.02473783493041992188e+00) (52 8.19061100482940673828e-01) (53 1.81433081626892089844e+00) (54 3.04452806711196899414e-01) (55 1.55264842510223388672e+00) (56 -4.40391093492507934570e-01) (57 3.42588126659393310547e-01) (58 3.17366817034780979156e-03) (59 -7.23147749900817871094e-01) (60 -5.79594731330871582031e-01) (61 1.78544372320175170898e-01) (62 6.48002386093139648438e-01) (63 -1.08808800578117370605e-01) (64 4.69271451234817504883e-01) (65 -2.02487260103225708008e-01) (66 5.42913377285003662109e-01) (67 1.01907765865325927734e+00) (68 -5.95038235187530517578e-01) (69 -3.03764939308166503906e-01) (70 4.21291589736938476562e-01) (71 3.25871221721172332764e-02) (72 -2.10715007781982421875e+00) (73 -1.55152991414070129395e-01) (74 -1.12908259034156799316e-01) (75 -5.14744937419891357422e-01) (76 -1.65244892239570617676e-01) (77 4.36036014556884765625e+00) (78 -1.01328603923320770264e-01) (79 -1.09626017510890960693e-01) (80 2.14700564742088317871e-01) (81 4.93225812911987304688e-01) (82 -3.19449782371520996094e-01) (83 -2.75645643472671508789e-01) (84 1.07218635082244873047e+00) (85 7.91582047939300537109e-01) (86 -3.65315765142440795898e-01) (87 3.82391154766082763672e-01) (88 3.26754599809646606445e-01) (89 1.58889368176460266113e-01) (90 -2.75924658775329589844e+00) (91 3.84828187525272369385e-02) (31 -1.28053233027458190918e-01) (32 1.67374289035797119141e+00) (33 2.96267604827880859375e+00) (34 -3.93587768077850341797e-01) (35 1.25120759010314941406e+00) (36 8.69484424591064453125e-01) (37 1.52502864599227905273e-01) (38 -2.42146492004394531250e+01) (39 -1.96408689022064208984e-01) (40 1.70896196365356445312e+00) (41 -1.60241603851318359375e-01) (42 -9.75186645984649658203e-01) (43 -1.65856197476387023926e-01) (44 1.13724939525127410889e-01) (45 1.13265901803970336914e-01) (46 6.07020407915115356445e-02) (47 1.01571783423423767090e-01) (48 1.10540497303009033203e+00) (49 9.60250794887542724609e-01) (50 -1.64466708898544311523e-01) (51 1.47524392604827880859e+00) (52 -2.74688214063644409180e-01) (53 -2.08197847008705139160e-01) (54 -1.54206812381744384766e-01) (55 -1.02917566895484924316e-01) (56 3.28614473342895507812e-01) (57 -1.50590431690216064453e+00) (58 -4.66933995485305786133e-01) (59 4.59440040588378906250e+00) (60 5.20942509174346923828e-02) (61 -1.29751667380332946777e-01) (62 -4.06206399202346801758e-01) (63 3.43983508646488189697e-02) (64 -1.25760398805141448975e-02) (65 -2.76558369398117065430e-01) (66 4.28761765360832214355e-02) (67 -2.14840680360794067383e-01) (68 -1.38671204447746276855e-01) (69 1.60155743360519409180e-01) (70 -1.13151443004608154297e+00) (71 -9.80855286121368408203e-01) (72 -1.20412111282348632812e-01) (73 -4.72901672124862670898e-01) (74 -3.15726816654205322266e-01) (75 -6.67859017848968505859e-02) (76 2.82228648662567138672e-01) (77 -4.99021321535110473633e-01) (78 -1.98870807886123657227e-01) (79 5.08420586585998535156e-01) (80 9.02010202407836914062e-02) (81 -5.24020791053771972656e-02) (82 9.33986306190490722656e-02) (83 -3.67887735366821289062e-01) (84 -3.95910084247589111328e-01) (85 -4.18332529067993164062e+00) (86 1.16079318523406982422e+00) (87 -4.00233685970306396484e-01) (88 -2.45426502078771591187e-02) (89 5.12008666992187500000e-01) (90 2.14939737319946289062e+00) (91 -1.61142256110906600952e-02) (31 5.32545372843742370605e-02) (32 -1.62941306829452514648e-01) (33 2.39420562982559204102e-01) (34 -2.27712057530879974365e-02) (35 -1.14832147955894470215e-01) (36 3.07080596685409545898e-01) (37 3.06400328874588012695e-01) (38 -5.69148838520050048828e-01) (39 2.37617775797843933105e-01) (40 8.91387537121772766113e-02) (41 -2.52034544944763183594e-01) (42 -6.35406315326690673828e-01) (43 5.82722425460815429688e-01) (44 1.23023092746734619141e+00) (45 -1.80314294993877410889e-02) (46 -7.29618608951568603516e-01) (47 4.64372456073760986328e-01) (48 7.37135231494903564453e-01) (49 -1.43643403053283691406e+00) (50 1.56049132347106933594e-01) (51 -1.38920629024505615234e+00) (52 -2.30505868792533874512e-01) (53 8.34191322326660156250e-01) (54 1.22014117240905761719e+00) (55 -1.19191026687622070312e+00) (56 -5.31842589378356933594e-01) (57 3.37706506252288818359e-01) (58 5.02443194389343261719e-01) (59 2.20128431916236877441e-01) (60 9.21442925930023193359e-01) (61 6.87626361846923828125e-01) (62 -5.27379274368286132812e-01) (63 1.97429120540618896484e+00) (64 -1.08567023277282714844e+00) (65 1.29601746797561645508e-01) (66 2.27747774124145507812e+00) (67 -9.72286987304687500000e+00) (68 -3.54451745748519897461e-01) (69 1.95192241668701171875e+00) (70 1.68040871620178222656e+00) (71 3.82012337446212768555e-01) (72 -3.13532538712024688721e-02) (73 6.39298021793365478516e-01) (74 2.38209068775177001953e-02) (75 3.57113420963287353516e-01) (76 -6.07906043529510498047e-01) (77 -2.14433953166007995605e-01) (78 -3.72371792793273925781e-01) (79 3.36948186159133911133e-01) (80 5.20967006683349609375e-01) (81 -1.94505715370178222656e+00) (82 -5.13316988945007324219e-01) (83 5.74103176593780517578e-01) (84 -1.03004789352416992188e+00) (85 4.62871164083480834961e-01) (86 -1.36117231845855712891e+00) (87 5.62808573246002197266e-01) (88 3.32809984683990478516e-01) (89 -1.82649755477905273438e+00) (90 -5.55398523807525634766e-01) (91 1.73808693885803222656e-01) (31 -1.88745841383934020996e-01) (32 8.02812054753303527832e-02) (33 -6.19333803653717041016e-01) (34 3.57202976942062377930e-01) (35 2.65808534622192382812e+00) (36 -1.31733012199401855469e+00) (37 2.41977000236511230469e+00) (38 1.74623703956604003906e+00) (39 3.06852310895919799805e-01) (40 -2.70373868942260742188e+00) (41 1.33669719099998474121e-01) (42 1.00295221805572509766e+00) (43 4.83773872256278991699e-02) (44 2.57117599248886108398e-01) (45 -4.15372312068939208984e-01) (46 2.54807543754577636719e+00) (47 -1.29746556282043457031e+00) (48 3.85780394077301025391e-01) (49 4.69431996345520019531e-01) (50 -1.69469034671783447266e+00) (51 8.26482868194580078125e+00) (52 9.43131566047668457031e-01) (53 -3.63028192520141601562e+00) (54 -2.72754251956939697266e-01) (55 4.15079712867736816406e-01) (56 -1.10609441995620727539e-01) (57 9.96854975819587707520e-02) (58 -1.12976707518100738525e-01) (59 2.55134105682373046875e+00) (60 3.05610448122024536133e-01) (61 -6.95232450962066650391e-02) (62 3.69687564671039581299e-02) (63 2.67887622117996215820e-01) (64 -2.27273911237716674805e-01) (65 -1.77288129925727844238e-01) (66 -1.03931441903114318848e-01) (67 -1.64245977997779846191e-01) (68 5.08602023124694824219e-01) (69 9.99055445194244384766e-01) (70 1.82900619506835937500e+00) (71 -1.53318986296653747559e-01) (72 8.44070494174957275391e-01) (73 1.81886672973632812500e-01) (74 -9.14348185062408447266e-01) (75 -1.98894298076629638672e+00) (76 -4.15540724992752075195e-01) (77 7.61491477489471435547e-01) (78 -6.18918202817440032959e-02) (79 7.20142304897308349609e-01) (80 1.53026854991912841797e+00) (81 1.04812467470765113831e-02) (82 4.36069995164871215820e-01) (83 2.65170007944107055664e-01) (84 -2.87588387727737426758e-01) (85 3.04556429386138916016e-01) (86 -4.52566325664520263672e-01) (87 -2.14446380734443664551e-01) (88 -1.16474556922912597656e+00) (89 1.04729652404785156250e-01) (90 3.94648522138595581055e-01) (91 1.09657756984233856201e-01) (31 -1.51234412193298339844e+00) (32 8.73892068862915039062e-01) (33 -8.67828011512756347656e-01) (34 -1.77578043937683105469e+00) (35 1.65982818603515625000e+00) (36 1.45443201065063476562e+00) (37 -1.12446464598178863525e-01) (38 6.00457966327667236328e-01) (39 1.56822398304939270020e-01) (40 -3.56714129447937011719e-01) (41 -3.68649792671203613281e+00) (42 5.37262037396430969238e-02) (43 2.18765124678611755371e-01) (44 -4.13366705179214477539e-01) (45 -1.36208248138427734375e+00) (46 1.89487934112548828125e+00) (47 -6.13726615905761718750e-01) (48 5.42022168636322021484e-01) (49 1.61859524250030517578e+00) (50 1.68745905160903930664e-01) (51 4.02381777763366699219e-01) (52 -1.21735942363739013672e+00) (53 -3.05839568376541137695e-01) (54 2.17458866536617279053e-02) (55 4.50359024107456207275e-02) (56 -1.09777677059173583984e+00) (57 1.47413447499275207520e-01) (58 -1.64087027311325073242e-01) (59 1.31628656387329101562e+01) (60 2.41153255105018615723e-01) (61 8.97400617599487304688e-01) (62 1.96910388767719268799e-02) (63 -1.35629102587699890137e-01) (64 2.65447425842285156250e+00) (65 -6.11282348632812500000e-01) (66 1.44829833507537841797e+00) (67 -1.79791355133056640625e+00) (68 1.08644872903823852539e-01) (69 5.17317891120910644531e-01) (70 9.36324372887611389160e-02) (71 -4.50825784355401992798e-03) (72 3.73580664396286010742e-01) (73 8.63444805145263671875e-01) (74 -2.92347725480794906616e-02) (75 1.08267199993133544922e+00) (76 -9.22074496746063232422e-01) (77 -6.95391371846199035645e-02) (78 -1.50142276287078857422e+00) (79 8.14536213874816894531e-01) (80 9.00271952152252197266e-01) (81 2.66986918449401855469e+00) (82 1.53303003311157226562e+00) (83 -2.68963551521301269531e+00) (84 2.75261354446411132812e+00) (85 7.28524103760719299316e-02) (86 2.70186924934387207031e+00) (87 -1.75796031951904296875e-01) (88 -8.29172432422637939453e-01) (89 7.51273334026336669922e-01) (90 2.12875986099243164062e+00) (91 1.99074164032936096191e-01) 
