FANN_FLO_1.1
3 0.700000 1.000000 0 4 4 5.00000000000000000000e-01 5.00000000000000000000e-01
31 81 6 
0 0 0 0 0 0 0 0 0 0 0 0 0 0 0 0 0 0 0 0 0 0 0 0 0 0 0 0 0 0 0 
31 31 31 31 31 31 31 31 31 31 31 31 31 31 31 31 31 31 31 31 31 31 31 31 31 31 31 31 31 31 31 31 31 31 31 31 31 31 31 31 31 31 31 31 31 31 31 31 31 31 31 31 31 31 31 31 31 31 31 31 31 31 31 31 31 31 31 31 31 31 31 31 31 31 31 31 31 31 31 31 0 
81 81 81 81 81 0 
(0 -7.95348361134529113770e-02) (1 -2.30721235275268554688e-02) (2 1.78002640604972839355e-01) (3 1.51581764221191406250e-01) (4 -8.95094931125640869141e-01) (5 1.18354725837707519531e+00) (6 4.10823035053908824921e-04) (7 1.63337860107421875000e+01) (8 -1.02008116245269775391e+00) (9 -8.13472032546997070312e-01) (10 7.73049950599670410156e-01) (11 -1.35942435264587402344e+00) (12 -2.25666925311088562012e-01) (13 2.89772450923919677734e-01) (14 2.57404595613479614258e-01) (15 5.35662531852722167969e-01) (16 1.13841450214385986328e+00) (17 -4.14119176566600799561e-02) (18 -2.41518080234527587891e-01) (19 1.37532567977905273438e+00) (20 8.87208759784698486328e-01) (21 -1.01242506504058837891e+00) (22 1.29322347640991210938e+01) (23 2.86911278963088989258e-01) (24 -1.65617215633392333984e+00) (25 -4.10475909709930419922e-01) (26 2.67947643995285034180e-01) (27 3.49253273010253906250e+00) (28 -2.68299728631973266602e-02) (29 -1.32792127132415771484e+00) (30 -8.21899622678756713867e-02) (0 -1.03504145145416259766e+00) (1 -2.11126178503036499023e-01) (2 2.40873679518699645996e-01) (3 1.84944316744804382324e-01) (4 4.57976490259170532227e-01) (5 5.28072893619537353516e-01) (6 -2.67626821994781494141e-01) (7 1.04560184478759765625e+00) (8 -1.17987132072448730469e+00) (9 -4.27375398576259613037e-02) (10 2.09235525131225585938e+00) (11 -1.33596503734588623047e+00) (12 2.60499686002731323242e-01) (13 7.30100572109222412109e-02) (14 -1.12283639609813690186e-01) (15 -1.31211966276168823242e-01) (16 2.46391758322715759277e-01) (17 -1.06459808349609375000e+00) (18 3.29231500625610351562e-01) (19 -3.29269957542419433594e+00) (20 -2.34463587403297424316e-01) (21 6.86459779739379882812e-01) (22 -1.44556498527526855469e+00) (23 2.74798065423965454102e-01) (24 -6.35043561458587646484e-01) (25 1.17177319526672363281e+00) (26 -1.85394316911697387695e-01) (27 8.28957185149192810059e-02) (28 2.03857707977294921875e+00) (29 2.38999560475349426270e-01) (30 -6.64971768856048583984e-02) (0 -2.82651376724243164062e+00) (1 -6.72417461872100830078e-01) (2 2.85909716039896011353e-02) (3 -9.25884693861007690430e-02) (4 1.37973952293395996094e+00) (5 -1.43584176898002624512e-01) (6 -1.71076446771621704102e-01) (7 5.12963891029357910156e-01) (8 8.73098969459533691406e-02) (9 2.80078053474426269531e-01) (10 3.07125043869018554688e+00) (11 -3.41473132371902465820e-01) (12 -1.33388593792915344238e-01) (13 -1.15143619477748870850e-02) (14 -1.86586856842041015625e-01) (15 -6.06875002384185791016e-01) (16 3.64575386047363281250e-01) (17 -1.90491192042827606201e-02) (18 -1.91384643316268920898e-01) (19 -1.57742810249328613281e+00) (20 1.58301138877868652344e+00) (21 2.35662326216697692871e-01) (22 -1.00493896007537841797e+00) (23 8.84206950664520263672e-01) (24 -2.99880266189575195312e-01) (25 1.98428690433502197266e-01) (26 -1.35074213147163391113e-01) (27 1.33334174752235412598e-01) (28 6.59217834472656250000e-01) (29 1.05675268173217773438e+00) (30 2.08702266216278076172e-01) (0 -1.81808434426784515381e-02) (1 -3.82695823907852172852e-01) (2 -8.99422585964202880859e-01) (3 -7.30811536312103271484e-01) (4 -1.33043870329856872559e-01) (5 4.57130706787109375000e+02) (6 -9.83600839972496032715e-02) (7 -1.96526914834976196289e-01) (8 -3.13083481788635253906e+00) (9 -3.20210623741149902344e+00) (10 -9.72923696041107177734e-01) (11 -1.09732306003570556641e+00) (12 -2.44437336921691894531e-01) (13 -7.47285783290863037109e-01) (14 -2.43585761636495590210e-02) (15 2.43983715772628784180e-01) (16 1.98134973645210266113e-01) (17 2.44338288903236389160e-01) (18 -7.45698392391204833984e-01) (19 2.59646296501159667969e+00) (20 1.25437438488006591797e+00) (21 -2.04412937164306640625e+00) (22 4.40833121538162231445e-01) (23 6.26349747180938720703e-02) (24 -8.12429845333099365234e-01) (25 -4.39442545175552368164e-01) (26 -6.55957818031311035156e-01) (27 -4.59741890430450439453e-01) (28 -1.78413525223731994629e-01) (29 -9.95376646518707275391e-01) (30 1.53713023662567138672e+00) (0 -4.83429849147796630859e-01) (1 4.28495891392230987549e-02) (2 1.87867477536201477051e-01) (3 1.79525777697563171387e-01) (4 -2.72349156439304351807e-02) (5 -3.26762557029724121094e-01) (6 5.07953524589538574219e-01) (7 -2.54822224378585815430e-01) (8 4.48744249343872070312e+00) (9 -6.56544268131256103516e-01) (10 2.50245779752731323242e-01) (11 -1.93947601318359375000e+00) (12 3.83067518472671508789e-01) (13 8.10540914535522460938e-01) (14 -5.41594997048377990723e-02) (15 1.56261906027793884277e-01) (16 1.47378838062286376953e+00) (17 1.02490472793579101562e+00) (18 2.59502530097961425781e-01) (19 -2.07907247543334960938e+00) (20 -3.11002820730209350586e-01) (21 -1.81930422782897949219e+00) (22 7.65052378177642822266e-01) (23 1.04587304592132568359e+00) (24 -2.24973630905151367188e+00) (25 3.73636633157730102539e-01) (26 6.56396374106407165527e-02) (27 3.70547562837600708008e-01) (28 5.01298844814300537109e-01) (29 -2.97214806079864501953e-01) (30 -2.40095913410186767578e-01) (0 -7.77081072330474853516e-01) (1 6.08482863754034042358e-03) (2 2.24377349019050598145e-01) (3 9.38832238316535949707e-02) (4 2.29289427399635314941e-01) (5 -1.42725026607513427734e+00) (6 -6.28702998161315917969e-01) (7 1.40914008021354675293e-01) (8 -2.52135944366455078125e+00) (9 6.31406784057617187500e-01) (10 1.90976262092590332031e+00) (11 -3.84691417217254638672e-01) (12 -6.12310767173767089844e-01) (13 -4.19909596443176269531e-01) (14 -1.50938272476196289062e-01) (15 -5.17430841922760009766e-01) (16 -8.96995544433593750000e-01) (17 -2.57377600669860839844e+00) (18 -4.43888664245605468750e-01) (19 6.40826404094696044922e-01) (20 5.56169128417968750000e+00) (21 1.82133972644805908203e+00) (22 -1.50203132629394531250e+00) (23 1.09681650996208190918e-01) (24 -2.02672556042671203613e-01) (25 -4.21110242605209350586e-02) (26 2.93249815702438354492e-01) (27 1.02540850639343261719e+00) (28 9.51687812805175781250e-01) (29 -7.75901257991790771484e-01) (30 9.68284755945205688477e-02) (0 -4.01820093393325805664e-02) (1 -2.15211600065231323242e-01) (2 -7.16268599033355712891e-01) (3 -6.14851415157318115234e-01) (4 -7.59774595499038696289e-02) (5 1.83740168809890747070e-01) (6 3.82017910480499267578e-01) (7 -7.93463325500488281250e+00) (8 -4.38617587089538574219e-01) (9 -2.27586433291435241699e-01) (10 3.14111113548278808594e-01) (11 -2.58940178900957107544e-03) (12 -6.08258128166198730469e-01) (13 5.75390458106994628906e-01) (14 -1.24179765582084655762e-01) (15 -9.19639468193054199219e-01) (16 -4.29345905780792236328e-01) (17 -6.24714374542236328125e-01) (18 -6.04171574115753173828e-01) (19 3.67803835868835449219e+00) (20 3.94175052642822265625e-01) (21 6.94950437173247337341e-03) (22 7.52389848232269287109e-01) (23 1.26821410655975341797e+00) (24 -6.33408010005950927734e-01) (25 -7.80534088611602783203e-01) (26 -6.33357644081115722656e-01) (27 3.35774987936019897461e-01) (28 6.27861797809600830078e-01) (29 -1.17376375198364257812e+00) (30 5.65794885158538818359e-01) (0 -9.63027179241180419922e-01) (1 -2.85573434084653854370e-02) (2 7.32110738754272460938e-02) (3 2.03518107533454895020e-01) (4 2.75224409997463226318e-02) (5 -1.08374369144439697266e+00) (6 -8.76534461975097656250e-01) (7 1.29898712038993835449e-01) (8 -1.72666561603546142578e+00) (9 6.26118779182434082031e-01) (10 2.93037366867065429688e+00) (11 -4.19892845153808593750e+01) (12 -7.05247521400451660156e-02) (13 2.13749861717224121094e+00) (14 -2.50801593065261840820e-01) (15 -2.83237285912036895752e-02) (16 1.15381717681884765625e+00) (17 -3.11816740036010742188e+00) (18 1.21892482042312622070e-01) (19 -1.43905973434448242188e+00) (20 2.07691550254821777344e+00) (21 1.13161563873291015625e+00) (22 -1.91712915897369384766e+00) (23 -9.55102622509002685547e-01) (24 -1.70890793204307556152e-01) (25 4.24813210964202880859e-01) (26 -5.08813858032226562500e-01) (27 -2.34879106283187866211e-01) (28 4.86379057168960571289e-01) (29 4.17545050382614135742e-01) (30 -3.50438535213470458984e-01) (0 -1.31025230884552001953e+00) (1 1.61404937505722045898e-01) (2 3.24126094579696655273e-01) (3 3.98449510335922241211e-01) (4 2.17357695102691650391e-01) (5 9.60918962955474853516e-01) (6 -4.35506552457809448242e-01) (7 1.41423299908638000488e-01) (8 1.03629684448242187500e+00) (9 1.25030469894409179688e+00) (10 8.61333179473876953125e+00) (11 -1.61302340030670166016e+00) (12 -1.02805085480213165283e-01) (13 1.53151261806488037109e+00) (14 5.34377396106719970703e-01) (15 2.58745551109313964844e-01) (16 3.70035856962203979492e-01) (17 -3.94422821700572967529e-02) (18 -1.50070786476135253906e-01) (19 -3.96000146865844726562e+00) (20 9.65386104583740234375e+00) (21 -6.17856144905090332031e-01) (22 -9.73432540893554687500e+00) (23 1.00369915366172790527e-01) (24 -2.24669289588928222656e+00) (25 7.63752341270446777344e-01) (26 5.06404340267181396484e-01) (27 1.02271199226379394531e+00) (28 1.41453540325164794922e+00) (29 -1.35286235809326171875e+00) (30 3.61912399530410766602e-01) (0 8.53118002414703369141e-01) (1 -9.03854332864284515381e-03) (2 1.36334434151649475098e-01) (3 1.33032277226448059082e-01) (4 1.56701654195785522461e-01) (5 -5.50231337547302246094e-01) (6 -4.00767982006072998047e-01) (7 -1.28681886196136474609e+00) (8 -1.00899420678615570068e-01) (9 1.14367747306823730469e+00) (10 9.47250604629516601562e-01) (11 1.03056943416595458984e+00) (12 -4.41088587045669555664e-01) (13 -1.71550571918487548828e-01) (14 1.99286676943302154541e-02) (15 -1.71992719173431396484e+00) (16 -1.09996080398559570312e+00) (17 -1.19445610046386718750e+00) (18 -4.46869283914566040039e-01) (19 3.09163665771484375000e+00) (20 5.68781900405883789062e+00) (21 2.46977472305297851562e+00) (22 -1.53096568584442138672e+00) (23 6.45478516817092895508e-02) (24 -1.85316056013107299805e-01) (25 -1.24389097094535827637e-01) (26 6.30775034427642822266e-01) (27 1.32857286930084228516e+00) (28 1.07889151573181152344e+00) (29 -2.74662947654724121094e+00) (30 5.81540167331695556641e-02) (0 -1.54538965225219726562e+00) (1 -3.59845846891403198242e-01) (2 -6.83366879820823669434e-02) (3 -4.73351590335369110107e-02) (4 -1.31516829133033752441e-01) (5 9.53895688056945800781e-01) (6 3.26837301254272460938e-01) (7 -4.77511435747146606445e-01) (8 1.30594587326049804688e+00) (9 -6.37066423892974853516e-01) (10 1.96516051888465881348e-01) (11 -1.23219823837280273438e+00) (12 1.10754482448101043701e-02) (13 2.29799732565879821777e-01) (14 -6.23044192790985107422e-01) (15 2.42979396134614944458e-02) (16 1.59556841850280761719e+00) (17 6.27463996410369873047e-01) (18 1.40531430952250957489e-03) (19 -7.46303319931030273438e-01) (20 -3.37098145484924316406e+00) (21 -2.09568285942077636719e+00) (22 4.28742408752441406250e+00) (23 7.67096221446990966797e-01) (24 -1.46713101863861083984e+00) (25 5.19135892391204833984e-01) (26 -2.98308283090591430664e-01) (27 4.33086454868316650391e-02) (28 5.06715238094329833984e-01) (29 1.97053599357604980469e+00) (30 -1.27511978149414062500e-01) (0 -5.47972559928894042969e-01) (1 -1.96100622415542602539e-01) (2 -4.24905084073543548584e-02) (3 7.27545022964477539062e-02) (4 -4.06469106674194335938e-02) (5 -4.29251581430435180664e-01) (6 2.26326920092105865479e-02) (7 -5.32357025146484375000e+00) (8 1.60853028297424316406e+00) (9 1.31569480895996093750e+00) (10 -2.05396730452775955200e-02) (11 -2.54969507455825805664e-01) (12 6.79428935050964355469e-01) (13 1.31484240293502807617e-01) (14 -5.50815939903259277344e-01) (15 -6.46253347396850585938e-01) (16 3.25751602649688720703e-01) (17 1.50853347778320312500e+00) (18 1.20684695243835449219e+00) (19 -2.34474492073059082031e+00) (20 -1.09330976009368896484e+00) (21 -2.82268583774566650391e-01) (22 1.57196569442749023438e+00) (23 3.59293282032012939453e-01) (24 -4.87867057323455810547e-01) (25 8.17807734012603759766e-01) (26 -4.70963984727859497070e-01) (27 -4.92509484291076660156e-01) (28 2.17998310923576354980e-01) (29 4.36289691925048828125e+00) (30 -1.25030353665351867676e-01) (0 2.14793831110000610352e-01) (1 -3.84568929672241210938e-01) (2 -1.93122401833534240723e-01) (3 -2.17875972390174865723e-01) (4 -2.83670037984848022461e-01) (5 6.78106248378753662109e-02) (6 -4.30983871221542358398e-01) (7 -3.53463673591613769531e+00) (8 -2.75382399559020996094e-01) (9 2.19463169574737548828e-01) (10 -5.70052385330200195312e-01) (11 1.31890475749969482422e-01) (12 6.13545179367065429688e-01) (13 -1.61840581893920898438e+00) (14 -4.55747514963150024414e-01) (15 4.08084504306316375732e-02) (16 -3.91219139099121093750e-01) (17 1.14479589462280273438e+01) (18 1.64952564239501953125e+01) (19 -4.30573850870132446289e-01) (20 -2.93967068195343017578e-01) (21 -6.73560500144958496094e-02) (22 -1.05710399150848388672e+00) (23 -2.92047071456909179688e+00) (24 1.17281234264373779297e+00) (25 2.05652689933776855469e+00) (26 -1.82309687137603759766e-01) (27 -2.84942120313644409180e-01) (28 8.79721939563751220703e-01) (29 2.36506962776184082031e+00) (30 -1.74909794330596923828e+00) (0 -9.38124001026153564453e-01) (1 -8.40668022632598876953e-01) (2 9.27212014794349670410e-02) (3 1.21421143412590026855e-01) (4 1.16447722911834716797e+00) (5 6.38939619064331054688e-01) (6 -2.72079020738601684570e-01) (7 1.38727319240570068359e+00) (8 -3.77727389335632324219e+00) (9 -2.98201084136962890625e-01) (10 2.02860903739929199219e+00) (11 -7.89984941482543945312e-01) (12 -1.26438979059457778931e-02) (13 4.57726418972015380859e-02) (14 -2.16388031840324401855e-02) (15 -9.37989652156829833984e-01) (16 -5.90715743601322174072e-02) (17 -1.38214564323425292969e+00) (18 1.96981713175773620605e-01) (19 -1.45633745193481445312e+00) (20 8.18177223205566406250e-01) (21 -3.73961985111236572266e-01) (22 -4.28134918212890625000e+00) (23 2.26611256599426269531e-01) (24 -1.06661513447761535645e-01) (25 9.14445281028747558594e-01) (26 -1.49075977969914674759e-03) (27 9.51566636562347412109e-01) (28 1.07525768280029296875e+01) (29 5.37113964557647705078e-01) (30 1.96595713496208190918e-01) (0 -4.34644669294357299805e-01) (1 8.30718278884887695312e-02) (2 4.86712493002414703369e-02) (3 1.23384349048137664795e-01) (4 8.52232892066240310669e-03) (5 -2.70994567871093750000e+00) (6 2.70389527082443237305e-01) (7 7.34758615493774414062e-01) (8 1.56547781080007553101e-02) (9 1.50812780857086181641e+00) (10 -4.30355548858642578125e-01) (11 3.26139420270919799805e-01) (12 3.95549416542053222656e-01) (13 -1.16412058472633361816e-01) (14 -2.14709103107452392578e-01) (15 -1.12839890643954277039e-02) (16 1.81127488613128662109e-01) (17 1.72615623474121093750e+00) (18 4.35680419206619262695e-01) (19 -4.30606985092163085938e+00) (20 -1.14562344551086425781e+00) (21 -1.23484283685684204102e-01) (22 -6.16689324378967285156e-01) (23 -3.41485112905502319336e-01) (24 6.29482269287109375000e-01) (25 6.77743315696716308594e-01) (26 -3.78899604082107543945e-01) (27 -1.43827760219573974609e+00) (28 -8.08753311634063720703e-01) (29 2.25081562995910644531e+00) (30 -3.72413903474807739258e-01) (0 -1.73640263080596923828e+00) (1 -9.35231614857912063599e-03) (2 -9.76554080843925476074e-02) (3 -2.13826354593038558960e-02) (4 5.14775514602661132812e-01) (5 -3.91908675432205200195e-01) (6 -3.07027637958526611328e-01) (7 -3.80892705917358398438e+00) (8 -1.95464074611663818359e+00) (9 -2.50694662332534790039e-01) (10 1.19008898735046386719e+00) (11 -7.09164023399353027344e-01) (12 -1.16181397438049316406e+00) (13 -4.54155236482620239258e-01) (14 -2.98602253198623657227e-01) (15 -7.57716178894042968750e-01) (16 -5.64837813377380371094e-01) (17 -5.06927185058593750000e+02) (18 -1.15456831455230712891e+00) (19 9.62201297283172607422e-01) (20 8.08476829528808593750e+00) (21 9.52489599585533142090e-02) (22 2.64873472042381763458e-03) (23 -9.47067514061927795410e-02) (24 -3.80021154880523681641e-01) (25 -2.78267443180084228516e-01) (26 2.85981357097625732422e-01) (27 2.60639667510986328125e+00) (28 2.14461758732795715332e-01) (29 -1.01004099845886230469e+00) (30 7.78637111186981201172e-01) (0 8.71693491935729980469e-01) (1 -2.94159859418869018555e-01) (2 -6.31756901741027832031e-01) (3 -4.85558748245239257812e-01) (4 -3.64457517862319946289e-01) (5 7.79954493045806884766e-01) (6 6.77028000354766845703e-01) (7 -1.02358651161193847656e+00) (8 -4.16675529479980468750e+01) (9 1.18534374237060546875e+00) (10 -4.83652162551879882812e+00) (11 1.51611554622650146484e+00) (12 9.12827178835868835449e-02) (13 -8.08285176753997802734e-01) (14 1.57910585403442382812e-01) (15 1.35449558496475219727e-01) (16 -8.24329793453216552734e-01) (17 -2.56281793117523193359e-01) (18 4.07661404460668563843e-03) (19 6.55691719055175781250e+00) (20 -6.88676178455352783203e-01) (21 1.45305871963500976562e+00) (22 -1.55595231056213378906e+00) (23 -1.42875656485557556152e-01) (24 1.76880574226379394531e+00) (25 -2.28882089257240295410e-01) (26 -3.33292819559574127197e-02) (27 -4.28595811128616333008e-01) (28 -3.42123806476593017578e-01) (29 -1.08074510097503662109e+00) (30 1.18834443390369415283e-01) (0 2.18252196907997131348e-01) (1 1.91339422017335891724e-02) (2 -8.92872065305709838867e-02) (3 -1.71713024377822875977e-01) (4 1.73991285264492034912e-02) (5 1.54905354976654052734e+00) (6 3.34212988615036010742e-01) (7 -2.14387178421020507812e+00) (8 -1.12290725111961364746e-01) (9 -3.51516246795654296875e-01) (10 -5.83555650711059570312e+00) (11 2.01748752593994140625e+00) (12 -1.21427029371261596680e-01) (13 -6.60737335681915283203e-01) (14 -6.78688287734985351562e-02) (15 -3.27711813151836395264e-02) (16 -2.23712161183357238770e-01) (17 3.41266036033630371094e+00) (18 -6.79175496101379394531e-01) (19 1.46716105937957763672e+00) (20 1.68975555896759033203e+00) (21 -2.45902800559997558594e+00) (22 3.86942934989929199219e+00) (23 4.49575394392013549805e-01) (24 -2.00393170118331909180e-01) (25 -1.56124949455261230469e+00) (26 -3.26954871416091918945e-02) (27 -1.20336204767227172852e-01) (28 -8.77536773681640625000e-01) (29 -5.69750964641571044922e-01) (30 2.65473127365112304688e-01) (0 8.19384872913360595703e-01) (1 -1.21839113533496856689e-01) (2 -3.00402760505676269531e-01) (3 -1.35511711239814758301e-01) (4 -1.57891269773244857788e-02) (5 8.57302486896514892578e-01) (6 6.64646923542022705078e-02) (7 -1.41600596904754638672e+00) (8 -9.95284318923950195312e-01) (9 -6.52113854885101318359e-01) (10 -2.27134060859680175781e+00) (11 3.51946377754211425781e+00) (12 -4.07061427831649780273e-01) (13 -5.56995511054992675781e-01) (14 2.89558559656143188477e-01) (15 1.36815622448921203613e-01) (16 -7.66890406608581542969e-01) (17 6.57317876815795898438e-01) (18 -4.81768786907196044922e-01) (19 3.45141005516052246094e+00) (20 1.55425351113080978394e-03) (21 5.58303520083427429199e-02) (22 -4.75955396890640258789e-01) (23 1.23521134257316589355e-01) (24 4.81163531541824340820e-01) (25 -3.73554140329360961914e-01) (26 2.86983847618103027344e-01) (27 -9.96076986193656921387e-02) (28 -2.76560008525848388672e-01) (29 -7.48522460460662841797e-01) (30 9.20520648360252380371e-02) (0 -2.09735810756683349609e-01) (1 -2.76454240083694458008e-01) (2 -2.92570233345031738281e-01) (3 -3.43264639377593994141e-01) (4 -1.31504729390144348145e-01) (5 2.36321377754211425781e+00) (6 -1.64018511772155761719e-01) (7 2.32758636474609375000e+01) (8 3.92779707908630371094e-01) (9 1.63415312767028808594e-01) (10 -1.65867733955383300781e+00) (11 2.65217602252960205078e-01) (12 1.39158889651298522949e-01) (13 9.23081815242767333984e-01) (14 1.19374044239521026611e-01) (15 1.50410428643226623535e-01) (16 1.55776739120483398438e+00) (17 1.95174074172973632812e+00) (18 -7.97449201345443725586e-02) (19 -1.81401562690734863281e+00) (20 1.37511625885963439941e-01) (21 1.89315229654312133789e-01) (22 -1.57300746440887451172e+00) (23 2.40295588970184326172e-01) (24 4.46522608399391174316e-02) (25 4.58271682262420654297e-01) (26 -8.01986873149871826172e-01) (27 -3.28642845153808593750e+00) (28 3.00007522106170654297e-01) (29 2.72062730789184570312e+00) (30 1.75746530294418334961e-01) (0 1.64151489734649658203e+00) (1 1.04677543044090270996e-01) (2 -1.08958400785923004150e-01) (3 -1.37714631855487823486e-02) (4 -1.07906126976013183594e+00) (5 -3.40079963207244873047e-02) (6 -2.37186327576637268066e-01) (7 1.14463880658149719238e-01) (8 -1.00722241401672363281e+00) (9 -3.65410774946212768555e-01) (10 -9.16773736476898193359e-01) (11 1.33240783214569091797e+00) (12 -2.70703490823507308960e-02) (13 8.18465173244476318359e-01) (14 6.52914285659790039062e-01) (15 5.25947511196136474609e-01) (16 8.01264047622680664062e-01) (17 -2.52791047096252441406e-01) (18 -9.45530645549297332764e-03) (19 1.29388403892517089844e+00) (20 4.47007417678833007812e-01) (21 7.07191228866577148438e-01) (22 6.67358636856079101562e-02) (23 -1.14551496505737304688e+00) (24 8.67671966552734375000e-02) (25 -8.23582887649536132812e-01) (26 -2.02409438788890838623e-02) (27 1.27856814861297607422e+00) (28 -7.84355044364929199219e-01) (29 -7.94562697410583496094e-01) (30 -1.77894085645675659180e-01) (0 -1.25264286994934082031e+00) (1 -6.41859173774719238281e-01) (2 -2.69319057464599609375e-01) (3 -3.40919584035873413086e-01) (4 -5.89788973331451416016e-01) (5 4.52012968063354492188e+00) (6 5.12214064598083496094e-01) (7 2.51980513334274291992e-01) (8 4.62489557266235351562e+00) (9 -2.71157175302505493164e-02) (10 -2.99994796514511108398e-01) (11 -9.83143299818038940430e-02) (12 2.67876654863357543945e-01) (13 1.10804855823516845703e+00) (14 4.94503267109394073486e-02) (15 6.72436118125915527344e-01) (16 2.30327749252319335938e+00) (17 8.14950585365295410156e-01) (18 7.88961052894592285156e-02) (19 -2.12172651290893554688e+00) (20 -3.48584485054016113281e+00) (21 -4.84571743011474609375e+00) (22 4.29699420928955078125e+00) (23 3.23460131883621215820e-01) (24 -3.35343003273010253906e+00) (25 -1.13015606999397277832e-01) (26 -1.66430562734603881836e-01) (27 -1.53061792254447937012e-01) (28 1.22270263731479644775e-01) (29 2.43953242897987365723e-01) (30 -3.31812709569931030273e-01) (0 -1.90829813480377197266e-01) (1 2.66390705108642578125e+00) (2 2.45477080345153808594e+00) (3 2.47585797309875488281e+00) (4 1.71963310241699218750e+00) (5 -9.79772508144378662109e-01) (6 -1.30367040634155273438e-01) (7 -5.03612220287322998047e-01) (8 4.69817638397216796875e+00) (9 4.51405477523803710938e+00) (10 -2.98228096961975097656e+00) (11 -9.38554406166076660156e-01) (12 8.08410719037055969238e-02) (13 3.12530136108398437500e+00) (14 -2.36983038485050201416e-02) (15 -5.14376819133758544922e-01) (16 2.64299130439758300781e+00) (17 -9.80803370475769042969e-01) (18 1.76781129837036132812e+00) (19 -1.39056539535522460938e+00) (20 -1.96796905994415283203e+00) (21 4.71441745758056640625e+00) (22 -1.22547173500061035156e+00) (23 -1.07793772220611572266e+00) (24 3.32776165008544921875e+00) (25 3.54313969612121582031e-01) (26 -4.08798493444919586182e-02) (27 -1.32999747991561889648e-01) (28 5.79742074012756347656e-01) (29 4.57905530929565429688e-01) (30 -2.52062344551086425781e+00) (0 -8.86584043502807617188e-01) (1 3.53619784116744995117e-01) (2 2.28430911898612976074e-01) (3 2.88172394037246704102e-01) (4 1.23521313071250915527e-01) (5 -5.05760192871093750000e-01) (6 1.67305722832679748535e-01) (7 -3.59436154365539550781e+00) (8 6.63175058364868164062e+00) (9 4.38909530639648437500e+00) (10 -3.68740582466125488281e+00) (11 -7.30374038219451904297e-01) (12 -3.28682214021682739258e-01) (13 7.58295834064483642578e-01) (14 -7.77722001075744628906e-01) (15 -1.26908814907073974609e+00) (16 -1.54923307895660400391e+00) (17 1.03411042690277099609e+00) (18 6.91476643085479736328e-01) (19 -2.54548001289367675781e+00) (20 -2.64102244377136230469e+00) (21 8.86320018768310546875e+00) (22 -4.71916198730468750000e-01) (23 1.81319713592529296875e-01) (24 4.55811548233032226562e+00) (25 2.48454421758651733398e-01) (26 2.28038117289543151855e-01) (27 -4.09540146589279174805e-01) (28 -2.87124395370483398438e+00) (29 -6.68777301907539367676e-02) (30 -2.80226826667785644531e-01) (0 2.09970831871032714844e+00) (1 1.92376956343650817871e-01) (2 2.91858941316604614258e-01) (3 2.94172614812850952148e-01) (4 -3.63116085529327392578e-01) (5 -1.19406998157501220703e+00) (6 -4.59812819957733154297e-01) (7 1.25660085678100585938e+00) (8 -2.01490268111228942871e-01) (9 3.86191189289093017578e-01) (10 -9.58700716495513916016e-01) (11 5.86182403564453125000e+00) (12 7.71690532565116882324e-02) (13 3.84168744087219238281e-01) (14 4.64618504047393798828e-01) (15 1.01306271553039550781e+00) (16 8.62305238842964172363e-02) (17 3.46976304054260253906e+00) (18 7.08887755870819091797e-01) (19 1.49734008312225341797e+00) (20 -4.57457494735717773438e+00) (21 6.72739988658577203751e-04) (22 -2.55579853057861328125e+00) (23 -5.63957405090332031250e+00) (24 2.42496681213378906250e+00) (25 1.53226628899574279785e-01) (26 -5.56249953806400299072e-02) (27 3.51009480655193328857e-02) (28 -4.88155275583267211914e-01) (29 -2.21584036946296691895e-01) (30 -1.46431958675384521484e+00) (0 -1.32530820369720458984e+00) (1 -1.05492919683456420898e-01) (2 -3.92966084182262420654e-02) (3 -1.11537752673029899597e-02) (4 -2.16588944196701049805e-01) (5 3.33870887756347656250e+00) (6 1.03503592312335968018e-01) (7 7.33266830444335937500e-01) (8 3.46831965446472167969e+00) (9 -5.84724582731723785400e-02) (10 4.67492669820785522461e-01) (11 -1.19496619701385498047e+00) (12 2.61089265346527099609e-01) (13 4.50929313898086547852e-01) (14 7.99842700362205505371e-02) (15 1.00497734546661376953e+00) (16 1.63113272190093994141e+00) (17 2.75607252120971679688e+00) (18 4.64918352663516998291e-02) (19 -3.06351900100708007812e-01) (20 6.01831376552581787109e-01) (21 -1.34221291542053222656e+00) (22 8.52527678012847900391e-01) (23 8.32474708557128906250e+00) (24 -2.52243518829345703125e+00) (25 2.48572543263435363770e-01) (26 -6.54617249965667724609e-02) (27 6.71184480190277099609e-01) (28 1.18351852893829345703e+00) (29 -8.58415365219116210938e-02) (30 -4.51022118330001831055e-01) (0 1.71297979354858398438e+00) (1 -1.79421693086624145508e-01) (2 -3.05647969245910644531e-01) (3 -3.64444136619567871094e-01) (4 -7.25218713283538818359e-01) (5 8.56671333312988281250e-01) (6 -1.25871852040290832520e-01) (7 2.34833168983459472656e+00) (8 -1.16626143455505371094e+00) (9 -8.74491870403289794922e-01) (10 -7.19848022460937500000e+01) (11 1.60498225688934326172e+00) (12 1.64879392832517623901e-02) (13 6.81324243545532226562e-01) (14 1.52504205703735351562e+00) (15 7.64238893985748291016e-01) (16 5.25496482849121093750e-01) (17 -5.30303418636322021484e-01) (18 -2.38137945532798767090e-01) (19 7.10910873413085937500e+01) (20 5.20053684711456298828e-01) (21 -9.91618260741233825684e-02) (22 -8.68165791034698486328e-02) (23 -1.14457428455352783203e+00) (24 -5.13076126575469970703e-01) (25 -5.40050983428955078125e-01) (26 -6.81838393211364746094e-01) (27 1.22793960571289062500e+00) (28 -5.55925786495208740234e-01) (29 -8.95035505294799804688e-01) (30 -2.67514109611511230469e-01) (0 -8.82380247116088867188e-01) (1 5.21344602108001708984e-01) (2 -2.15796679258346557617e-01) (3 -2.97998666763305664062e-01) (4 1.50379717350006103516e+00) (5 4.68440860509872436523e-01) (6 7.49752819538116455078e-01) (7 -3.28314495086669921875e+00) (8 -5.16149222850799560547e-01) (9 -2.39367842674255371094e-01) (10 -1.04809355735778808594e+00) (11 4.19509530067443847656e-01) (12 1.14257492125034332275e-01) (13 -1.20973266661167144775e-01) (14 -6.41415357589721679688e-01) (15 1.89585983753204345703e-03) (16 2.17431500554084777832e-01) (17 6.62134528160095214844e-01) (18 1.24068640172481536865e-01) (19 -1.03260767459869384766e+00) (20 -1.30656397342681884766e+00) (21 -2.40037679672241210938e+00) (22 -1.31997615098953247070e-01) (23 6.53896152973175048828e-01) (24 6.56619668006896972656e-02) (25 1.00460037589073181152e-01) (26 -4.43720906972885131836e-01) (27 -3.24606752395629882812e+00) (28 1.94111447781324386597e-02) (29 1.28747749328613281250e+00) (30 2.09096208214759826660e-01) (0 -3.30318284034729003906e+00) (1 1.08949311077594757080e-01) (2 5.67003563046455383301e-02) (3 1.51637479662895202637e-01) (4 7.19514489173889160156e-01) (5 -6.33426085114479064941e-02) (6 3.57665687799453735352e-01) (7 -4.30053787231445312500e+01) (8 3.20081567764282226562e+00) (9 -1.40294507145881652832e-02) (10 -8.70284855365753173828e-01) (11 -1.56766521930694580078e+00) (12 2.65672747045755386353e-02) (13 1.34652629494667053223e-01) (14 -2.17573285102844238281e-01) (15 -8.61376747488975524902e-02) (16 3.20763289928436279297e-01) (17 6.63865566253662109375e-01) (18 6.86624124646186828613e-02) (19 -3.47201973199844360352e-01) (20 -3.86842578649520874023e-01) (21 -1.38455069065093994141e+00) (22 3.55336666107177734375e+00) (23 8.95600020885467529297e-01) (24 -8.07627201080322265625e-01) (25 2.71489024162292480469e-01) (26 -4.13999497890472412109e-01) (27 -1.18467964231967926025e-01) (28 1.65008008480072021484e+00) (29 2.41892838478088378906e+00) (30 -3.13867330551147460938e-02) (0 -5.18212854862213134766e-01) (1 3.40690076351165771484e-01) (2 5.48750698566436767578e-01) (3 5.63423156738281250000e-01) (4 3.82499583065509796143e-02) (5 -3.16506981849670410156e-01) (6 5.30277192592620849609e-01) (7 -5.77775359153747558594e-01) (8 6.88836193084716796875e+00) (9 2.61014223098754882812e+00) (10 -6.66010439395904541016e-01) (11 -2.25202298164367675781e+00) (12 4.83037769794464111328e-01) (13 6.73871374130249023438e+00) (14 -8.43939092010259628296e-03) (15 1.17312692105770111084e-01) (16 2.80344843864440917969e+00) (17 1.12212911248207092285e-01) (18 4.91401612758636474609e-01) (19 -3.42339396476745605469e+00) (20 -1.84384000301361083984e+00) (21 -2.41632318496704101562e+00) (22 1.47374439239501953125e+00) (23 -3.95460069179534912109e-01) (24 2.21816444396972656250e+00) (25 2.23434537649154663086e-01) (26 -2.14684195816516876221e-02) (27 -4.86103951930999755859e-01) (28 -1.54130533337593078613e-01) (29 6.71621465682983398438e+00) (30 -9.82094287872314453125e-01) (0 -1.65431559085845947266e+00) (1 2.34927274286746978760e-02) (2 1.68105959892272949219e-02) (3 1.71990580856800079346e-02) (4 2.45064496994018554688e-02) (5 5.29440902173519134521e-02) (6 5.04191756248474121094e-01) (7 -5.85885703563690185547e-01) (8 1.69877514243125915527e-01) (9 -6.94774031639099121094e-01) (10 -3.92155885696411132812e-01) (11 -4.35724765062332153320e-01) (12 -2.88961887359619140625e-01) (13 4.06357385218143463135e-02) (14 -1.47111639380455017090e-01) (15 -2.47619897127151489258e-01) (16 9.13877725601196289062e-01) (17 3.97724568843841552734e-01) (18 -5.59773147106170654297e-01) (19 -1.14272058010101318359e+00) (20 4.52205801010131835938e+00) (21 -1.10187709331512451172e+00) (22 1.15310363769531250000e+01) (23 1.41120398044586181641e+00) (24 -1.20714354515075683594e+00) (25 -3.24050039052963256836e-01) (26 1.03255800902843475342e-01) (27 4.22733604907989501953e-01) (28 4.21304032206535339355e-02) (29 -6.66397392749786376953e-01) (30 8.55855196714401245117e-02) (0 2.04168772697448730469e+00) (1 -2.14403659105300903320e-01) (2 -8.39427411556243896484e-02) (3 -1.18213117122650146484e-01) (4 -7.18963801860809326172e-01) (5 -2.95657348632812500000e+00) (6 -4.84072536230087280273e-01) (7 2.79048651456832885742e-01) (8 1.49126723408699035645e-02) (9 2.50006055831909179688e+00) (10 4.23173427581787109375e+00) (11 1.70250377655029296875e+01) (12 1.38075280189514160156e+00) (13 2.64890622347593307495e-02) (14 1.71696409583091735840e-01) (15 1.40722525119781494141e+00) (16 3.14126819372177124023e-01) (17 1.16343240737915039062e+01) (18 1.65208005905151367188e+00) (19 1.67393159866333007812e+00) (20 -4.15300750732421875000e+00) (21 1.19552709162235260010e-01) (22 -2.36138150095939636230e-01) (23 -1.65194916725158691406e+00) (24 3.88386994600296020508e-01) (25 2.01524924486875534058e-02) (26 -5.62685847282409667969e-01) (27 -8.06093692779541015625e-01) (28 -1.15753567218780517578e+00) (29 -1.71088844537734985352e-01) (30 -1.15760076045989990234e+00) (0 2.01802921295166015625e+00) (1 -3.47303181886672973633e-01) (2 -3.29715549945831298828e-01) (3 -3.81450206041336059570e-01) (4 -2.16181427240371704102e-01) (5 -1.45789217948913574219e+00) (6 -3.98030608892440795898e-01) (7 5.51734387874603271484e-01) (8 -6.95770084857940673828e-01) (9 1.00181901454925537109e+00) (10 4.44045829772949218750e+00) (11 7.34112405776977539062e+00) (12 7.51065909862518310547e-01) (13 2.32259646058082580566e-01) (14 3.18163126707077026367e-01) (15 4.07785117626190185547e-01) (16 1.52411665767431259155e-02) (17 9.44620513916015625000e+00) (18 1.34771966934204101562e+00) (19 2.35770344734191894531e+00) (20 -1.10782182216644287109e+00) (21 4.36389118432998657227e-01) (22 -8.50163877010345458984e-01) (23 -3.08892822265625000000e+00) (24 3.17280817031860351562e+00) (25 1.59826111793518066406e+00) (26 -2.39101856946945190430e-01) (27 -1.63774669170379638672e+00) (28 -7.93571770191192626953e-02) (29 1.07907436788082122803e-01) (30 -2.93420612812042236328e-01) (0 -1.51125833392143249512e-01) (1 -1.76035910844802856445e-01) (2 -4.11511421203613281250e-01) (3 -3.41102391481399536133e-01) (4 1.39242127537727355957e-01) (5 8.44926416873931884766e-01) (6 -2.13357418775558471680e-01) (7 -4.80123937129974365234e-01) (8 -1.52187764644622802734e+00) (9 2.03144118189811706543e-01) (10 1.00215546786785125732e-01) (11 4.42238867282867431641e-01) (12 -2.54637658596038818359e-01) (13 -1.25094062805175781250e+02) (14 -4.98935282230377197266e-02) (15 -4.99945282936096191406e-01) (16 -5.03539733886718750000e+01) (17 4.65286463499069213867e-01) (18 -6.89150094985961914062e-02) (19 -6.66450858116149902344e-01) (20 2.64677777886390686035e-02) (21 2.22377228736877441406e+00) (22 -8.77381324768066406250e-01) (23 2.54359531402587890625e+00) (24 -1.96473315358161926270e-01) (25 3.18644642829895019531e-01) (26 -4.79113250970840454102e-01) (27 -7.98608481884002685547e-01) (28 4.88549143075942993164e-01) (29 1.00536322593688964844e+00) (30 1.64438620209693908691e-01) (0 2.37782025337219238281e+00) (1 5.65093696117401123047e-01) (2 -6.27411067485809326172e-01) (3 -6.09039723873138427734e-01) (4 -7.77316093444824218750e-01) (5 -1.27327814698219299316e-01) (6 4.37272071838378906250e-01) (7 -6.99957847595214843750e-01) (8 -2.88934154510498046875e+01) (9 4.33023236691951751709e-02) (10 -1.30460500717163085938e+00) (11 7.48044729232788085938e-01) (12 3.10181558132171630859e-01) (13 -1.24535679817199707031e+00) (14 8.75034034252166748047e-02) (15 -6.98883771896362304688e-01) (16 -1.59399676322937011719e+00) (17 -2.42582201957702636719e-01) (18 6.53634965419769287109e-01) (19 4.73364686965942382812e+00) (20 -1.14694142341613769531e+00) (21 1.91588807106018066406e+00) (22 -1.30526876449584960938e+00) (23 -5.35812020301818847656e-01) (24 3.71040153503417968750e+00) (25 8.97219926118850708008e-02) (26 1.66855841875076293945e-01) (27 -5.68630456924438476562e-01) (28 -4.67725610733032226562e+00) (29 5.92806577682495117188e-01) (30 -5.20366907119750976562e-01) (0 -1.42258971929550170898e-01) (1 1.18239372968673706055e-01) (2 1.41355663537979125977e-01) (3 2.85576105117797851562e-01) (4 3.15455675125122070312e-01) (5 -1.22688198089599609375e+00) (6 -2.15490400791168212891e-01) (7 -5.54704368114471435547e-01) (8 -1.67307460308074951172e+00) (9 3.07988786697387695312e+00) (10 2.16142868995666503906e+00) (11 -3.33292573690414428711e-01) (12 -4.41613584756851196289e-01) (13 -9.25956308841705322266e-01) (14 -1.35651156306266784668e-01) (15 -1.40830767154693603516e+00) (16 -1.90333533287048339844e+00) (17 -1.84909212589263916016e+00) (18 -3.15440207719802856445e-01) (19 1.00233864784240722656e+00) (20 3.05259275436401367188e+00) (21 4.38091239929199218750e+01) (22 -2.96745777130126953125e-01) (23 -1.65697112679481506348e-01) (24 6.75471901893615722656e-01) (25 2.14223131537437438965e-01) (26 4.33003693819046020508e-01) (27 1.14225280284881591797e+00) (28 2.14716270565986633301e-01) (29 -1.55127629637718200684e-01) (30 3.37041437625885009766e-01) (0 -1.02468013763427734375e+00) (1 1.68530821800231933594e-01) (2 1.27500280737876892090e-01) (3 2.76701450347900390625e-01) (4 1.74518078565597534180e-01) (5 -7.83425092697143554688e-01) (6 3.35485100746154785156e-01) (7 -3.62148076295852661133e-01) (8 8.15231278538703918457e-02) (9 2.13857293128967285156e+00) (10 1.26336678862571716309e-01) (11 2.27891638875007629395e-01) (12 1.82938233017921447754e-01) (13 3.18114906549453735352e-01) (14 -8.13904225826263427734e-01) (15 8.50778892636299133301e-02) (16 3.97074341773986816406e-01) (17 9.46692585945129394531e-01) (18 2.63964265584945678711e-01) (19 -1.33482575416564941406e+00) (20 -2.43964600563049316406e+00) (21 -3.99086022377014160156e+00) (22 1.49210548400878906250e+00) (23 2.53213733434677124023e-01) (24 9.71718356013298034668e-02) (25 4.86459314823150634766e-01) (26 -9.19142425060272216797e-01) (27 -9.53368365764617919922e-01) (28 -1.62003979086875915527e-01) (29 2.66660618782043457031e+00) (30 -5.63428066670894622803e-02) (0 -4.87117081880569458008e-01) (1 2.29318648576736450195e-01) (2 1.62537962198257446289e-01) (3 2.17653691768646240234e-01) (4 1.92081034183502197266e-01) (5 -9.62711513042449951172e-01) (6 -3.95566284656524658203e-01) (7 8.03165197372436523438e-01) (8 -7.09487974643707275391e-01) (9 2.75034725666046142578e-01) (10 1.39209961891174316406e+00) (11 -5.80871522426605224609e-01) (12 -7.85350054502487182617e-02) (13 2.43473742157220840454e-02) (14 -5.53139626979827880859e-01) (15 -5.06112158298492431641e-01) (16 -4.75354582071304321289e-01) (17 -3.25920045375823974609e-01) (18 1.00882196426391601562e+00) (19 -3.61034035682678222656e-01) (20 -8.94966900348663330078e-01) (21 1.88062345981597900391e+00) (22 -5.57033824920654296875e+00) (23 -2.21376761794090270996e-01) (24 1.86463820934295654297e+00) (25 3.89222949743270874023e-01) (26 -1.50755196809768676758e-01) (27 -2.54735201597213745117e-01) (28 -3.54864597320556640625e-01) (29 1.13926434516906738281e+00) (30 -3.74174378812313079834e-02) (0 -2.31598198413848876953e-01) (1 2.58556753396987915039e-01) (2 3.37585389614105224609e-01) (3 4.52934026718139648438e-01) (4 3.03810574114322662354e-02) (5 -7.31317222118377685547e-01) (6 2.36327454447746276855e-01) (7 -6.54893517494201660156e-01) (8 3.06483674049377441406e+00) (9 -7.88318216800689697266e-01) (10 -7.33689188957214355469e-01) (11 -2.36865893006324768066e-01) (12 -4.17273268103599548340e-02) (13 1.07038927078247070312e+00) (14 -8.90887528657913208008e-02) (15 -5.31946122646331787109e-02) (16 8.97415161132812500000e-01) (17 1.63092330098152160645e-01) (18 -7.76664912700653076172e-02) (19 1.94288845062255859375e+01) (20 8.04498672485351562500e-01) (21 -1.61247181892395019531e+00) (22 3.55692958831787109375e+00) (23 2.04445576667785644531e+00) (24 -1.01974201202392578125e+00) (25 -1.45438849925994873047e+00) (26 2.83630192279815673828e-01) (27 5.83409309387207031250e-01) (28 -9.66525375843048095703e-01) (29 -9.56586837768554687500e-01) (30 1.26691991463303565979e-02) (0 2.45929673314094543457e-01) (1 -1.19675397872924804688e+00) (2 -1.10979151725769042969e+00) (3 -1.06030702590942382812e+00) (4 -3.14755034446716308594e+00) (5 1.42120337486267089844e+00) (6 4.38452273607254028320e-01) (7 9.50622737407684326172e-01) (8 1.11091054975986480713e-01) (9 -3.59618037939071655273e-01) (10 -5.54391026496887207031e-01) (11 8.98568153381347656250e-01) (12 7.78807401657104492188e-01) (13 5.49590587615966796875e-01) (14 8.84796798229217529297e-01) (15 8.91386508941650390625e-01) (16 1.47271224975585937500e+02) (17 2.78569340705871582031e+00) (18 2.64965236186981201172e-01) (19 1.19087815284729003906e+00) (20 -2.91687548160552978516e-01) (21 -1.20434963703155517578e+00) (22 4.02398139238357543945e-01) (23 6.31465494632720947266e-01) (24 -1.41129601001739501953e+00) (25 -9.02601033449172973633e-02) (26 -2.18449640274047851562e+00) (27 1.43642395734786987305e-01) (28 2.32814028859138488770e-01) (29 -4.46467697620391845703e-01) (30 -1.97654986381530761719e+00) (0 -3.23395669460296630859e-01) (1 4.32492226362228393555e-01) (2 3.97563785314559936523e-01) (3 4.21128094196319580078e-01) (4 2.47505336999893188477e-01) (5 -1.85994410514831542969e+00) (6 4.31505203247070312500e-01) (7 2.13594868779182434082e-01) (8 5.00671684741973876953e-01) (9 -1.73869237303733825684e-01) (10 8.76534461975097656250e-01) (11 7.21483975648880004883e-02) (12 -1.12264238297939300537e-01) (13 5.57107180356979370117e-02) (14 -1.00910559296607971191e-01) (15 -8.06508421897888183594e-01) (16 1.66632831096649169922e-01) (17 -1.26312053203582763672e+00) (18 4.50986176729202270508e-02) (19 2.80213057994842529297e-01) (20 7.41756558418273925781e-01) (21 -5.04382312297821044922e-01) (22 9.75587844848632812500e-01) (23 1.73212730884552001953e+00) (24 4.83487881720066070557e-02) (25 -5.24487674236297607422e-01) (26 2.52766370773315429688e-01) (27 1.13573956489562988281e+00) (28 -1.14245854318141937256e-01) (29 -4.90766018629074096680e-01) (30 2.29821264743804931641e-01) (0 5.25823414325714111328e-01) (1 2.05719292163848876953e-01) (2 1.57568559050559997559e-01) (3 1.47585213184356689453e-01) (4 -3.53914380073547363281e-01) (5 1.29961743950843811035e-01) (6 -5.20946562290191650391e-01) (7 1.87375831604003906250e+00) (8 -1.00029692053794860840e-01) (9 1.94256293773651123047e+00) (10 -5.63316106796264648438e-01) (11 1.13963384628295898438e+01) (12 4.04597640037536621094e-01) (13 1.01846650242805480957e-01) (14 3.10110807418823242188e-01) (15 1.89405393600463867188e+00) (16 4.47679996490478515625e-01) (17 1.56171905994415283203e+00) (18 3.54162395000457763672e-01) (19 1.26808547973632812500e+00) (20 -4.51229238510131835938e+00) (21 6.72836154699325561523e-02) (22 -4.64509010314941406250e-01) (23 -5.33510351181030273438e+00) (24 3.32131087779998779297e-01) (25 -7.67641887068748474121e-02) (26 -3.37498039007186889648e-01) (27 -6.86492323875427246094e-01) (28 -9.07869219779968261719e-01) (29 1.82629060000181198120e-02) (30 -6.43109023571014404297e-01) (0 2.09339469671249389648e-01) (1 1.42931535840034484863e-01) (2 -1.55294910073280334473e-01) (3 -1.39282464981079101562e-01) (4 7.84178897738456726074e-02) (5 -2.77370977401733398438e+00) (6 -2.36486420035362243652e-01) (7 -1.07849035263061523438e+01) (8 -6.44972681999206542969e-01) (9 3.15982133150100708008e-01) (10 1.61923861503601074219e+00) (11 7.47317254543304443359e-01) (12 -8.05814623832702636719e-01) (13 -1.24788008630275726318e-01) (14 -1.58418223261833190918e-01) (15 -8.62308681011199951172e-01) (16 -4.56133902072906494141e-01) (17 -1.84428203105926513672e+00) (18 -2.21861109137535095215e-01) (19 2.96849465370178222656e+00) (20 1.21409869194030761719e+00) (21 4.27174985408782958984e-01) (22 5.86400747299194335938e-01) (23 -2.03261189162731170654e-02) (24 5.07296323776245117188e-02) (25 -4.20242398977279663086e-01) (26 6.61986470222473144531e-01) (27 3.61939167976379394531e+00) (28 1.81417956948280334473e-01) (29 -1.87986433506011962891e+00) (30 2.00988754630088806152e-01) (0 -2.12400406599044799805e-01) (1 -9.76759847253561019897e-03) (2 2.56291180849075317383e-01) (3 3.06122213602066040039e-01) (4 1.16587027907371520996e-01) (5 -4.64675009250640869141e-01) (6 -8.38592827320098876953e-01) (7 2.01787424087524414062e+00) (8 -5.28272926807403564453e-01) (9 1.71423092484474182129e-01) (10 2.32391166687011718750e+00) (11 -1.19923996925354003906e+00) (12 2.39102616906166076660e-01) (13 9.39765200018882751465e-02) (14 -2.05428868532180786133e-01) (15 -3.02803754806518554688e-01) (16 -6.56929492950439453125e-01) (17 -5.73719263076782226562e-01) (18 2.02249288558959960938e+00) (19 -3.60609912872314453125e+00) (20 -2.08456850051879882812e+00) (21 1.39558827877044677734e+00) (22 -5.74420022964477539062e+00) (23 -7.00428426265716552734e-01) (24 5.05372881889343261719e-01) (25 8.43619406223297119141e-01) (26 1.08408540487289428711e-01) (27 -1.09455473721027374268e-01) (28 3.86095702648162841797e-01) (29 1.89823496341705322266e+00) (30 -2.05440133810043334961e-01) (0 -1.74743756651878356934e-01) (1 -1.20267331600189208984e+00) (2 3.08778196573257446289e-01) (3 4.02137011289596557617e-01) (4 -1.41391956806182861328e+00) (5 -4.16468620300292968750e+00) (6 -7.24373459815979003906e-01) (7 3.69198799133300781250e+00) (8 8.98884117603302001953e-01) (9 2.12029144287109375000e+02) (10 2.85193300247192382812e+00) (11 -2.38441005349159240723e-02) (12 -2.77575522661209106445e-01) (13 1.13171410560607910156e+00) (14 4.61367331445217132568e-02) (15 -3.08264762163162231445e-01) (16 3.65231454372406005859e-01) (17 3.24163436889648437500e-01) (18 -1.54950708150863647461e-01) (19 2.87072826176881790161e-03) (20 1.44214022159576416016e+00) (21 7.92403101921081542969e-01) (22 5.54857850074768066406e-01) (23 1.19916987419128417969e+00) (24 7.93738141655921936035e-02) (25 8.68658959865570068359e-01) (26 1.03483331203460693359e+00) (27 1.27922391891479492188e+00) (28 8.18773090839385986328e-01) (29 -4.29752886295318603516e-01) (30 -3.48281294107437133789e-01) (0 9.75536406040191650391e-01) (1 3.22847247123718261719e-01) (2 -2.26361051201820373535e-01) (3 -1.05389557778835296631e-01) (4 -2.52257943153381347656e-01) (5 -1.26174688339233398438e-01) (6 1.87391221523284912109e+00) (7 -1.87198972702026367188e+00) (8 1.66529417037963867188e-01) (9 -4.94567245244979858398e-01) (10 -2.89453244209289550781e+00) (11 3.00093841552734375000e+00) (12 7.87977650761604309082e-02) (13 -1.53868567943572998047e+00) (14 -3.19585949182510375977e-01) (15 -5.20946048200130462646e-02) (16 -1.00093960762023925781e+00) (17 6.09541416168212890625e-01) (18 -7.53268659114837646484e-01) (19 6.53303337097167968750e+00) (20 1.98520228266716003418e-01) (21 -7.19873011112213134766e-01) (22 1.95408260822296142578e+00) (23 2.01011610031127929688e+00) (24 -4.30008620023727416992e-01) (25 -4.18259948492050170898e-01) (26 3.24710339307785034180e-01) (27 5.10938227176666259766e-01) (28 -2.02070727944374084473e-01) (29 -9.10758674144744873047e-01) (30 -4.09692339599132537842e-02) (0 1.25355601310729980469e-01) (1 3.30081760883331298828e-01) (2 2.02660650014877319336e-01) (3 7.57488459348678588867e-02) (4 3.51210713386535644531e-01) (5 4.63880673050880432129e-02) (6 6.21074996888637542725e-02) (7 -4.36669170856475830078e-01) (8 9.98715043067932128906e-01) (9 3.47089916467666625977e-01) (10 -2.47962903231382369995e-02) (11 -1.17508463561534881592e-01) (12 -3.30656468868255615234e-01) (13 -1.25900059938430786133e-01) (14 1.11948180198669433594e+00) (15 -2.77177035808563232422e-01) (16 -6.57800340652465820312e+00) (17 -6.75467824935913085938e+00) (18 -4.15489822626113891602e-01) (19 -1.50946080684661865234e-01) (20 7.11347997188568115234e-01) (21 1.80783092975616455078e-01) (22 1.72570383548736572266e+00) (23 1.05873930454254150391e+00) (24 -2.72168993949890136719e-01) (25 -1.50470609664916992188e+01) (26 -1.51898086071014404297e-01) (27 -1.49474203586578369141e-01) (28 -2.02228355407714843750e+00) (29 -2.76013135910034179688e-01) (30 5.31871736049652099609e-01) (0 -7.45396375656127929688e-01) (1 3.11611682176589965820e-01) (2 5.25968909263610839844e-01) (3 4.90075945854187011719e-01) (4 5.81251621246337890625e-01) (5 -3.42280340194702148438e+00) (6 -2.01493635773658752441e-01) (7 -3.06055843830108642578e-01) (8 4.15689140558242797852e-01) (9 1.07940340042114257812e+00) (10 2.95653605461120605469e+00) (11 5.52424192428588867188e-01) (12 3.81709970533847808838e-02) (13 4.85961258411407470703e-01) (14 -6.84184551239013671875e-01) (15 -7.86071598529815673828e-01) (16 -7.91112720966339111328e-01) (17 -2.80222147703170776367e-01) (18 1.04532897472381591797e+00) (19 -4.50060278177261352539e-01) (20 -9.60228383541107177734e-01) (21 1.17125606536865234375e+00) (22 -5.34681618213653564453e-01) (23 5.79436898231506347656e-01) (24 1.20833480358123779297e+00) (25 6.23445510864257812500e-01) (26 2.87121921777725219727e-01) (27 -2.71398276090621948242e-01) (28 3.23571846820414066315e-03) (29 8.65875899791717529297e-01) (30 2.44577482342720031738e-01) (0 5.66476285457611083984e-01) (1 7.20978016033768653870e-03) (2 -1.58752232789993286133e-01) (3 -2.75060325860977172852e-01) (4 1.19209736585617065430e-01) (5 -1.18424147367477416992e-01) (6 3.25314342975616455078e-01) (7 -1.02164196968078613281e+00) (8 -1.09056830406188964844e+00) (9 -1.26820772886276245117e-01) (10 4.28661927580833435059e-02) (11 -2.07040205597877502441e-01) (12 1.02055422961711883545e-01) (13 -7.23181426525115966797e-01) (14 -9.43760499358177185059e-02) (15 -4.96884822845458984375e-01) (16 -6.85630750656127929688e+00) (17 -8.53052043914794921875e+00) (18 1.57467544078826904297e-01) (19 1.52504205703735351562e+00) (20 -4.49641287326812744141e-01) (21 -3.79728764295578002930e-01) (22 1.11487142741680145264e-01) (23 3.05111743509769439697e-02) (24 3.09027433395385742188e-01) (25 -2.11796373128890991211e-01) (26 2.88287013769149780273e-01) (27 -2.49234855175018310547e-01) (28 -5.03892898559570312500e-01) (29 4.21017073094844818115e-02) (30 1.74803853034973144531e+00) (0 2.33136272430419921875e+00) (1 4.18316066265106201172e-01) (2 1.07106804847717285156e+00) (3 9.75886046886444091797e-01) (4 -8.52313280105590820312e-01) (5 1.02029685974121093750e+02) (6 2.14384019374847412109e-01) (7 8.46984088420867919922e-01) (8 7.60603547096252441406e-01) (9 -9.24392521381378173828e-01) (10 1.34260666370391845703e+00) (11 -3.53563270568847656250e+01) (12 1.09982271194458007812e+01) (13 3.78455495834350585938e+00) (14 3.10944724082946777344e+00) (15 4.38807582855224609375e+00) (16 4.22771739959716796875e+00) (17 4.99668538570404052734e-01) (18 2.64506697654724121094e+00) (19 2.37906188964843750000e+01) (20 9.54497456550598144531e-01) (21 -3.42864304780960083008e-01) (22 1.82566487789154052734e+00) (23 3.40354949235916137695e-01) (24 -4.09457981586456298828e-02) (25 -1.72497823834419250488e-01) (26 6.23755931854248046875e-01) (27 2.55262420654296875000e+02) (28 1.03014715015888214111e-01) (29 -3.08270175009965896606e-02) (30 -3.40060162544250488281e+00) (0 3.45944613218307495117e-01) (1 -9.30322885513305664062e-01) (2 -8.30636501312255859375e-01) (3 -8.21114480495452880859e-01) (4 -3.17340874671936035156e+00) (5 2.15047597885131835938e+00) (6 4.10638272762298583984e-01) (7 2.35543131828308105469e+00) (8 1.05712853372097015381e-01) (9 -5.42396962642669677734e-01) (10 -2.09740355610847473145e-01) (11 8.43005776405334472656e-01) (12 5.15325248241424560547e-01) (13 4.50063318014144897461e-01) (14 3.42802882194519042969e-01) (15 1.14310121536254882812e+00) (16 2.54434494018554687500e+02) (17 3.92886066436767578125e+00) (18 3.17442923784255981445e-01) (19 1.57353687286376953125e+00) (20 -7.81303763389587402344e-01) (21 -4.29146003723144531250e+00) (22 2.62331461906433105469e+00) (23 2.59388208389282226562e-01) (24 -1.74773585796356201172e+00) (25 3.04816458374261856079e-02) (26 -3.21495366096496582031e+00) (27 -5.83202531561255455017e-03) (28 7.07345642149448394775e-03) (29 -4.85842525959014892578e-01) (30 -2.02609014511108398438e+00) (0 -3.97772848606109619141e-01) (1 -1.12292245030403137207e-02) (2 3.21220219135284423828e-01) (3 2.90335178375244140625e-01) (4 -1.83540716767311096191e-01) (5 4.22056722640991210938e+00) (6 -3.00633817911148071289e-01) (7 8.15538644790649414062e-01) (8 1.03570234775543212891e+00) (9 3.98410670459270477295e-02) (10 8.91971397399902343750e+00) (11 -1.43007063865661621094e+00) (12 -7.93752968311309814453e-02) (13 3.56722742319107055664e-01) (14 3.22837054729461669922e-01) (15 3.31910133361816406250e-01) (16 5.25851130485534667969e-01) (17 -6.90524056553840637207e-02) (18 -3.01013320684432983398e-01) (19 1.22391867637634277344e+00) (20 4.75001049041748046875e+00) (21 -7.34708845615386962891e-01) (22 1.13984262943267822266e+00) (23 5.35958468914031982422e-01) (24 -1.62573504447937011719e+00) (25 6.85214817523956298828e-01) (26 1.08723020553588867188e+00) (27 2.03130817413330078125e+00) (28 8.68346869945526123047e-01) (29 -3.55099248886108398438e+00) (30 -2.31953918933868408203e-01) (0 1.80058979988098144531e+00) (1 1.49788841605186462402e-01) (2 1.81741550564765930176e-01) (3 2.41445913910865783691e-01) (4 7.66504406929016113281e-02) (5 -1.25910913944244384766e+00) (6 -6.89060151576995849609e-01) (7 4.36607360839843750000e-01) (8 -8.59123289585113525391e-01) (9 4.80621904134750366211e-01) (10 9.56765413284301757812e-01) (11 1.55671823024749755859e+00) (12 -2.01819073408842086792e-02) (13 3.48012179136276245117e-01) (14 1.11451029777526855469e+00) (15 -5.96340335905551910400e-02) (16 -3.18074494600296020508e-01) (17 -5.01631915569305419922e-01) (18 8.69705736637115478516e-01) (19 -3.70652765035629272461e-01) (20 3.92886209487915039062e+00) (21 7.61336946487426757812e+00) (22 -6.10908126831054687500e+00) (23 -1.43306887149810791016e+00) (24 1.01377058029174804688e+00) (25 -8.21851074695587158203e-01) (26 -4.44615632295608520508e-02) (27 -8.77812653779983520508e-02) (28 -7.21493124961853027344e-01) (29 -6.96959206834435462952e-03) (30 1.09574578702449798584e-01) (0 -5.85161805152893066406e-01) (1 -1.86356917023658752441e-01) (2 -1.74085080623626708984e-01) (3 -1.60511657595634460449e-01) (4 6.25692903995513916016e-02) (5 1.29680871963500976562e-01) (6 6.54716372489929199219e-01) (7 -2.76386469602584838867e-01) (8 5.35089433193206787109e-01) (9 -1.22480714321136474609e+00) (10 -6.58688247203826904297e-02) (11 6.42469525337219238281e-02) (12 5.59385001659393310547e-01) (13 -4.25108261406421661377e-02) (14 -5.55632531642913818359e-01) (15 -4.71345484256744384766e-01) (16 3.16209584474563598633e-01) (17 1.61894571781158447266e+00) (18 1.42595529556274414062e+00) (19 -3.16870760917663574219e+00) (20 -8.23408126831054687500e+00) (21 -1.79599332809448242188e+00) (22 1.76154337823390960693e-02) (23 5.50268404185771942139e-03) (24 1.55472397804260253906e-01) (25 1.85943037271499633789e-01) (26 -4.59043234586715698242e-01) (27 -2.13515233993530273438e+00) (28 -2.14118048548698425293e-01) (29 3.21589255332946777344e+00) (30 5.75969517230987548828e-01) (0 9.79572474956512451172e-01) (1 -4.27600324153900146484e-01) (2 -3.13032716512680053711e-02) (3 9.48232859373092651367e-02) (4 3.72585833072662353516e-01) (5 2.79291808605194091797e-01) (6 -1.00284576416015625000e+00) (7 5.69818401336669921875e+00) (8 -3.98303896188735961914e-01) (9 1.38398313522338867188e+00) (10 5.23807168006896972656e-01) (11 5.61398410797119140625e+00) (12 -1.13118134438991546631e-01) (13 2.37711620330810546875e+00) (14 1.57268333435058593750e+00) (15 2.15484485030174255371e-01) (16 -1.07425034046173095703e-01) (17 -1.10475420951843261719e+00) (18 1.00161440670490264893e-01) (19 1.55437922477722167969e+00) (20 4.01164865493774414062e+00) (21 2.12060592651367187500e+02) (22 -9.36544418334960937500e-01) (23 -3.56452870368957519531e+00) (24 -2.82249301671981811523e-01) (25 -9.84440386295318603516e-01) (26 -5.01802921295166015625e-01) (27 -5.24609208106994628906e-01) (28 1.32502332329750061035e-01) (29 -1.61907508969306945801e-01) (30 9.44356322288513183594e-02) (0 1.71271240711212158203e+00) (1 -3.03298830986022949219e-01) (2 -4.86880809068679809570e-01) (3 -4.70784217119216918945e-01) (4 -1.69770181179046630859e-01) (5 3.41176652908325195312e+00) (6 -1.90606832504272460938e+00) (7 3.48661589622497558594e+00) (8 -2.69976544380187988281e+00) (9 -1.32728242874145507812e+00) (10 -3.70411068201065063477e-01) (11 -7.29569244384765625000e+00) (12 3.08549284934997558594e-01) (13 -8.50780606269836425781e-01) (14 2.28419050574302673340e-01) (15 5.61905384063720703125e-01) (16 -1.44820794463157653809e-01) (17 3.29607993364334106445e-01) (18 2.08501279354095458984e-01) (19 3.69359016418457031250e+00) (20 -4.79311376810073852539e-01) (21 1.89143431186676025391e+00) (22 -9.63485360145568847656e-01) (23 -1.30281627178192138672e+00) (24 8.09088289737701416016e-01) (25 -4.44290667772293090820e-01) (26 -5.15809655189514160156e-01) (27 -6.22251272201538085938e-01) (28 -2.06277802586555480957e-01) (29 1.52589410543441772461e-01) (30 -1.42566949129104614258e-01) (0 -2.53427743911743164062e-01) (1 -1.22927680611610412598e-01) (2 2.05575332045555114746e-01) (3 2.06470564007759094238e-01) (4 8.11943560838699340820e-02) (5 2.03126102685928344727e-01) (6 -1.10722303390502929688e+00) (7 1.93027150630950927734e+00) (8 5.43459281325340270996e-02) (9 7.39796638488769531250e-01) (10 1.30346596240997314453e+00) (11 -1.25670599937438964844e+00) (12 -2.88513332605361938477e-01) (13 1.26090908050537109375e+00) (14 2.98668622970581054688e+00) (15 -1.18573114275932312012e-01) (16 1.05562336742877960205e-01) (17 -3.48909401893615722656e+00) (18 -1.01952426135540008545e-01) (19 -9.26466405391693115234e-01) (20 4.70945787429809570312e+00) (21 5.94054126739501953125e+00) (22 -6.17792177200317382812e+00) (23 6.26653015613555908203e-01) (24 -9.93530377745628356934e-02) (25 1.05434298515319824219e-01) (26 1.61652237176895141602e-01) (27 4.89125400781631469727e-01) (28 5.49037218093872070312e-01) (29 -6.78283989429473876953e-01) (30 -5.70817172527313232422e-01) (0 2.86313176155090332031e+00) (1 -3.97954136133193969727e-03) (2 -2.78265386819839477539e-01) (3 -2.80550748109817504883e-01) (4 -1.73187240958213806152e-01) (5 -1.13261377811431884766e+00) (6 -5.25894999504089355469e-01) (7 3.43769979476928710938e+00) (8 -4.34558093547821044922e-01) (9 1.11590707302093505859e+00) (10 6.58288359642028808594e-01) (11 2.04454994201660156250e+00) (12 -1.46670550107955932617e-01) (13 5.84782063961029052734e-01) (14 4.16279345750808715820e-01) (15 -9.91206020116806030273e-02) (16 -2.99735873937606811523e-01) (17 -5.42891740798950195312e-01) (18 -2.48182982206344604492e-01) (19 -1.36170983314514160156e-01) (20 2.34598803520202636719e+00) (21 4.87376689910888671875e+00) (22 -1.33075833320617675781e+00) (23 -2.55960798263549804688e+00) (24 2.24100065231323242188e+00) (25 -6.01604521274566650391e-01) (26 4.21451777219772338867e-01) (27 5.60085833072662353516e-01) (28 -1.19753921031951904297e+00) (29 -1.91367077827453613281e+00) (30 -5.82868635654449462891e-01) (0 -1.19586683809757232666e-01) (1 -4.43566739559173583984e-02) (2 -1.35558590292930603027e-01) (3 -1.94955706596374511719e-01) (4 -2.34631411731243133545e-02) (5 5.07866740226745605469e-01) (6 1.59736263751983642578e+00) (7 -1.75894081592559814453e+00) (8 7.89899379014968872070e-02) (9 -4.66595172882080078125e-01) (10 -1.85579574108123779297e+00) (11 1.13588392734527587891e+00) (12 7.32059106230735778809e-02) (13 -8.49665030837059020996e-02) (14 -4.35067087411880493164e-01) (15 -3.00302356481552124023e-02) (16 1.64822906255722045898e-01) (17 6.23807609081268310547e-01) (18 -1.16265930235385894775e-01) (19 1.82817685604095458984e+00) (20 -5.50400829315185546875e+00) (21 -4.84201145172119140625e+00) (22 3.90112757682800292969e+00) (23 2.21967011690139770508e-01) (24 -4.31982666254043579102e-01) (25 -2.01061787083745002747e-03) (26 -1.21025510132312774658e-01) (27 -1.01691581308841705322e-01) (28 -3.03479194641113281250e-01) (29 -2.37360417842864990234e-01) (30 1.75598189234733581543e-01) (0 2.61162314563989639282e-02) (1 -2.26905658841133117676e-01) (2 -1.80578440427780151367e-01) (3 -2.99810022115707397461e-01) (4 3.33509474992752075195e-01) (5 1.54959475994110107422e+00) (6 5.19272744655609130859e-01) (7 -1.11519551277160644531e+00) (8 -3.49081039428710937500e+00) (9 -2.57882928848266601562e+00) (10 -4.69776034355163574219e-01) (11 1.16713011264801025391e+00) (12 -2.42109447717666625977e-01) (13 -3.57398529052734375000e+02) (14 -5.95476210117340087891e-01) (15 -4.74011003971099853516e-01) (16 9.78528857231140136719e-01) (17 4.79271888732910156250e-01) (18 -1.12273931503295898438e+00) (19 1.22265076637268066406e+00) (20 1.61022329330444335938e+00) (21 -1.36192309856414794922e+00) (22 1.96660947799682617188e+00) (23 1.47970521450042724609e+00) (24 -3.39416003227233886719e+00) (25 -2.01969802379608154297e-01) (26 7.30988755822181701660e-02) (27 2.25652322173118591309e-01) (28 1.85350596904754638672e-01) (29 -1.73719629645347595215e-01) (30 1.02783966064453125000e+00) (0 -5.06985783576965332031e-01) (1 1.42839953303337097168e-01) (2 -4.22553807497024536133e-01) (3 -4.06462937593460083008e-01) (4 1.39479869976639747620e-02) (5 2.49877303838729858398e-01) (6 1.45799040794372558594e+00) (7 -2.61165952682495117188e+00) (8 1.45356133580207824707e-01) (9 -1.53137624263763427734e-01) (10 -1.71842777729034423828e+00) (11 1.01652097702026367188e+00) (12 -4.64078895747661590576e-02) (13 6.34137839078903198242e-02) (14 -6.24700486660003662109e-01) (15 -7.92560447007417678833e-03) (16 4.70483332872390747070e-01) (17 1.98306107521057128906e+00) (18 -4.80883032083511352539e-01) (19 8.40800166130065917969e-01) (20 -9.72992229461669921875e+00) (21 -3.69695854187011718750e+00) (22 7.58062076568603515625e+00) (23 -1.00493557751178741455e-01) (24 -5.97507417201995849609e-01) (25 -1.06914296746253967285e-01) (26 -1.38188973069190979004e-01) (27 -2.02495694160461425781e-01) (28 -3.14951688051223754883e-01) (29 -7.99234136939048767090e-02) (30 2.88714528083801269531e-01) (0 7.37887620925903320312e-02) (1 2.84937620162963867188e-01) (2 3.85995894670486450195e-01) (3 3.94410818815231323242e-01) (4 -5.24994209408760070801e-02) (5 -2.52362656593322753906e+00) (6 4.11641657352447509766e-01) (7 7.28462219238281250000e-01) (8 8.29966664314270019531e-01) (9 2.54695844650268554688e+00) (10 1.26162815093994140625e+00) (11 -3.78355048596858978271e-02) (12 -1.37892320752143859863e-01) (13 5.60250222682952880859e-01) (14 -1.68333604931831359863e-01) (15 -1.01073913276195526123e-01) (16 -2.49655082821846008301e-01) (17 -1.54509532451629638672e+00) (18 1.44821181893348693848e-01) (19 1.22425365447998046875e+00) (20 -3.39451849460601806641e-01) (21 -1.18423044681549072266e+00) (22 1.26666021347045898438e+00) (23 -8.31902980804443359375e-01) (24 1.66837021708488464355e-01) (25 1.21892444789409637451e-01) (26 4.82623606920242309570e-01) (27 3.76906067132949829102e-01) (28 -7.35626935958862304688e-01) (29 -5.94084978103637695312e-01) (30 4.71928343176841735840e-02) (0 1.88003554940223693848e-01) (1 -3.89315772056579589844e+00) (2 -8.98205697536468505859e-01) (3 -9.14419233798980712891e-01) (4 -2.30422213673591613770e-01) (5 7.24381864070892333984e-01) (6 -2.94129490852355957031e-01) (7 1.04889273643493652344e+00) (8 -3.87294578552246093750e+00) (9 -2.60100817680358886719e+00) (10 1.00125436782836914062e+01) (11 1.34765255451202392578e+00) (12 -3.88786345720291137695e-01) (13 -1.01232647895812988281e+00) (14 5.85113652050495147705e-02) (15 -7.52367019653320312500e-01) (16 -1.72097873687744140625e+00) (17 -3.17161381244659423828e-01) (18 -3.46565455198287963867e-01) (19 5.68046951293945312500e+00) (20 2.26446914672851562500e+00) (21 -4.60425764322280883789e-01) (22 -1.89106225967407226562e+00) (23 5.73271811008453369141e-01) (24 -1.91350483894348144531e+00) (25 7.89055675268173217773e-02) (26 -1.81365877389907836914e-01) (27 2.69569337368011474609e-01) (28 3.02069753408432006836e-01) (29 -2.29073429107666015625e+00) (30 6.23941361904144287109e-01) (0 -1.93482235074043273926e-01) (1 -1.46517887711524963379e-01) (2 -6.11026525497436523438e-01) (3 -6.08389616012573242188e-01) (4 1.76051840186119079590e-01) (5 2.47169628739356994629e-01) (6 2.29649059474468231201e-03) (7 -1.27732324600219726562e+00) (8 1.75118952989578247070e-01) (9 3.11151862144470214844e-01) (10 2.73263186216354370117e-01) (11 -4.12414073944091796875e+00) (12 -4.43795919418334960938e-01) (13 -7.32938423752784729004e-02) (14 -1.31141677498817443848e-01) (15 -7.74677097797393798828e-01) (16 -3.00908184051513671875e+00) (17 -3.49627089500427246094e+00) (18 -3.34682434797286987305e-01) (19 5.71271479129791259766e-01) (20 7.21907079219818115234e-01) (21 3.39077800512313842773e-01) (22 1.21475899219512939453e+00) (23 6.61144399642944335938e+00) (24 -2.96389795839786529541e-02) (25 -6.55947327613830566406e-01) (26 8.68690758943557739258e-02) (27 1.93962335586547851562e-01) (28 1.84695228934288024902e-01) (29 4.59982484579086303711e-01) (30 2.43276849389076232910e-01) (0 6.71934306621551513672e-01) (1 9.03085023164749145508e-02) (2 -7.09429010748863220215e-02) (3 7.01442137360572814941e-02) (4 -2.22292065620422363281e+00) (5 4.35208702087402343750e+00) (6 1.64620935916900634766e-01) (7 3.33838539123535156250e+01) (8 1.35818257927894592285e-01) (9 -1.41058459877967834473e-01) (10 -1.11506855487823486328e+00) (11 -2.36945557594299316406e+00) (12 2.62961298227310180664e-01) (13 6.34339749813079833984e-01) (14 4.68432039022445678711e-01) (15 1.03349137306213378906e+00) (16 1.46122026443481445312e+00) (17 4.99713808298110961914e-01) (18 -3.96432965993881225586e-01) (19 6.92637324333190917969e-01) (20 5.41570305824279785156e-01) (21 -5.76252460479736328125e-01) (22 1.11629739403724670410e-01) (23 7.07867202758789062500e+01) (24 -2.11732363700866699219e+00) (25 -8.74043069779872894287e-03) (26 6.41609504818916320801e-02) (27 8.32843422889709472656e-01) (28 7.80790209770202636719e-01) (29 -4.88409906625747680664e-01) (30 -9.58090424537658691406e-01) (0 -8.40659439563751220703e-01) (1 3.61958593130111694336e-01) (2 7.28369876742362976074e-02) (3 1.35942623019218444824e-01) (4 4.17363435029983520508e-01) (5 -9.32711184024810791016e-01) (6 5.21113693714141845703e-01) (7 -3.80616998672485351562e+00) (8 1.82947888970375061035e-01) (9 4.33592528104782104492e-01) (10 -1.11516297329217195511e-03) (11 9.18598473072052001953e-02) (12 1.71296283602714538574e-01) (13 -2.06034496426582336426e-01) (14 -4.21878516674041748047e-01) (15 -4.18280631303787231445e-01) (16 1.01313948631286621094e-01) (17 6.68790400028228759766e-01) (18 4.27678823471069335938e-01) (19 -7.45356321334838867188e-01) (20 -1.03178596496582031250e+00) (21 -2.65370106697082519531e+00) (22 1.05180823802947998047e+00) (23 1.00631856918334960938e+00) (24 5.24614332243800163269e-03) (25 4.18365061283111572266e-01) (26 -6.54287040233612060547e-01) (27 -1.44395792484283447266e+00) (28 1.35486036539077758789e-01) (29 2.28998398780822753906e+00) (30 -1.18840545415878295898e-01) (0 1.42826855182647705078e-01) (1 6.38544321060180664062e-01) (2 1.36479690670967102051e-01) (3 2.56582051515579223633e-01) (4 9.31735813617706298828e-01) (5 -2.59037089347839355469e+00) (6 1.53274372220039367676e-01) (7 -5.25587312877178192139e-02) (8 7.71874412894248962402e-02) (9 6.59957006573677062988e-02) (10 5.77383339405059814453e-01) (11 2.57433652877807617188e-02) (12 -3.94746840000152587891e-01) (13 -1.35413587093353271484e-01) (14 -6.24616593122482299805e-02) (15 -5.14851748943328857422e-01) (16 -1.13226258754730224609e+00) (17 -1.42566418647766113281e+00) (18 -1.26462906599044799805e-01) (19 3.61407309770584106445e-01) (20 -8.24262142181396484375e-01) (21 4.23281230032444000244e-02) (22 4.12053048610687255859e-01) (23 2.26547509431838989258e-01) (24 4.77548182010650634766e-01) (25 -1.30360931158065795898e-01) (26 9.82466280460357666016e-01) (27 7.72534832358360290527e-02) (28 -4.16572362184524536133e-01) (29 -9.02177631855010986328e-01) (30 6.41924798488616943359e-01) (0 -5.18419623374938964844e-01) (1 -2.23509952425956726074e-01) (2 -9.53233614563941955566e-02) (3 -1.44777789711952209473e-01) (4 3.24415154755115509033e-02) (5 2.35053256154060363770e-01) (6 -7.03855037689208984375e-01) (7 2.85885906219482421875e+01) (8 -8.62041488289833068848e-02) (9 5.01370429992675781250e-01) (10 -4.37837076187133789062e+00) (11 7.99827194213867187500e+00) (12 -6.21204257011413574219e-01) (13 2.95729845762252807617e-01) (14 3.29902946949005126953e-01) (15 2.06442609429359436035e-01) (16 1.14133729934692382812e+01) (17 1.04378318786621093750e+00) (18 -3.17824697494506835938e+00) (19 -1.09556221961975097656e+00) (20 -5.31642138957977294922e-02) (21 -1.99865493923425674438e-02) (22 2.28680114746093750000e+01) (23 1.57018855214118957520e-01) (24 2.57820069789886474609e-01) (25 5.08166909217834472656e-01) (26 -2.24348545074462890625e+00) (27 -5.92073798179626464844e-01) (28 2.02259850502014160156e+00) (29 1.86676359176635742188e+00) (30 7.15095162391662597656e-01) (0 2.94263243675231933594e-01) (1 -1.93699374794960021973e-01) (2 -2.75970190763473510742e-01) (3 -3.32638770341873168945e-01) (4 -1.25878989696502685547e-01) (5 1.69467449188232421875e+00) (6 1.10174670815467834473e-01) (7 -2.05170607566833496094e+00) (8 -2.05137014389038085938e+00) (9 6.97374045848846435547e-01) (10 -2.65242266654968261719e+00) (11 5.68115711212158203125e-01) (12 2.53532260656356811523e-01) (13 -9.83543768525123596191e-02) (14 1.78222358226776123047e-01) (15 -3.33950780332088470459e-02) (16 -5.15211641788482666016e-01) (17 6.72644376754760742188e-01) (18 7.82885372638702392578e-01) (19 4.75567728281021118164e-01) (20 -7.53201365470886230469e-01) (21 6.02572917938232421875e-01) (22 -5.64317226409912109375e-01) (23 -4.13735538721084594727e-01) (24 7.00145781040191650391e-01) (25 8.56320798397064208984e-01) (26 -3.63865345716476440430e-01) (27 -5.95481872558593750000e-01) (28 -2.04803466796875000000e+00) (29 7.67938494682312011719e-01) (30 1.34626820683479309082e-01) (0 -3.82282644510269165039e-01) (1 -4.65747624635696411133e-01) (2 -5.61723589897155761719e-01) (3 -4.22570496797561645508e-01) (4 1.28490775823593139648e-01) (5 4.37120825052261352539e-01) (6 -4.09455448389053344727e-01) (7 6.13177008926868438721e-02) (8 -2.10520553588867187500e+00) (9 1.34625837206840515137e-01) (10 8.71474444866180419922e-02) (11 1.25826990604400634766e+00) (12 -3.21630418300628662109e-01) (13 -2.61833882331848144531e+00) (14 -4.00446116924285888672e-01) (15 -8.91063630580902099609e-01) (16 -1.49722137451171875000e+02) (17 7.41838991641998291016e-01) (18 -1.18300445377826690674e-01) (19 -5.65788030624389648438e-01) (20 -2.75257259607315063477e-01) (21 5.62592172622680664062e+00) (22 -1.11294198036193847656e+00) (23 3.26882004737854003906e+00) (24 5.80084979534149169922e-01) (25 4.87874060869216918945e-01) (26 -8.91437709331512451172e-01) (27 -1.09363174438476562500e+00) (28 4.37055736780166625977e-01) (29 5.88806688785552978516e-01) (30 3.24650853872299194336e-01) (0 1.50652933120727539062e+00) (1 -5.56276459246873855591e-03) (2 5.66702671349048614502e-02) (3 -5.98585698753595352173e-03) (4 -6.54134452342987060547e-01) (5 -3.94619971513748168945e-01) (6 -3.67061734199523925781e-01) (7 2.14571997523307800293e-01) (8 -5.06652593612670898438e-01) (9 3.80924433469772338867e-01) (10 6.22300744056701660156e-01) (11 -2.68873333930969238281e-01) (12 -1.95754364132881164551e-01) (13 -2.02208846807479858398e-01) (14 6.44405841827392578125e-01) (15 -6.31333410739898681641e-01) (16 -2.35010877251625061035e-01) (17 -1.04277181625366210938e+00) (18 -3.00407946109771728516e-01) (19 1.24013936519622802734e+00) (20 2.90902948379516601562e+00) (21 2.17576110839843750000e+02) (22 -4.89490367472171783447e-02) (23 -4.22184228897094726562e-01) (24 1.63518831133842468262e-01) (25 -6.26024678349494934082e-02) (26 6.37935996055603027344e-01) (27 1.60945260524749755859e+00) (28 5.54400775581598281860e-03) (29 -1.88756310939788818359e+00) (30 -4.98374760150909423828e-01) (0 -4.08845603466033935547e-01) (1 -4.13877904415130615234e-01) (2 -1.53602331876754760742e-01) (3 -2.90205031633377075195e-01) (4 2.84710288047790527344e-01) (5 -7.83710181713104248047e-01) (6 -4.35067951679229736328e-01) (7 1.22482907772064208984e+00) (8 -1.19673192501068115234e+00) (9 -7.22247781231999397278e-03) (10 2.61733484268188476562e+00) (11 -5.86422622203826904297e-01) (12 -5.16696013510227203369e-02) (13 -1.56747698783874511719e-01) (14 -3.09565126895904541016e-01) (15 -7.91578769683837890625e-01) (16 -4.22891676425933837891e-01) (17 -1.51011300086975097656e+00) (18 1.31061851978302001953e+00) (19 -1.79042565822601318359e+00) (20 8.47866177558898925781e-01) (21 3.92191410064697265625e-01) (22 -4.37002182006835937500e+00) (23 -1.48249834775924682617e-01) (24 -1.17013595998287200928e-01) (25 1.29080235958099365234e+00) (26 2.05360725522041320801e-01) (27 1.19104966521263122559e-01) (28 2.14579701423645019531e+00) (29 2.28119707107543945312e+00) (30 1.61613225936889648438e-01) (0 7.25220590829849243164e-02) (1 5.36653161048889160156e-01) (2 4.86349552869796752930e-01) (3 5.47150731086730957031e-01) (4 -1.86823144555091857910e-01) (5 -4.35978561639785766602e-01) (6 7.55154013633728027344e-01) (7 1.26729846000671386719e+00) (8 6.95387363433837890625e-01) (9 -3.34542304277420043945e-01) (10 -5.87592422962188720703e-01) (11 -1.83425247669219970703e+00) (12 6.79895460605621337891e-01) (13 3.08778315782546997070e-01) (14 -1.15025989711284637451e-01) (15 1.30798089504241943359e+00) (16 2.54765518188476562500e+02) (17 -2.57661461830139160156e-01) (18 6.77841663360595703125e-01) (19 8.84993374347686767578e-01) (20 -1.49610888957977294922e+00) (21 -9.44199383258819580078e-01) (22 1.36909878253936767578e+00) (23 -7.20819616317749023438e+00) (24 -7.04760313034057617188e-01) (25 -3.56116592884063720703e-01) (26 5.70748031139373779297e-01) (27 8.39382112026214599609e-01) (28 -6.23621463775634765625e-01) (29 -4.99555557966232299805e-01) (30 -4.36535656452178955078e-01) (0 -2.65298068523406982422e-01) (1 4.48585063219070434570e-01) (2 2.09173321723937988281e-01) (3 1.68064385652542114258e-01) (4 4.66166257858276367188e-01) (5 -2.10543441772460937500e+00) (6 3.41488748788833618164e-01) (7 3.61330807209014892578e-01) (8 3.18279194831848144531e+00) (9 9.50211238861083984375e+00) (10 -2.67776221036911010742e-01) (11 -7.41852462291717529297e-01) (12 8.30516219139099121094e-01) (13 -1.49348109960556030273e-01) (14 -5.45128822326660156250e-01) (15 -2.49929621815681457520e-01) (16 -7.08609521389007568359e-01) (17 2.68188452720642089844e+00) (18 1.04116868972778320312e+00) (19 -1.80724358558654785156e+00) (20 -7.05494594573974609375e+00) (21 4.31652516126632690430e-01) (22 -2.02269271016120910645e-01) (23 1.22916966676712036133e-01) (24 4.01537477970123291016e-01) (25 8.08558315038681030273e-02) (26 -1.17407135665416717529e-01) (27 -1.24372470378875732422e+00) (28 -1.37533712387084960938e+00) (29 1.84364366531372070312e+00) (30 -9.49225202202796936035e-02) (0 -4.12850826978683471680e-01) (1 -2.06241473555564880371e-01) (2 -1.37900784611701965332e-01) (3 -9.73245967179536819458e-03) (4 2.19777584075927734375e-01) (5 -2.76104497909545898438e+00) (6 -7.18406319618225097656e-01) (7 1.08940672874450683594e+00) (8 -7.98253178596496582031e-01) (9 5.54681181907653808594e-01) (10 1.86888754367828369141e+00) (11 -3.35547253489494323730e-02) (12 -2.09790363907814025879e-01) (13 -3.07081609964370727539e-01) (14 -5.47687053680419921875e-01) (15 -6.15826249122619628906e-01) (16 -7.83888995647430419922e-01) (17 -1.62529513239860534668e-01) (18 5.00009775161743164062e-01) (19 -3.63079398870468139648e-01) (20 -9.94712948799133300781e-01) (21 3.03180527687072753906e+00) (22 -5.75724172592163085938e+00) (23 -3.33217412233352661133e-01) (24 3.91373753547668457031e+00) (25 3.48803371191024780273e-01) (26 1.42447233200073242188e-01) (27 -9.52237248420715332031e-01) (28 2.16295570135116577148e-01) (29 9.86575543880462646484e-01) (30 5.78851103782653808594e-01) (0 1.11318230628967285156e+00) (1 -3.31693261861801147461e-01) (2 -4.69309002161026000977e-01) (3 -5.52693307399749755859e-01) (4 -8.51360499858856201172e-01) (5 9.35099244117736816406e-01) (6 -2.95934617519378662109e-01) (7 1.11754345893859863281e+00) (8 1.79673135280609130859e-01) (9 -8.88997435569763183594e-01) (10 2.32680335640907287598e-01) (11 1.26172173023223876953e+00) (12 -7.86043345928192138672e-01) (13 -1.99027135968208312988e-01) (14 8.75343859195709228516e-01) (15 6.28619551658630371094e-01) (16 -1.10846030712127685547e+00) (17 -1.19990098476409912109e+00) (18 -3.88047456741333007812e-01) (19 1.14502582550048828125e+01) (20 1.32669532299041748047e+00) (21 8.04580688476562500000e-01) (22 -2.77709603309631347656e+00) (23 -8.27131420373916625977e-02) (24 -1.08281517028808593750e+00) (25 -3.81264925003051757812e-01) (26 3.29049706459045410156e-01) (27 1.45331358909606933594e+00) (28 9.22199904918670654297e-01) (29 -1.16617798805236816406e+00) (30 2.53606028854846954346e-03) (0 -6.36753261089324951172e-01) (1 1.02173566818237304688e+00) (2 4.61312562227249145508e-01) (3 6.00677192211151123047e-01) (4 1.07183027267456054688e+00) (5 -2.06416654586791992188e+00) (6 -1.90795511007308959961e-01) (7 -1.02533042430877685547e+00) (8 3.32389265298843383789e-01) (9 1.97854888439178466797e+00) (10 4.29600381851196289062e+00) (11 -2.11888942867517471313e-02) (12 -3.47892075777053833008e-01) (13 -2.30186045169830322266e-01) (14 -5.05389273166656494141e-01) (15 -6.63171827793121337891e-01) (16 -6.47877097129821777344e-01) (17 -7.57228791713714599609e-01) (18 3.83446402847766876221e-02) (19 -1.34967815876007080078e+00) (20 1.55556952953338623047e+00) (21 1.40052199363708496094e+00) (22 1.26842164993286132812e+00) (23 1.43517658114433288574e-01) (24 7.03394889831542968750e-01) (25 3.35968762636184692383e-01) (26 2.66603291034698486328e-01) (27 7.13217556476593017578e-02) (28 9.70581397414207458496e-02) (29 2.08257749676704406738e-01) (30 3.47850948572158813477e-01) (0 1.18638181686401367188e+00) (1 2.88719654083251953125e-01) (2 4.15267258882522583008e-01) (3 3.79518032073974609375e-01) (4 -1.24810874462127685547e-01) (5 1.17150712758302688599e-02) (6 -1.41511201858520507812e-01) (7 -1.73443481326103210449e-01) (8 1.17674417793750762939e-01) (9 2.38361313939094543457e-01) (10 -4.11476910114288330078e-01) (11 1.16024045944213867188e+01) (12 4.17215168476104736328e-01) (13 -1.67032539844512939453e+00) (14 8.07853788137435913086e-02) (15 1.44063138961791992188e+00) (16 -1.33102428913116455078e+00) (17 1.16984033584594726562e+01) (18 8.36011469364166259766e-01) (19 1.05849897861480712891e+00) (20 -3.19206881523132324219e+00) (21 -2.20838710665702819824e-01) (22 -7.60426104068756103516e-01) (23 -4.49232292175292968750e+00) (24 1.43424010276794433594e+00) (25 -2.25440666079521179199e-01) (26 6.71123027801513671875e-01) (27 3.69054198265075683594e-01) (28 -4.39820623397827148438e+00) (29 -1.95405051112174987793e-01) (30 -8.26148629188537597656e-01) (0 4.13638383150100708008e-01) (1 2.37233042716979980469e-01) (2 2.99839228391647338867e-02) (3 1.52825713157653808594e-01) (4 -9.02815997600555419922e-01) (5 1.16041406989097595215e-01) (6 -5.16028463840484619141e-01) (7 2.25178813934326171875e+00) (8 -5.84047064185142517090e-02) (9 -7.86876857280731201172e-01) (10 4.24266457557678222656e-01) (11 -7.72657632827758789062e-01) (12 -2.27431625127792358398e-01) (13 1.44009292125701904297e+00) (14 7.51205563545227050781e-01) (15 2.22889721393585205078e-01) (16 5.36198973655700683594e-01) (17 -1.66162312030792236328e-01) (18 -4.28149014711380004883e-01) (19 1.31187272071838378906e+00) (20 6.95567905902862548828e-01) (21 8.67305696010589599609e-02) (22 4.00546669960021972656e-01) (23 -8.87940302491188049316e-02) (24 -3.26969176530838012695e-01) (25 -4.03246343135833740234e-01) (26 5.40486097335815429688e-01) (27 1.37034201622009277344e+00) (28 -3.25719833374023437500e-01) (29 -1.36609125137329101562e+00) (30 -2.52745896577835083008e-01) (0 5.73011493682861328125e+00) (1 1.29317009449005126953e+00) (2 -1.10908359289169311523e-01) (3 -1.27379624173045158386e-02) (4 -7.27390229701995849609e-01) (5 6.25580623745918273926e-02) (6 2.73265987634658813477e-01) (7 -1.63878202438354492188e-01) (8 2.69666910171508789062e-01) (9 1.02743349969387054443e-01) (10 -2.62191367149353027344e+00) (11 6.50208890438079833984e-01) (12 3.21687847375869750977e-01) (13 -2.07778787612915039062e+00) (14 -1.53558567166328430176e-01) (15 1.16510830819606781006e-01) (16 -3.23886990547180175781e+00) (17 6.99169337749481201172e-01) (18 6.25960052013397216797e-01) (19 3.91963338851928710938e+00) (20 -4.10230970382690429688e+00) (21 2.69803851842880249023e-01) (22 -1.05521368980407714844e+00) (23 -8.87992531061172485352e-02) (24 1.44381880760192871094e+00) (25 -3.33872467279434204102e-01) (26 1.60936459898948669434e-01) (27 -6.28889441490173339844e-01) (28 -4.86286973953247070312e+00) (29 -1.47076368331909179688e-01) (30 -4.17661428451538085938e-01) (31 2.61111497879028320312e-01) (32 -2.19711631536483764648e-01) (33 1.85900643467903137207e-01) (34 3.73363345861434936523e-01) (35 -2.88652837276458740234e-01) (36 5.09091317653656005859e-01) (37 5.81740713119506835938e+00) (38 -2.05529369413852691650e-02) (39 8.25518742203712463379e-02) (40 4.09003615379333496094e-01) (41 2.10913177579641342163e-02) (42 -1.23657095432281494141e+00) (43 -7.46860027313232421875e-01) (44 8.81009474396705627441e-02) (45 -1.47251570224761962891e+00) (46 2.73041415214538574219e+00) (47 5.17953753471374511719e-01) (48 5.33775627613067626953e-01) (49 9.10136044025421142578e-01) (50 -7.88787826895713806152e-02) (51 1.58646315336227416992e-01) (52 1.79372921586036682129e-01) (53 -3.38027745485305786133e-01) (54 -1.51751327514648437500e+00) (55 -2.75801360607147216797e-01) (56 -4.71467413008213043213e-02) (57 6.08193576335906982422e-01) (58 -1.64207041263580322266e-01) (59 -1.00310994312167167664e-02) (60 -3.96159738302230834961e-01) (61 6.83596730232238769531e-01) (62 -5.86138546466827392578e-01) (63 -5.62013387680053710938e-01) (64 -1.96122393012046813965e-01) (65 -2.70633041858673095703e-01) (66 2.75936841964721679688e-01) (67 -5.50253391265869140625e-01) (68 -8.23755443096160888672e-01) (69 8.89146327972412109375e-02) (70 2.13808327913284301758e-01) (71 3.23519259691238403320e-01) (72 -1.91459685564041137695e-01) (73 5.30717134475708007812e-01) (74 -3.93488669395446777344e+00) (75 -2.32996165752410888672e-01) (76 4.69671070575714111328e-01) (77 1.69101297855377197266e+00) (78 -1.82286047935485839844e+00) (79 2.34967306256294250488e-01) (80 1.14473044872283935547e-01) (81 1.82998273521661758423e-03) (82 4.86309267580509185791e-02) (83 -1.52423277497291564941e-01) (84 -2.14317989349365234375e+00) (85 -2.04546544700860977173e-02) (86 5.37775531411170959473e-02) (87 1.67575672268867492676e-01) (88 -2.56078511476516723633e-01) (89 -1.05876013636589050293e-01) (90 5.09820938110351562500e-01) (91 -1.25977462157607078552e-02) (92 -1.97942659258842468262e-01) (93 5.98219394683837890625e+00) (94 6.53122663497924804688e-01) (95 2.24378615617752075195e-01) (96 -3.72742474079132080078e-01) (97 -2.43987655267119407654e-03) (98 -2.87352912127971649170e-02) (99 -2.09899440407752990723e-01) (100 -1.09415829181671142578e-01) (101 2.59131938219070434570e-01) (102 -1.62115603685379028320e-01) (103 -1.41792036592960357666e-02) (104 -3.86937355995178222656e+00) (105 -1.07275259494781494141e+00) (106 3.30033588409423828125e+00) (107 -9.03747156262397766113e-02) (108 -4.76955115795135498047e-01) (109 1.02619469165802001953e+00) (110 -3.75829637050628662109e-01) (111 2.10377313196659088135e-02) (31 -1.15557706356048583984e+00) (32 -6.33406117558479309082e-02) (33 6.20508849620819091797e-01) (34 -5.86642213165760040283e-02) (35 -3.08957409858703613281e+00) (36 2.25267976522445678711e-01) (37 3.71789544820785522461e-01) (38 1.79554492235183715820e-01) (39 -4.86197352409362792969e-01) (40 9.75665822625160217285e-02) (41 -2.40302085876464843750e+00) (42 -1.95081233978271484375e-01) (43 -3.40432114899158477783e-02) (44 1.50401607155799865723e-01) (45 1.25270855426788330078e+00) (46 2.43042036890983581543e-01) (47 5.43394982814788818359e-01) (48 1.82281751185655593872e-02) (49 1.96500808000564575195e-01) (50 1.62244871258735656738e-01) (51 -1.54224470257759094238e-01) (52 -1.22632014751434326172e+00) (53 -3.16307842731475830078e-02) (54 2.34015882015228271484e-01) (55 -1.16791479289531707764e-01) (56 -1.32144856452941894531e+00) (57 -3.35242003202438354492e-01) (58 4.68377202749252319336e-01) (59 -3.18720549345016479492e-01) (60 -6.68738365173339843750e-01) (61 -1.98858368396759033203e+00) (62 -8.54553207755088806152e-02) (63 1.83698505163192749023e-01) (64 4.00545239448547363281e-01) (65 2.64430332183837890625e+00) (66 3.01196962594985961914e-01) (67 -1.49057492613792419434e-01) (68 1.25341606140136718750e+00) (69 -4.80653375387191772461e-01) (70 -9.35198426246643066406e-01) (71 -1.18678003549575805664e-01) (72 -2.85337060689926147461e-01) (73 1.14414252340793609619e-01) (74 7.63085246086120605469e-01) (75 -6.35820209980010986328e-01) (76 -7.80991613864898681641e-02) (77 2.09464743733406066895e-01) (78 1.41316676139831542969e+00) (79 1.12668418884277343750e+00) (80 -8.35748791694641113281e-01) (81 -9.25630688667297363281e-01) (82 -3.52253139019012451172e-01) (83 6.26677393913269042969e-01) (84 1.04440540075302124023e-01) (85 1.66651368141174316406e-01) (86 2.48028755187988281250e-01) (87 1.13280571997165679932e-01) (88 4.30116087198257446289e-01) (89 -1.44324719905853271484e-01) (90 4.48064990341663360596e-02) (91 -2.01942130923271179199e-01) (92 -1.30531504750251770020e-01) (93 4.60207879543304443359e-01) (94 1.24911808967590332031e+00) (95 -8.62980365753173828125e-01) (96 -5.45880235731601715088e-02) (97 1.20674741268157958984e+00) (98 -5.12607991695404052734e-02) (99 3.60016733407974243164e-01) (100 3.29945254325866699219e+00) (101 1.44963070750236511230e-01) (102 2.80727893114089965820e-01) (103 -8.94052505493164062500e-01) (104 9.38224047422409057617e-02) (105 3.46150994300842285156e+00) (106 -7.69865214824676513672e-02) (107 1.73299953341484069824e-01) (108 -3.69647502899169921875e-01) (109 -2.71570116281509399414e-01) (110 1.30331486463546752930e-01) (111 7.98901170492172241211e-02) (31 -2.68541532568633556366e-03) (32 -1.50469094514846801758e-01) (33 -1.10658288002014160156e+00) (34 1.55981969833374023438e+00) (35 -9.82697959989309310913e-03) (36 -1.48529171943664550781e+00) (37 -8.48621949553489685059e-02) (38 -1.34768998622894287109e+00) (39 -6.38298809528350830078e-01) (40 -1.09062886238098144531e+00) (41 1.33083641529083251953e-01) (42 5.57435415685176849365e-02) (43 2.13673591613769531250e-01) (44 -9.54565778374671936035e-02) (45 -8.10333117842674255371e-02) (46 -3.45887565612792968750e+00) (47 1.76240396499633789062e+00) (48 7.34641730785369873047e-01) (49 7.58889079093933105469e-01) (50 3.25564473867416381836e-01) (51 3.58841419219970703125e-01) (52 5.42468070983886718750e-01) (53 -1.25223577022552490234e-01) (54 8.07387381792068481445e-02) (55 2.35628351569175720215e-01) (56 9.22039002180099487305e-02) (57 1.73834919929504394531e+00) (58 4.90967720746994018555e-01) (59 -1.07541993260383605957e-01) (60 -6.45789802074432373047e-02) (61 -1.43693134188652038574e-01) (62 3.54959547519683837891e-01) (63 2.01254773139953613281e+00) (64 4.37212027609348297119e-02) (65 1.86860656738281250000e+00) (66 -1.58242809772491455078e+00) (67 1.75694122910499572754e-01) (68 -2.13383704423904418945e-01) (69 -7.50876730307936668396e-03) (70 3.88491868972778320312e-01) (71 -1.42479336261749267578e+00) (72 3.00034403800964355469e-01) (73 -3.55165362358093261719e+00) (74 -1.11180722713470458984e-01) (75 -3.68530392646789550781e+00) (76 5.98455131053924560547e-01) (77 -9.86260250210762023926e-02) (78 -1.14197540283203125000e+00) (79 -1.02971422672271728516e+00) (80 -2.48771309852600097656e-02) (81 3.63946616649627685547e-01) (82 -2.94373303651809692383e-01) (83 -1.69466376304626464844e-01) (84 3.22638452053070068359e-01) (85 5.81059679388999938965e-02) (86 3.95331889390945434570e-01) (87 -9.58261638879776000977e-02) (88 -9.76199880242347717285e-02) (89 6.01740598678588867188e-01) (90 4.15610820055007934570e-01) (91 6.79174900054931640625e-01) (92 -3.42609643936157226562e-01) (93 7.30591341853141784668e-02) (94 -1.91730582714080810547e+00) (95 6.22603774070739746094e-01) (96 6.80782869458198547363e-02) (97 -3.99253249168395996094e+00) (98 2.57783293724060058594e-01) (99 4.82335865497589111328e-01) (100 -1.18670478463172912598e-01) (101 -1.87240857630968093872e-02) (102 -2.41128206253051757812e-01) (103 8.40131193399429321289e-02) (104 -6.56267628073692321777e-02) (105 -2.68229126930236816406e-01) (106 1.05260826647281646729e-01) (107 -1.01823210716247558594e+00) (108 2.87063032388687133789e-01) (109 -2.90969461202621459961e-01) (110 2.00213932991027832031e+00) (111 1.52731090784072875977e-02) (31 -1.35367438197135925293e-01) (32 -4.44826215505599975586e-01) (33 8.69347155094146728516e-01) (34 -4.88099634647369384766e-01) (35 -6.67573278769850730896e-03) (36 -2.97698322683572769165e-02) (37 -1.19983598589897155762e-01) (38 -8.54863166809082031250e-01) (39 -9.71622884273529052734e-01) (40 -1.04524648189544677734e+00) (41 8.47349524497985839844e-01) (42 6.62782341241836547852e-02) (43 -3.00612896680831909180e-01) (44 -8.59744012355804443359e-01) (45 9.73871886730194091797e-01) (46 9.39550716429948806763e-03) (47 5.29468692839145660400e-02) (48 5.48904836177825927734e-01) (49 7.13217109441757202148e-02) (50 2.14572111144661903381e-03) (51 -2.22975552082061767578e-01) (52 -6.46108761429786682129e-02) (53 4.27649229764938354492e-01) (54 1.11186885833740234375e+00) (55 -5.31692862510681152344e-01) (56 -4.62244629859924316406e-01) (57 -2.92550653219223022461e-01) (58 1.74359679222106933594e+00) (59 1.60945582389831542969e+00) (60 8.13562691211700439453e-01) (61 7.60187983512878417969e-01) (62 -1.19458563625812530518e-01) (63 -2.93606400489807128906e-01) (64 1.97841669432818889618e-03) (65 4.83966588973999023438e-01) (66 5.45234456658363342285e-02) (67 1.77297830581665039062e+00) (68 -7.01290648430585861206e-03) (69 1.55441090464591979980e-01) (70 -2.72455275058746337891e-01) (71 1.20646929740905761719e+00) (72 -5.61129093170166015625e-01) (73 -1.06337499618530273438e+00) (74 -3.16944420337677001953e-01) (75 -3.75273048877716064453e-01) (76 3.97345572710037231445e-01) (77 8.52849864959716796875e+00) (78 4.03946280479431152344e-01) (79 9.86516177654266357422e-01) (80 -9.49023425579071044922e-01) (81 -3.24590355157852172852e-01) (82 -7.08455741405487060547e-01) (83 -2.56672918796539306641e-01) (84 5.95124661922454833984e-01) (85 -8.72093915939331054688e-01) (86 -3.04899621009826660156e+00) (87 -1.91984081268310546875e+00) (88 -3.48647087812423706055e-01) (89 5.47752737998962402344e-01) (90 9.97519567608833312988e-02) (91 7.78910696506500244141e-01) (92 6.57442450523376464844e-01) (93 -1.84299397468566894531e+00) (94 8.57796478271484375000e+00) (95 -6.42796456813812255859e-01) (96 1.78319859504699707031e+00) (97 7.40823686122894287109e-01) (98 -3.28404158353805541992e-01) (99 -6.68039470911026000977e-02) (100 -5.97196936607360839844e-01) (101 -1.15972387790679931641e+00) (102 -6.21441423892974853516e-01) (103 1.58971831202507019043e-01) (104 7.22636282444000244141e-01) (105 1.36905208230018615723e-01) (106 -3.83841454982757568359e-01) (107 5.64519524574279785156e-01) (108 -2.05746650695800781250e-01) (109 -2.40270286798477172852e-01) (110 2.84346997737884521484e-01) (111 1.30177870392799377441e-01) (31 -6.00163964554667472839e-03) (32 -3.99246484041213989258e-01) (33 -3.12793993949890136719e+00) (34 -1.29787027835845947266e-01) (35 -3.18973690271377563477e-01) (36 8.39005783200263977051e-03) (37 -6.49874806404113769531e-01) (38 -5.78329205513000488281e-01) (39 -2.73365235328674316406e+00) (40 1.91927939653396606445e-01) (41 -9.01961624622344970703e-01) (42 -5.08611798286437988281e-01) (43 8.66596922278404235840e-02) (44 -5.81343889236450195312e-01) (45 2.09405407309532165527e-01) (46 -4.60073724389076232910e-02) (47 1.97410750389099121094e+00) (48 1.46066159009933471680e-01) (49 4.34445410966873168945e-01) (50 -1.24744808673858642578e+00) (51 4.48282480239868164062e-01) (52 -6.45391464233398437500e-01) (53 1.27811181545257568359e+00) (54 6.73066198825836181641e-01) (55 4.78617519140243530273e-01) (56 -2.70522207021713256836e-01) (57 6.47900938987731933594e-01) (58 -5.28762340545654296875e-01) (59 -3.77579689025878906250e+00) (60 2.22744032740592956543e-01) (61 -3.41503649950027465820e-01) (62 1.85013100504875183105e-01) (63 6.85467347502708435059e-02) (64 -4.91934925317764282227e-01) (65 1.56132566928863525391e+00) (66 3.87209117412567138672e-01) (67 -8.29149007797241210938e-01) (68 3.56344841420650482178e-02) (69 1.76336050033569335938e-01) (70 -1.87400598078966140747e-02) (71 1.25983804464340209961e-01) (72 1.89966395497322082520e-01) (73 1.04795634746551513672e+00) (74 -1.10213600099086761475e-01) (75 2.20990061759948730469e-01) (76 4.57237929105758666992e-01) (77 9.21655446290969848633e-02) (78 -7.11233466863632202148e-02) (79 9.55568194389343261719e-01) (80 8.54267328977584838867e-02) (81 9.62065346539020538330e-03) (82 -7.97537267208099365234e-02) (83 4.19925481081008911133e-01) (84 -2.65836954116821289062e-01) (85 8.05056542158126831055e-02) (86 1.09981633722782135010e-02) (87 1.63650840520858764648e-01) (88 1.13477015495300292969e+00) (89 6.41848221421241760254e-02) (90 -2.44430327415466308594e+00) (91 -8.54669958353042602539e-02) (92 5.44411659240722656250e-01) (93 -4.74771827459335327148e-01) (94 -8.02047729492187500000e-01) (95 1.92061766982078552246e-01) (96 -3.82112503051757812500e-01) (97 1.04580569267272949219e+00) (98 -5.78316330909729003906e-01) (99 1.69401187449693679810e-02) (100 -1.83675003051757812500e+00) (101 1.03545200824737548828e+00) (102 -6.18582963943481445312e-01) (103 1.45573019981384277344e+00) (104 2.61929064989089965820e-01) (105 8.75348672270774841309e-02) (106 3.55377160012722015381e-02) (107 5.02523593604564666748e-02) (108 5.57447433471679687500e-01) (109 3.00264090299606323242e-01) (110 8.25869023799896240234e-01) (111 1.24688597861677408218e-03) 
