FANN_FLO_2.1
num_layers=2
learning_rate=0.700000
connection_rate=1.000000
network_type=0
learning_momentum=0.000000
training_algorithm=2
train_error_function=1
train_stop_function=0
cascade_output_change_fraction=0.010000
quickprop_decay=-0.000100
quickprop_mu=1.750000
rprop_increase_factor=1.200000
rprop_decrease_factor=0.500000
rprop_delta_min=0.000000
rprop_delta_max=50.000000
rprop_delta_zero=0.100000
cascade_output_stagnation_epochs=12
cascade_candidate_change_fraction=0.010000
cascade_candidate_stagnation_epochs=12
cascade_max_out_epochs=150
cascade_max_cand_epochs=150
cascade_num_candidate_groups=2
bit_fail_limit=3.49999994039535522461e-01
cascade_candidate_limit=1.00000000000000000000e+03
cascade_weight_multiplier=4.00000005960464477539e-01
cascade_activation_functions_count=10
cascade_activation_functions=3 5 7 8 10 11 14 15 16 17 
cascade_activation_steepnesses_count=4
cascade_activation_steepnesses=2.50000000000000000000e-01 5.00000000000000000000e-01 7.50000000000000000000e-01 1.00000000000000000000e+00 
layer_sizes=31 6 
scale_included=0
neurons (num_inputs, activation_function, activation_steepness)=(0, 0, 0.00000000000000000000e+00) (0, 0, 0.00000000000000000000e+00) (0, 0, 0.00000000000000000000e+00) (0, 0, 0.00000000000000000000e+00) (0, 0, 0.00000000000000000000e+00) (0, 0, 0.00000000000000000000e+00) (0, 0, 0.00000000000000000000e+00) (0, 0, 0.00000000000000000000e+00) (0, 0, 0.00000000000000000000e+00) (0, 0, 0.00000000000000000000e+00) (0, 0, 0.00000000000000000000e+00) (0, 0, 0.00000000000000000000e+00) (0, 0, 0.00000000000000000000e+00) (0, 0, 0.00000000000000000000e+00) (0, 0, 0.00000000000000000000e+00) (0, 0, 0.00000000000000000000e+00) (0, 0, 0.00000000000000000000e+00) (0, 0, 0.00000000000000000000e+00) (0, 0, 0.00000000000000000000e+00) (0, 0, 0.00000000000000000000e+00) (0, 0, 0.00000000000000000000e+00) (0, 0, 0.00000000000000000000e+00) (0, 0, 0.00000000000000000000e+00) (0, 0, 0.00000000000000000000e+00) (0, 0, 0.00000000000000000000e+00) (0, 0, 0.00000000000000000000e+00) (0, 0, 0.00000000000000000000e+00) (0, 0, 0.00000000000000000000e+00) (0, 0, 0.00000000000000000000e+00) (0, 0, 0.00000000000000000000e+00) (0, 0, 0.00000000000000000000e+00) (31, 4, 5.00000000000000000000e-01) (31, 4, 5.00000000000000000000e-01) (31, 4, 5.00000000000000000000e-01) (31, 4, 5.00000000000000000000e-01) (31, 4, 5.00000000000000000000e-01) (0, 0, 0.00000000000000000000e+00) 
connections (connected_to_neuron, weight)=(0, -4.95572760701179504395e-02) (1, -1.46463096141815185547e-01) (2, -1.09850086271762847900e-01) (3, -1.92201495170593261719e-01) (4, -6.30883499979972839355e-02) (5, -9.94368419051170349121e-02) (6, -1.64088189601898193359e-01) (7, -3.96351590752601623535e-02) (8, -1.30964607000350952148e-01) (9, -1.30189180374145507812e-01) (10, -5.30692860484123229980e-02) (11, -2.22245529294013977051e-02) (12, -1.76813870668411254883e-01) (13, -2.14442700147628784180e-01) (14, -4.67819198966026306152e-02) (15, -1.00508548319339752197e-01) (16, -3.35768386721611022949e-02) (17, -4.46377322077751159668e-02) (18, -2.90370658040046691895e-02) (19, 2.38380283117294311523e-02) (20, 1.86063170433044433594e-01) (21, -1.75800234079360961914e-01) (22, 2.14233696460723876953e-01) (23, -2.91023924946784973145e-02) (24, -2.12160974740982055664e-01) (25, -7.88770839571952819824e-02) (26, -1.07464179396629333496e-01) (27, -9.33945700526237487793e-02) (28, -1.22275739908218383789e-01) (29, -1.59972265362739562988e-01) (30, -5.64149096608161926270e-02) (0, -1.51833012700080871582e-01) (1, -8.64353701472282409668e-02) (2, -1.46264985203742980957e-01) (3, -1.24034516513347625732e-01) (4, -1.29523724317550659180e-01) (5, -2.57018283009529113770e-02) (6, -6.81227073073387145996e-02) (7, 9.08411368727684020996e-02) (8, -1.36666446924209594727e-01) (9, 6.16881288588047027588e-02) (10, 5.77718652784824371338e-02) (11, -1.38890996575355529785e-01) (12, -1.35125756263732910156e-01) (13, -1.76670834422111511230e-01) (14, -1.65672913193702697754e-01) (15, -2.15634286403656005859e-01) (16, -1.90247684717178344727e-01) (17, -1.90310657024383544922e-01) (18, -2.46713683009147644043e-02) (19, -1.86409652233123779297e-01) (20, -2.42474898695945739746e-02) (21, 5.95284178853034973145e-02) (22, -1.92175984382629394531e-01) (23, -3.33498790860176086426e-02) (24, -1.72632560133934020996e-01) (25, -5.10530695319175720215e-02) (26, -1.20814062654972076416e-01) (27, -4.60271462798118591309e-02) (28, -1.53328806161880493164e-01) (29, -6.07863292098045349121e-02) (30, -8.24420377612113952637e-02) (0, -8.51618126034736633301e-02) (1, -1.27221688628196716309e-01) (2, -2.08707034587860107422e-01) (3, -1.89196318387985229492e-01) (4, -3.67453917860984802246e-02) (5, 2.55911499261856079102e-02) (6, 2.02680975198745727539e-01) (7, 7.40957409143447875977e-02) (8, -1.31075292825698852539e-01) (9, -1.95630908012390136719e-01) (10, -1.28132402896881103516e-01) (11, 1.90033733844757080078e-01) (12, 1.29243358969688415527e-01) (13, -8.48032310605049133301e-02) (14, -1.95639207959175109863e-01) (15, -1.06390938162803649902e-01) (16, -5.50509020686149597168e-02) (17, 7.40501582622528076172e-02) (18, -1.11062303185462951660e-01) (19, -2.14605703949928283691e-02) (20, -1.70197337865829467773e-01) (21, -7.15338811278343200684e-02) (22, -1.93636536598205566406e-01) (23, 5.64527884125709533691e-02) (24, -2.41664424538612365723e-02) (25, -2.46896073222160339355e-02) (26, -8.43612775206565856934e-02) (27, -5.01935705542564392090e-02) (28, -1.58018395304679870605e-01) (29, -1.25147596001625061035e-01) (30, -1.12635627388954162598e-01) (0, -2.31802091002464294434e-02) (1, -3.23692783713340759277e-02) (2, -1.01342655718326568604e-01) (3, -1.92376524209976196289e-01) (4, -4.91146668791770935059e-02) (5, -9.57515090703964233398e-02) (6, 3.03044542670249938965e-02) (7, -1.95018932223320007324e-01) (8, -2.06826806068420410156e-01) (9, -1.85326457023620605469e-01) (10, -1.03151321411132812500e-01) (11, -3.67930904030799865723e-02) (12, -7.60831013321876525879e-02) (13, -1.67954549193382263184e-01) (14, -2.12432295083999633789e-01) (15, -1.62474036216735839844e-01) (16, -2.03005462884902954102e-01) (17, -1.58382132649421691895e-01) (18, -5.35363182425498962402e-02) (19, -2.04466015100479125977e-01) (20, -1.08579471707344055176e-01) (21, -1.05070196092128753662e-01) (22, 6.18974603712558746338e-02) (23, 1.67873322963714599609e-01) (24, -1.09236635267734527588e-01) (25, -1.82792142033576965332e-01) (26, -1.36487960815429687500e-01) (27, -1.39430209994316101074e-01) (28, -1.20810538530349731445e-01) (29, -4.16355505585670471191e-02) (30, -3.20658162236213684082e-02) (0, 1.16009272634983062744e-01) (1, 1.85995191335678100586e-01) (2, 1.26591533422470092773e-01) (3, 1.43632739782333374023e-01) (4, 1.56880527734756469727e-01) (5, -1.89159989356994628906e-01) (6, 1.53937190771102905273e-01) (7, -5.81384077668190002441e-02) (8, 6.40132278203964233398e-02) (9, 1.88610762357711791992e-01) (10, -1.41289725899696350098e-01) (11, 4.72201406955718994141e-02) (12, 1.32527664303779602051e-01) (13, 1.50755733251571655273e-01) (14, 5.47878518700599670410e-02) (15, 1.90053641796112060547e-01) (16, -7.22497329115867614746e-02) (17, -1.23594291508197784424e-01) (18, 1.56517326831817626953e-01) (19, 1.83284252882003784180e-01) (20, 2.78262495994567871094e-02) (21, 7.14471265673637390137e-02) (22, 2.51817107200622558594e-02) (23, -6.43004402518272399902e-02) (24, 1.82210505008697509766e-01) (25, -1.77610442042350769043e-01) (26, 5.92116191983222961426e-02) (27, 6.27802908420562744141e-02) (28, -7.84209743142127990723e-02) (29, -2.02423930168151855469e-01) (30, 5.07144778966903686523e-02) 
